{"model_type":"mlp","input_size":63,"labels":["A","B","C","D","E","F","G","H","I","K","L","N","O","P","Q","S","T","U","V","W","X","Y"],"layers":[{"name":"dense_Dense1","input_size":63,"output_size":128,"activation":"relu","weights":[[-0.01625204086303711,-0.10013243556022644,0.06589246541261673,-0.19404135644435883,-0.02720048651099205,0.05493700131773949,-0.04101485759019852,0.00007883774378569797,-0.006822485476732254,0.08893120288848877,0.05798984691500664,-0.1426449865102768,0.024047421291470528,0.07495320588350296,0.04491358622908592,-0.023528877645730972,-0.025773534551262856,0.1268198937177658,-0.00095600780332461,0.047316599637269974,-0.0006651123403571546,0.10714083164930344,-0.02617049217224121,-0.04941723495721817,0.14962463080883026,-0.04712021350860596,0.047106094658374786,-0.09569311887025833,-0.12424343824386597,-0.010293993167579174,0.014332141727209091,-0.12914593517780304,0.07488422095775604,-0.0032726717181503773,-0.054528724402189255,-0.033635154366493225,0.004558140877634287,0.06728791445493698,0.028643114492297173,0.004963291808962822,-0.04620897024869919,0.06522054225206375,-0.1301351636648178,-0.038755711168050766,-0.048440828919410706,-0.05033823102712631,0.06484132260084152,0.0706913024187088,-0.031643085181713104,-0.10221634805202484,0.051842089742422104,-0.017381010577082634,-0.04435815289616585,-0.05829707160592079,-0.008459296077489853,-0.0701257660984993,-0.02425399050116539,0.013193127699196339,-0.0849379375576973,0.11530039459466934,0.044012393802404404,-0.06482627987861633,-0.09954933822154999,0.052636079490184784,-0.0184016190469265,0.1064894050359726,-0.13329312205314636,-0.02990570478141308,-0.07577861845493317,-0.15818901360034943,0.12342969328165054,-0.014090631157159805,0.00513374013826251,0.09643149375915527,0.07239450514316559,-0.08457840979099274,0.10037858039140701,-0.06449131667613983,0.0727582797408104,-0.18407878279685974,-0.0701821818947792,0.05390676110982895,0.10483801364898682,-0.05877962335944176,0.04192067310214043,-0.10021073371171951,-0.028942840173840523,-0.001860135467723012,0.09891939908266068,0.0028658173978328705,-0.02740740217268467,0.12290458381175995,-0.03550948202610016,0.027768876403570175,-0.021535981446504593,-0.009809786453843117,-0.04786757379770279,-0.08621853590011597,-0.007935977540910244,0.10370615869760513,-0.03757253661751747,-0.09537701308727264,-0.09302480518817902,0.021898668259382248,0.03694929555058479,0.04459767788648605,0.07316552847623825,0.14654922485351562,0.021021544933319092,-0.02360641211271286,0.10589122027158737,-0.049591947346925735,-0.07983801513910294,0.005535804200917482,-0.09777424484491348,-0.09378785640001297,-0.06692454218864441,0.0599137507379055,-0.01984238438308239,-0.03815801441669464,-0.11888977885246277,-0.03340643644332886,0.028729543089866638,0.0898810401558876,-0.0746869444847107,0.05196377635002136,0.06697938591241837,-0.09794600307941437],[-0.10245290398597717,0.08443835377693176,-0.1537369191646576,-0.1550033539533615,0.11187833547592163,-0.07401452958583832,-0.14353103935718536,-0.1598830372095108,0.07118093967437744,0.12423689663410187,-0.13348135352134705,-0.0934193804860115,0.028285393491387367,0.14513558149337769,-0.1398550122976303,-0.06532394886016846,0.05417671799659729,0.03067297674715519,0.020151302218437195,-0.11039263010025024,0.10533485561609268,0.08765501528978348,0.06031730771064758,0.0015846507158130407,0.032034970819950104,0.053425032645463943,0.023881061002612114,0.10087384283542633,-0.17918141186237335,-0.1388443112373352,0.11921317130327225,0.02836204692721367,0.04892702400684357,-0.13660414516925812,-0.02761402167379856,-0.05273967236280441,0.06602449715137482,0.059147052466869354,0.1430942863225937,-0.03205064684152603,-0.03881121054291725,0.04028090089559555,0.1114739328622818,0.0673266053199768,-0.0009797830134630203,0.1538158804178238,-0.07169714570045471,0.05123327672481537,0.03705824911594391,-0.10850967466831207,-0.06489699333906174,0.1212255209684372,-0.0499972403049469,-0.10516102612018585,0.019134270027279854,0.02670595981180668,0.06536147743463516,-0.18813177943229675,0.06586993485689163,-0.0074716308154165745,0.06403174996376038,-0.12818282842636108,-0.0674959048628807,0.032213613390922546,-0.1268743872642517,0.013556042686104774,-0.18718670308589935,-0.032008640468120575,-0.029190445318818092,-0.03223264962434769,-0.07546035200357437,0.07735522836446762,0.027154240757226944,0.04149782657623291,-0.12208311259746552,0.03936034068465233,-0.002047681249678135,-0.003955934662371874,0.17238567769527435,-0.06958356499671936,0.03350745514035225,-0.11954561620950699,-0.07508783787488937,0.1090998500585556,0.03251165151596069,0.008055166341364384,-0.010170879773795605,0.02797834761440754,-0.0017002803506329656,0.14423537254333496,0.06523052603006363,0.009164893999695778,0.012373858131468296,-0.1460103690624237,0.06336454302072525,0.07786712050437927,-0.0658479556441307,0.010859236121177673,0.14691951870918274,0.14775405824184418,0.014448431320488453,-0.1525888741016388,0.11652009189128876,0.04972745105624199,0.058500222861766815,-0.02694292739033699,0.057344451546669006,0.06997119635343552,0.0771321952342987,0.016289984807372093,-0.0037319823168218136,-0.021747013553977013,-0.15491747856140137,-0.18816311657428741,-0.16649270057678223,-0.14855316281318665,-0.086340993642807,0.04018222540616989,-0.06311051547527313,-0.008762174285948277,0.06090008467435837,-0.1639309525489807,0.03427937626838684,0.01777765154838562,-0.08026564866304398,0.014264033176004887,-0.10384621471166611,-0.11750414222478867],[0.09507086873054504,-0.11106780171394348,-0.058743514120578766,-0.022216731682419777,0.09682747721672058,-0.036931686103343964,-0.10833030939102173,-0.09367922693490982,0.04503259435296059,0.0007786809001117945,0.16440099477767944,0.024942638352513313,0.157276913523674,-0.041732486337423325,-0.025339307263493538,-0.017843229696154594,0.07197172939777374,-0.05511074140667915,-0.04343314841389656,-0.019237302243709564,-0.0052804602310061455,-0.11120840162038803,-0.08635745197534561,0.008001375012099743,0.02732086554169655,-0.11631737649440765,-0.09189605712890625,0.02182837203145027,-0.06341039389371872,0.04033741354942322,-0.1000431701540947,-0.05507368594408035,0.09466391056776047,0.13266853988170624,0.06621979176998138,0.1252330094575882,-0.005354919470846653,0.007082457188516855,0.018391773104667664,-0.04308158531785011,0.024804845452308655,-0.029797609895467758,0.08694848418235779,0.11709106713533401,-0.03702828660607338,-0.11204049736261368,0.1052408441901207,-0.0012236194452270865,0.07496848702430725,-0.1445898562669754,0.08283893764019012,0.0523546002805233,-0.08781515061855316,-0.0514129213988781,0.05929878354072571,-0.039887212216854095,-0.016937104985117912,0.08433520793914795,0.06525188684463501,0.004917223006486893,0.010887231677770615,-0.11848106235265732,-0.02652713470160961,0.047379929572343826,0.11696746200323105,-0.00019132923625875264,-0.027879903092980385,0.037896592170000076,-0.13242848217487335,-0.08927704393863678,-0.11523126810789108,0.02565619722008705,0.14493313431739807,-0.14235742390155792,0.07806003838777542,-0.0026926714926958084,-0.12680627405643463,-0.18475259840488434,-0.07879791408777237,-0.12843142449855804,0.0394701324403286,0.08762698620557785,-0.1136917844414711,-0.06244593858718872,0.1713375747203827,-0.10937929898500443,0.06898824125528336,-0.07429779320955276,0.200331911444664,0.03429584205150604,-0.020791346207261086,-0.002972883405163884,-0.021302148699760437,-0.06603480875492096,0.10490214079618454,-0.13958600163459778,0.04832402989268303,-0.0605752095580101,-0.04870990663766861,-0.008817696012556553,-0.16994613409042358,0.13580091297626495,-0.02208702825009823,-0.043679580092430115,-0.06219780072569847,-0.023128820583224297,0.0043291919864714146,0.0010953197488561273,-0.08670754730701447,-0.029054107144474983,-0.034862127155065536,0.05069966986775398,-0.048871565610170364,0.009075094014406204,0.02990122325718403,-0.020968034863471985,-0.05859722942113876,0.030987804755568504,0.12891387939453125,-0.02303910069167614,-0.06568130105733871,0.10127736628055573,0.01438837219029665,0.10798104107379913,0.08137920498847961,-0.13251559436321259,0.1341840773820877,-0.06849126517772675],[-0.17898254096508026,-0.00868071150034666,0.034935113042593,-0.07195278257131577,-0.00043225300032645464,0.008910490199923515,0.006681241560727358,0.026067586615681648,0.09074398130178452,0.055203646421432495,0.03436020389199257,0.2451639175415039,-0.189077690243721,-0.2985096573829651,-0.051716823130846024,-0.0801927000284195,0.18997913599014282,-0.029373502358794212,-0.2290244847536087,0.10280922800302505,-0.058103807270526886,0.07389245927333832,-0.04949747771024704,-0.04355229064822197,0.06432785838842392,-0.09318166971206665,-0.18912723660469055,0.14323951303958893,-0.00463836407288909,-0.15308447182178497,-0.11509811133146286,-0.01773466169834137,0.1336682140827179,0.02621086873114109,0.011593448929488659,-0.058236777782440186,0.24389642477035522,-0.13805872201919556,-0.02601848728954792,0.23087887465953827,-0.2557269334793091,-0.0008537639514543116,0.11055770516395569,0.18632858991622925,0.2601971924304962,-0.21420717239379883,-0.1089407354593277,-0.25975301861763,0.11320734769105911,0.12080814689397812,0.030917884781956673,0.48732835054397583,-0.1384412944316864,0.1943085789680481,-0.1905968338251114,-0.08349709957838058,-0.051105108112096786,-0.04042467474937439,0.12494394183158875,0.014085727743804455,0.06521625071763992,-0.047342922538518906,-0.10566521435976028,-0.03800850361585617,0.2284010499715805,-0.017090143635869026,0.201636403799057,-0.3584557771682739,-0.1721235066652298,-0.2171015739440918,0.0615638829767704,-0.14371566474437714,-0.14626362919807434,0.16468945145606995,0.11834719032049179,-0.03643512353301048,-0.24328218400478363,-0.025096634402871132,-0.17928296327590942,0.3682442605495453,-0.07052978128194809,-0.05149892717599869,-0.004397192969918251,0.08688763529062271,0.23703768849372864,-0.07824088633060455,-0.04615065082907677,-0.2823595404624939,-0.0019964587409049273,-0.20260722935199738,-0.3985666334629059,-0.22140733897686005,-0.0863683670759201,0.11429095268249512,0.2837338447570801,0.01776832342147827,0.21075059473514557,-0.13764047622680664,0.013571263290941715,-0.14522641897201538,0.05953247472643852,0.02754973992705345,-0.1773858517408371,-0.02131669968366623,0.038432542234659195,0.319715678691864,0.2026752233505249,0.08519730716943741,-0.13037094473838806,-0.26591289043426514,0.25834381580352783,-0.05333288758993149,0.08816880732774734,-0.05521109327673912,-0.09217462688684464,-0.12618352472782135,0.016754722222685814,0.2834071218967438,0.27530112862586975,0.1069604828953743,-0.07135220617055893,-0.22456203401088715,0.1959306299686432,0.24965643882751465,0.10083227604627609,-0.027822978794574738,0.02960563637316227,-0.11108336597681046],[0.036398693919181824,0.1684725135564804,0.1291765570640564,-0.1667463183403015,-0.0587833970785141,0.022088564932346344,0.0021746079437434673,0.1474454700946808,0.05136913061141968,0.045123957097530365,-0.33510667085647583,0.2049882709980011,-0.13983172178268433,0.19474674761295319,0.24300558865070343,0.10461331158876419,0.057076346129179,0.05764119699597359,-0.11355575919151306,0.16831275820732117,0.11096033453941345,-0.06463911384344101,0.03233519569039345,-0.2130621373653412,0.1465749889612198,-0.04044230654835701,0.02341884933412075,-0.30119600892066956,-0.14444781839847565,-0.2586517333984375,0.010330859571695328,0.3049679398536682,0.03131166473031044,0.1958833783864975,0.1815863996744156,-0.33526861667633057,-0.04330718517303467,0.005409919191151857,-0.05137015879154205,0.1124102771282196,-0.3371916115283966,0.19917520880699158,0.14711734652519226,0.21641767024993896,-0.004503002390265465,-0.11032523959875107,0.25861692428588867,-0.04968833178281784,-0.13146671652793884,0.02307748794555664,0.2061702013015747,-0.005163021385669708,-0.14566421508789062,-0.2429090142250061,-0.5160808563232422,0.21951137483119965,-0.18388120830059052,-0.013314810581505299,-0.025318780913949013,0.19322849810123444,-0.07597988843917847,0.20610062777996063,-0.05400260165333748,0.09916825592517853,-0.08603677153587341,-0.11516374349594116,-0.06310779601335526,-0.29370248317718506,-0.06800474971532822,0.026926886290311813,0.25646063685417175,0.0976305603981018,-0.05224665626883507,-0.0846872627735138,0.16541409492492676,-0.4474423825740814,-0.1028449609875679,0.13737867772579193,0.3280337154865265,-0.20383943617343903,0.07501541823148727,0.10342142730951309,0.16129182279109955,-0.046566687524318695,-0.08091066777706146,-0.035881053656339645,-0.21338950097560883,-0.08892455697059631,0.10267096012830734,-0.20183438062667847,-0.19912506639957428,-0.09143757075071335,0.23835936188697815,-0.17217481136322021,-0.14347057044506073,0.08605500310659409,0.07901427894830704,-0.008827715180814266,0.17882919311523438,-0.157328799366951,-0.15349045395851135,-0.1252971738576889,0.2939836084842682,-0.12160636484622955,0.2172781378030777,0.12783236801624298,0.11131243407726288,-0.13180476427078247,-0.15202754735946655,-0.42761433124542236,0.16970089077949524,0.01692083291709423,0.01866273209452629,0.41934430599212646,-0.2999655604362488,-0.30171194672584534,-0.15073420107364655,0.0966070145368576,0.1683327555656433,0.08138977736234665,0.08412841707468033,-0.24572834372520447,-0.0396735742688179,-0.1238456666469574,0.03583259880542755,0.176710844039917,-0.36652565002441406,0.0740087553858757],[-0.25194621086120605,0.018242014572024345,-0.09691780060529709,0.015822917222976685,-0.018910018727183342,0.30178022384643555,-0.425448477268219,-0.22071972489356995,0.13716693222522736,0.1977381557226181,-0.19814433157444,0.046200547367334366,0.07640516012907028,-0.27768996357917786,-0.25519850850105286,-0.021694041788578033,-0.027741586789488792,-0.11312154680490494,-0.03505738079547882,0.08394043892621994,-0.15526829659938812,-0.04588853940367699,-0.050881437957286835,0.15339131653308868,0.1366765946149826,-0.37782996892929077,-0.26252710819244385,-0.36919885873794556,0.3109237253665924,0.052751973271369934,-0.15175703167915344,-0.2811015546321869,-0.2816394865512848,0.26702749729156494,0.12071242183446884,0.29712018370628357,-0.07865769416093826,0.09747877717018127,0.04818901792168617,-0.03411415219306946,0.16624784469604492,0.04776285961270332,-0.09304255247116089,0.10450460016727448,-0.11055764555931091,0.16135157644748688,-0.30250081419944763,0.15702390670776367,0.2768304944038391,0.07421786338090897,-0.3000296354293823,-0.3370716869831085,0.08811959624290466,-0.03854295611381531,0.19061057269573212,-0.011459260247647762,0.09049588441848755,0.700934648513794,0.07742343842983246,-0.24128763377666473,0.15450595319271088,-0.19233708083629608,-0.27433711290359497,-0.047510746866464615,0.07657831907272339,-0.10981384664773941,0.2721806764602661,0.02867688238620758,0.11355870962142944,0.4872070550918579,0.39533811807632446,-0.016603415831923485,-0.19696170091629028,0.23658111691474915,-0.0910615622997284,0.3595176339149475,-0.04205286502838135,0.0643405094742775,-0.42504069209098816,-0.18765957653522491,-0.20588980615139008,0.05994580313563347,-0.08496014773845673,-0.11105786263942719,-0.17801901698112488,0.15851187705993652,0.36886322498321533,0.11113211512565613,-0.08735469728708267,0.24826425313949585,0.35195496678352356,-0.40676552057266235,-0.09719386696815491,-0.2630982995033264,-0.054689403623342514,-0.14750291407108307,-0.04254909232258797,-0.2344026416540146,-0.2869632840156555,-0.45356377959251404,0.10690928995609283,-0.36670663952827454,-0.3823246657848358,0.22197045385837555,0.39394330978393555,-0.15855681896209717,0.02169012650847435,0.10290316492319107,0.3122456669807434,-0.1745981127023697,-0.3560897707939148,-0.0828789472579956,-0.16010481119155884,0.3298399746417999,0.04537598043680191,-0.05762655287981033,0.30302461981773376,0.01311549823731184,-0.10263251513242722,-0.15208934247493744,0.14187856018543243,0.5512070655822754,0.08705446124076843,0.5929610729217529,0.026919163763523102,-0.012209365144371986,0.10166811943054199,0.05649491772055626],[-0.2453252673149109,-0.1309804469347,-0.17672762274742126,0.3426509201526642,0.21963226795196533,-0.14930324256420135,0.04716990143060684,-0.3331316113471985,0.3156207501888275,-0.00866958312690258,-0.14166361093521118,0.06925740092992783,-0.2966645658016205,-0.041958004236221313,-0.2134765386581421,-0.16625472903251648,-0.04192230477929115,0.14464622735977173,-0.10485740005970001,-0.15693482756614685,-0.318055123090744,0.16003520786762238,0.009285013191401958,-0.09434237331151962,0.044633448123931885,-0.18923121690750122,-0.30435076355934143,0.08596063405275345,-0.12005214393138885,0.06433219462633133,0.11243467032909393,-0.003720611799508333,-0.04986325651407242,-0.16079430282115936,-0.11895954608917236,0.049970146268606186,0.005549764260649681,-0.023151572793722153,-0.16122128069400787,0.4315975606441498,-0.2221885323524475,0.06335971504449844,0.1278744786977768,-0.09015341103076935,0.14574690163135529,-0.10916000604629517,0.03793495148420334,-0.35582855343818665,0.22432255744934082,0.17748326063156128,-0.3409746587276459,0.657819926738739,0.02517218142747879,0.18283839523792267,-0.0245455801486969,0.07977127283811569,0.2609274387359619,0.006999148055911064,0.28241002559661865,0.0451730377972126,0.12847298383712769,0.237110435962677,-0.1478475034236908,0.3258986175060272,0.22870825231075287,-0.05675482377409935,-0.10287646949291229,-0.052586667239665985,0.10603431612253189,-0.1355481743812561,-0.051281847059726715,-0.09906516224145889,-0.21473249793052673,0.13711869716644287,-0.21856945753097534,0.07071883231401443,0.03985579311847687,-0.11894549429416656,-0.16851015388965607,0.5052134394645691,-0.2358505129814148,0.0768604427576065,-0.12563428282737732,0.012759178876876831,0.11789795756340027,0.3820248246192932,-0.160614013671875,0.0305138248950243,0.1282961368560791,0.029529321938753128,-0.3130421042442322,-0.1657954305410385,0.11055353283882141,-0.0900638997554779,0.24833494424819946,0.31759652495384216,0.12623874843120575,-0.06179128959774971,-0.22448156774044037,-0.27580180764198303,-0.2527695894241333,-0.041047703474760056,-0.17325574159622192,0.09950999170541763,-0.0067634605802595615,0.0023930033203214407,0.26784735918045044,0.3935709595680237,-0.0036316835321485996,-0.010407865978777409,0.07408437877893448,0.0846552699804306,0.1581890881061554,-0.2741941809654236,-0.29687267541885376,-0.11808499693870544,0.034002695232629776,0.1736542135477066,0.2000073343515396,-0.1493918001651764,0.03963382914662361,0.10701632499694824,0.3226328194141388,0.3277236819267273,0.06171927601099014,-0.14903347194194794,0.03245371952652931,-0.10534567385911942],[0.08170273900032043,0.1166861429810524,0.193890780210495,-0.2321920394897461,0.038641005754470825,-0.07153116911649704,-0.0832090824842453,0.07369555532932281,0.010756625793874264,-0.03442377224564552,-0.08273668587207794,0.13675382733345032,0.11932661384344101,-0.04834746941924095,0.008696163073182106,0.25642868876457214,0.021412670612335205,0.10401248931884766,-0.03569996356964111,0.2802233099937439,0.10863425582647324,-0.2982727885246277,0.18888047337532043,-0.2571108043193817,0.028350036591291428,-0.0647827684879303,-0.03186548501253128,-0.13754375278949738,0.1088109165430069,-0.22941231727600098,-0.1624412089586258,0.10579921305179596,0.07921469956636429,0.162918359041214,0.0076775564812123775,-0.2337757796049118,-0.273124098777771,0.314531534910202,-0.07816958427429199,-0.08068148046731949,-0.13840293884277344,-0.13817647099494934,0.23629127442836761,-0.012501847930252552,-0.0031546561513096094,-0.06519857794046402,0.20993198454380035,0.02495146542787552,-0.21921361982822418,-0.05298146978020668,0.12574249505996704,-0.03248704597353935,-0.25397366285324097,-0.2206149846315384,-0.2907094657421112,0.12917663156986237,-0.2424103021621704,0.11197763681411743,-0.25710710883140564,0.1425648182630539,0.02561384066939354,0.12564826011657715,-0.043311771005392075,-0.06104860082268715,-0.09539993107318878,-0.11984353512525558,0.2399144172668457,-0.22456565499305725,-0.15188449621200562,-0.05773509293794632,0.3246297538280487,0.18342027068138123,0.09516765177249908,-0.2056742161512375,0.18318994343280792,-0.011703969910740852,-0.23314771056175232,0.16144539415836334,0.16560010612010956,-0.22699274122714996,-0.10697364807128906,0.09854669123888016,0.05389373376965523,-0.10893848538398743,0.08076636493206024,-0.23854872584342957,-0.14445984363555908,-0.1194627657532692,-0.041181303560733795,-0.05839069187641144,-0.07418626546859741,-0.19339139759540558,0.23467934131622314,-0.005696030333638191,-0.06787372380495071,-0.09775842726230621,-0.13902226090431213,-0.040655381977558136,0.07720014452934265,-0.1267624795436859,-0.16803047060966492,-0.03521769493818283,0.09450601786375046,-0.07131573557853699,0.17752797901630402,0.03531767055392265,0.13515639305114746,-0.16875624656677246,0.013414295390248299,-0.2432253509759903,0.04757888987660408,0.13763538002967834,-0.14599083364009857,0.4257877767086029,0.02252866141498089,-0.010115099139511585,-0.1558961272239685,0.158392533659935,0.27174636721611023,0.091776542365551,-0.08954743295907974,-0.06207240745425224,-0.19768846035003662,-0.1730450540781021,0.06146691367030144,0.015462354756891727,-0.1872837096452713,0.13051430881023407],[-0.03196519613265991,-0.17395855486392975,0.04895157366991043,0.062134236097335815,-0.15133889019489288,0.0855066180229187,-0.31429019570350647,-0.21244914829730988,-0.013871421106159687,0.26469090580940247,-0.1668744683265686,0.08858579397201538,0.0739152729511261,-0.1597065031528473,-0.3334790766239166,-0.15311892330646515,0.02176445908844471,-0.312567800283432,-0.17601364850997925,0.03063194639980793,-0.10319443792104721,0.1338624507188797,0.018577367067337036,0.031026579439640045,0.10266268998384476,-0.2663743793964386,-0.36641865968704224,-0.1660204976797104,0.4866163432598114,-0.02050873450934887,-0.14200353622436523,-0.03944529592990875,-0.29432547092437744,0.08059784770011902,0.0635339543223381,0.13876204192638397,-0.14228765666484833,-0.21776226162910461,0.029300957918167114,0.04068467766046524,0.1932293027639389,0.20348335802555084,-0.285153329372406,0.20332381129264832,0.0032003044616431,0.07075163722038269,-0.10952739417552948,0.012484601698815823,0.11345217376947403,-0.01467892061918974,-0.18016214668750763,-0.24593180418014526,0.020842285826802254,0.051111456006765366,0.3846333622932434,0.04302049055695534,0.07115332782268524,0.5172507166862488,-0.054109442979097366,-0.34249618649482727,0.07106795161962509,-0.24202494323253632,-0.3253825604915619,-0.1585327386856079,-0.1275683343410492,-0.07163915783166885,0.1477278620004654,0.022175343707203865,0.130179300904274,0.22926442325115204,0.3734774887561798,0.0745263323187828,-0.0347028411924839,0.08432834595441818,0.0011518953833729029,0.429142028093338,-0.10458600521087646,-0.17239165306091309,-0.24508948624134064,0.11385312676429749,-0.38295695185661316,-0.13351252675056458,-0.3141835927963257,-0.01087238173931837,0.07948862761259079,0.024925054982304573,0.1952103227376938,0.0921020433306694,0.0908433347940445,0.2549585700035095,0.10209105163812637,-0.39623281359672546,-0.121126189827919,-0.12423863261938095,-0.18812976777553558,0.04751698672771454,-0.05326647311449051,-0.2207167148590088,-0.12027064710855484,-0.12353125214576721,0.006890659220516682,-0.20322485268115997,-0.10048532485961914,0.10806208848953247,0.20144091546535492,-0.24653446674346924,-0.07197177410125732,0.1905541568994522,0.11074035614728928,-0.23719097673892975,-0.2589852511882782,0.07638402283191681,-0.06416042149066925,0.2881007790565491,0.14235278964042664,0.04942109435796738,0.2456870824098587,-0.04015297815203667,-0.18912895023822784,-0.2685978412628174,-0.08759469538927078,0.18155249953269958,0.005314397159963846,0.45411089062690735,0.042013753205537796,0.06126118451356888,0.11773543804883957,-0.23450642824172974],[-0.4152238070964813,-0.0014917822554707527,-0.0970064103603363,0.26097723841667175,-0.07992681860923767,0.22323432564735413,-0.01814229041337967,-0.20677928626537323,0.38420411944389343,0.3335759937763214,-0.16797833144664764,0.1108425110578537,-0.5678595900535583,-0.044799212366342545,-0.21621595323085785,-0.21173599362373352,0.21716466546058655,0.1286034882068634,-0.257995069026947,-0.16948159039020538,-0.4407770037651062,0.2070624828338623,0.0358072891831398,-0.005642805714160204,0.2505291998386383,-0.1912233680486679,-0.2498737871646881,0.14412082731723785,-0.0677269995212555,-0.0378265418112278,-0.1353801041841507,0.2779982089996338,-0.31188517808914185,-0.018297409638762474,-0.00671808747574687,0.042030658572912216,0.08155982196331024,0.018599728122353554,0.2504279911518097,0.5203247666358948,-0.2697276175022125,0.37197145819664,0.19895564019680023,0.26045921444892883,0.24864131212234497,0.015004276297986507,-0.15816304087638855,-0.17740857601165771,0.015893688425421715,-0.031585630029439926,-0.29093047976493835,0.5901162624359131,0.15293782949447632,0.20054996013641357,-0.11523927003145218,-0.1514437347650528,0.2877568006515503,-0.2155674546957016,0.013629760593175888,0.25026756525039673,0.13382475078105927,0.0966048613190651,-0.062289319932460785,0.22952823340892792,0.42586222290992737,-0.1972682774066925,-0.23900552093982697,-0.08838973194360733,0.3953329026699066,-0.15032967925071716,-0.10096389055252075,-0.3201220631599426,-0.264230340719223,0.2527896463871002,0.06791312992572784,-0.1966339647769928,0.27374833822250366,0.08384549617767334,0.12781640887260437,0.4789873957633972,-0.20725318789482117,0.013675568625330925,0.22362680733203888,-0.016701532527804375,0.037283755838871,0.23524586856365204,-0.4670450687408447,0.0655612200498581,-0.009419047273695469,-0.2313239872455597,-0.13311178982257843,-0.32207533717155457,0.0881291925907135,-0.0977485179901123,-0.019652478396892548,-0.043169163167476654,0.41630813479423523,-0.09009744226932526,-0.24541296064853668,-0.3653745651245117,0.1526115983724594,0.1675073802471161,-0.40752366185188293,0.32244008779525757,-0.21642225980758667,0.08896952867507935,0.3916753828525543,0.28073689341545105,0.09104260802268982,-0.1037912666797638,0.4386574327945709,-0.22838735580444336,0.4723623991012573,-0.27562394738197327,-0.21806995570659637,0.13429167866706848,0.18980666995048523,0.3089219629764557,0.19798433780670166,0.1676095873117447,0.08344835042953491,0.3792320787906647,0.11925535649061203,0.3410795331001282,-0.007030705455690622,0.1771746575832367,-0.06857440620660782,-0.016867293044924736],[0.020295891910791397,0.11118073016405106,0.1614394336938858,-0.16787804663181305,-0.11721797287464142,-0.12603901326656342,-0.29032859206199646,0.020849209278821945,0.041938427835702896,0.05032098665833473,0.11767902970314026,-0.0708499476313591,0.051875628530979156,0.09841936081647873,0.02959776669740677,0.3366960287094116,-0.039516631513834,0.13215038180351257,-0.13649886846542358,0.2811952531337738,0.15434294939041138,-0.11920937150716782,0.2188885658979416,-0.2087487429380417,0.07446419447660446,-0.1509162038564682,0.1732930988073349,-0.0909966304898262,0.16234487295150757,-0.38941124081611633,-0.1773013174533844,0.14784756302833557,0.05929005891084671,0.2394687533378601,0.2518163025379181,-0.23233893513679504,-0.14087066054344177,-0.004528154619038105,-0.19955800473690033,-0.14485712349414825,0.014583070762455463,0.14237137138843536,-0.027550308033823967,0.19820359349250793,0.005715114995837212,-0.1441953480243683,0.0687420517206192,0.12522055208683014,-0.10576102137565613,0.031136363744735718,0.2253967821598053,-0.1024780422449112,-0.0818745493888855,-0.3265085816383362,-0.21496586501598358,0.07658812403678894,-0.33084335923194885,0.05595418065786362,-0.1568927764892578,0.16928036510944366,0.005949367769062519,0.41781026124954224,-0.0743701159954071,-0.034246064722537994,-0.3291369676589966,0.023892013356089592,0.20928017795085907,-0.13812671601772308,-0.025584904477000237,0.14006701111793518,0.26795637607574463,0.32948800921440125,0.052865274250507355,-0.1572139710187912,0.10398849099874496,0.09993357956409454,-0.1768336147069931,0.01521351933479309,-0.08068349212408066,-0.26718732714653015,0.12822014093399048,0.0710584968328476,0.15965528786182404,-0.2411915361881256,0.03652571886777878,-0.12605461478233337,0.048741623759269714,-0.26702049374580383,0.26870355010032654,0.041494715958833694,-0.07881981134414673,-0.12607572972774506,0.21661151945590973,0.028274355456233025,-0.2457239031791687,-0.04632967710494995,-0.07484440505504608,-0.06008493900299072,0.2101072072982788,-0.16272205114364624,-0.26639407873153687,-0.1422761082649231,0.12105386704206467,-0.10610503703355789,0.23838244378566742,0.22249791026115417,-0.09257517009973526,-0.00791180320084095,-0.05242573842406273,-0.38109859824180603,-0.18185760080814362,0.09730164706707001,-0.022780539467930794,0.3821415901184082,0.11603205651044846,-0.03545699268579483,-0.25433704257011414,-0.0021261819638311863,-0.07908662408590317,0.09711676836013794,-0.019952045753598213,0.013175389729440212,-0.12470857799053192,-0.09416735917329788,0.13814109563827515,0.24618104100227356,-0.008673330768942833,0.09941650182008743],[-0.14958101511001587,-0.05035543069243431,-0.09662800282239914,0.04185717925429344,-0.08294942229986191,-0.10923141986131668,-0.3262742757797241,-0.23503755033016205,0.17589539289474487,0.01825716346502304,-0.14615769684314728,-0.017801035195589066,0.11935043334960938,-0.11665826290845871,-0.24560368061065674,-0.1161409318447113,-0.014312706887722015,-0.16256459057331085,-0.24491678178310394,0.1702878475189209,-0.07040255516767502,-0.025812221691012383,-0.07064639776945114,0.10558351129293442,0.16943657398223877,-0.2236599326133728,-0.20385055243968964,-0.16541390120983124,0.4732208251953125,-0.02938511222600937,-0.1539587378501892,0.05922507494688034,-0.12091337144374847,0.12733285129070282,0.15657062828540802,0.10774143040180206,-0.07724374532699585,-0.10350271314382553,0.07423417270183563,0.15164095163345337,-0.07721446454524994,0.03048376925289631,-0.12868808209896088,0.06464670598506927,0.110463447868824,0.006379577796906233,-0.13934701681137085,0.10614726692438126,0.159888356924057,-0.023073561489582062,-0.20659731328487396,-0.30550631880760193,-0.04675194248557091,-0.11647156625986099,0.1670847237110138,-0.16064178943634033,0.010605710558593273,0.43898990750312805,0.021451976150274277,-0.13552996516227722,-0.09284341335296631,-0.028080780059099197,-0.3084811568260193,-0.26600947976112366,-0.034241192042827606,-0.0074168904684484005,0.054763421416282654,0.027732443064451218,0.040482718497514725,0.11867278814315796,-0.04353820160031319,-0.11971625685691833,-0.08388431370258331,0.09679032117128372,0.06832621246576309,0.30713164806365967,-0.09062507748603821,-0.1634352058172226,-0.4225969910621643,0.027330419048666954,-0.20179873704910278,0.01569441705942154,-0.12309683114290237,-0.16976016759872437,-0.09470712393522263,-0.14199405908584595,-0.008100815117359161,0.1302586793899536,-0.21322886645793915,0.11789803951978683,-0.018547479063272476,-0.40376800298690796,-0.16126181185245514,-0.2706088721752167,0.06483948975801468,-0.16795068979263306,-0.11940564960241318,-0.07130297273397446,-0.35118770599365234,-0.05845172703266144,0.07288182526826859,-0.1803647130727768,-0.17676866054534912,0.034123748540878296,0.1543005108833313,-0.3011242747306824,-0.0372605100274086,-0.01576223410665989,-0.058089230209589005,0.09762044996023178,-0.08479726314544678,-0.24777568876743317,-0.14481739699840546,0.3502393960952759,-0.04238756746053696,0.11458098143339157,0.016423095017671585,0.013321038335561752,-0.09260299801826477,-0.3476915657520294,-0.12307479232549667,0.269852876663208,0.08026085793972015,0.59285968542099,-0.08884981274604797,0.004285542760044336,0.08840534090995789,-0.04547913745045662],[0.10796258598566055,-0.12086986005306244,0.6392316222190857,-0.008508617989718914,-0.18442463874816895,0.3518524765968323,-0.5288068652153015,0.24249504506587982,0.4389072358608246,0.27585741877555847,-0.09610066562891006,0.3958693742752075,-0.48131242394447327,-0.019146233797073364,-0.49716389179229736,0.1959819793701172,0.1631999909877777,0.021876007318496704,-0.35250404477119446,0.4412764608860016,-0.4296743869781494,0.05737157166004181,-0.09033171087503433,-0.5465928912162781,0.6546043157577515,0.03987010195851326,-0.3268781006336212,0.19386515021324158,0.17371784150600433,-0.1270582526922226,-0.09037113189697266,0.6077646613121033,-0.06163657456636429,0.04513081908226013,-0.05831677094101906,-0.1928585171699524,0.2422829568386078,-0.09430749714374542,0.11692439764738083,0.3171383738517761,-0.6579551696777344,0.6130867004394531,0.5439040064811707,0.5988774299621582,0.2573153078556061,0.1149606704711914,0.3877277076244354,-0.1308242380619049,-0.03221609815955162,0.2699023485183716,0.4315301477909088,0.3617188632488251,-0.43847891688346863,0.2743414044380188,-0.10620289295911789,0.16277730464935303,-0.13884063065052032,-0.4942011535167694,-0.5040517449378967,0.19496679306030273,0.08332762122154236,0.21532154083251953,-0.1942240446805954,0.6150856018066406,0.3347037732601166,-0.08268573135137558,0.17876888811588287,-0.13271673023700714,0.08211571723222733,0.33515796065330505,0.07134582847356796,-0.49730828404426575,-0.16136276721954346,-0.001915140193887055,0.5354881882667542,-0.026711370795965195,0.4962148070335388,0.537368655204773,0.5286688208580017,0.2952953279018402,0.02008361928164959,0.0014469734160229564,0.20219630002975464,0.1550167202949524,-0.10723315924406052,0.1009875163435936,-0.5180256366729736,-0.3832532465457916,-0.06245696172118187,-0.6411837935447693,0.2319551557302475,-0.44136038422584534,0.12889201939105988,-0.23336760699748993,0.33731982111930847,-0.4243963956832886,0.42959630489349365,0.3825610876083374,0.21604235470294952,-0.5058295726776123,0.4244643747806549,0.47167932987213135,-0.4502038061618805,-0.34843212366104126,0.19199040532112122,-0.2688531279563904,0.3216472268104553,-0.039772771298885345,0.36248448491096497,-0.5616711974143982,0.5284165740013123,0.010969971306622028,0.596321702003479,-0.006773041561245918,0.20928555727005005,0.3641151487827301,0.3161616325378418,0.20807422697544098,0.31977060437202454,0.5155848264694214,-0.6635564565658569,0.49136608839035034,-0.1161794513463974,0.3294045925140381,-0.5824568271636963,-0.20346981287002563,0.0857037603855133,0.12465708702802658],[-0.08806994557380676,0.29822030663490295,0.4082668721675873,-0.2785561978816986,-0.013619748875498772,0.027449505403637886,-0.145048126578331,0.21318328380584717,-0.12745346128940582,0.16783827543258667,-0.023092087358236313,0.13936267793178558,-0.02064473368227482,0.18274343013763428,0.15255916118621826,0.3849804997444153,0.20362155139446259,0.14129944145679474,-0.04031171649694443,0.19123445451259613,0.14148376882076263,-0.12400323897600174,0.16356544196605682,-0.25599366426467896,-0.16787394881248474,-0.3025840222835541,-0.010910400189459324,-0.0850965604186058,-0.010133374482393265,-0.35121044516563416,-0.3326743543148041,-0.013034844771027565,0.2050984650850296,0.1752866804599762,0.21121248602867126,-0.3145633041858673,-0.22248877584934235,0.1904533952474594,-0.29850253462791443,-0.1571238934993744,-0.276787132024765,0.0027689719572663307,-0.09058926999568939,0.24784855544567108,0.05479574203491211,-0.1815183311700821,0.13991694152355194,0.00011674035340547562,0.0307389497756958,-0.19651387631893158,0.10543141514062881,-0.04496442899107933,-0.15808774530887604,-0.18073123693466187,-0.3059329092502594,0.17503343522548676,-0.1451272815465927,-0.0038185585290193558,-0.07415474951267242,0.1739739328622818,-0.02139260619878769,0.32681795954704285,-0.2212001234292984,-0.004884968977421522,-0.1820572018623352,0.19515934586524963,0.23519210517406464,-0.04400191828608513,-0.350090891122818,0.06824331730604172,0.3026253879070282,0.2146555334329605,0.05195237696170807,-0.07902341336011887,0.10187997668981552,-0.022438617423176765,-0.3374561369419098,0.0867069885134697,0.09258541464805603,-0.09900814294815063,-0.07250601798295975,0.2497628778219223,-0.06105998903512955,-0.23384913802146912,-0.05272391811013222,-0.008003199473023415,0.0705554261803627,-0.07838401943445206,0.17927713692188263,-0.011563567444682121,0.12418769299983978,-0.3136763870716095,0.1893041580915451,0.21823856234550476,-0.373248428106308,0.07812545448541641,-0.03364807739853859,0.08784951269626617,0.32425427436828613,-0.21806108951568604,0.036136116832494736,-0.021414993330836296,0.08827177435159683,-0.12233373522758484,0.3961962163448334,0.15048982203006744,-0.07990457862615585,-0.19333136081695557,-0.10795309394598007,-0.4311251938343048,-0.08845397084951401,-0.032873041927814484,-0.02235834114253521,0.30781176686286926,-0.00606013648211956,0.0405404157936573,-0.16420724987983704,0.003949455451220274,0.3102041482925415,0.2534070611000061,-0.19527168571949005,-0.07683151215314865,-0.14994977414608002,-0.05088730901479721,0.042866919189691544,0.1839233636856079,-0.2123829424381256,0.11100469529628754],[0.057981397956609726,-0.035415537655353546,0.02139710634946823,0.05903078615665436,-0.0071318745613098145,-0.18495671451091766,-0.27869608998298645,-0.18456116318702698,0.09081413596868515,0.24703234434127808,0.04851895943284035,0.22249683737754822,-0.019110973924398422,-0.061038076877593994,0.01987847499549389,-0.022831812500953674,0.16215261816978455,-0.06569478660821915,-0.2546273171901703,-0.05505888909101486,-0.09940486401319504,-0.11778619885444641,-0.14973624050617218,0.08203687518835068,0.11634219437837601,-0.1435040831565857,-0.22664731740951538,-0.052937932312488556,0.2451585978269577,-0.008236407302320004,-0.14610545337200165,0.017330817878246307,-0.32102614641189575,-0.08681032806634903,0.12589994072914124,-0.08662895858287811,-0.07683005928993225,0.00818917341530323,-0.03396459296345711,-0.019648954272270203,0.13190054893493652,-0.11321025341749191,-0.09299876540899277,0.24698969721794128,-0.007169156800955534,-0.055328886955976486,-0.23808293044567108,0.11986193060874939,0.13389676809310913,0.13752521574497223,-0.1325950026512146,-0.34005293250083923,0.03975415974855423,0.0592634491622448,0.15563365817070007,-0.239284485578537,-0.03412516415119171,0.32873839139938354,-0.03133764863014221,-0.05334655940532684,0.14803609251976013,-0.12712982296943665,-0.09496583789587021,-0.11580180376768112,0.03203460946679115,-0.15118029713630676,0.24048027396202087,0.13815300166606903,-0.08810430765151978,0.0564248152077198,-0.08865714818239212,0.07430999726057053,-0.22132474184036255,0.1788383424282074,-0.12878543138504028,0.38807734847068787,-0.08932773023843765,-0.0950891301035881,-0.38796329498291016,-0.026958616450428963,-0.07338840514421463,0.07257170230150223,-0.1601116955280304,-0.0393051877617836,0.08626256138086319,-0.07117034494876862,-0.07670383155345917,-0.07973583042621613,0.009570382535457611,-0.08995373547077179,0.19274461269378662,-0.24326682090759277,0.009466905146837234,-0.12273482233285904,-0.03322366252541542,-0.1156085804104805,-0.038933683186769485,-0.14208291471004486,-0.11873436719179153,-0.20570385456085205,-0.0018763788975775242,-0.16681452095508575,0.0823192372918129,-0.020795634016394615,0.0785430446267128,-0.09033160656690598,-0.04352022334933281,0.14603711664676666,0.11075102537870407,-0.08700563758611679,-0.16431739926338196,0.04315459728240967,-0.16351184248924255,0.0939880907535553,0.14938439428806305,0.015254402533173561,0.03190859034657478,-0.08498849719762802,-0.14876525104045868,-0.07157981395721436,0.07351087033748627,0.17015361785888672,0.055361248552799225,0.4637523889541626,0.11773770302534103,-0.02692532353103161,0.030717598274350166,-0.09871985763311386],[-0.08884863555431366,0.1321372240781784,0.12391933798789978,-0.04693252593278885,0.15901519358158112,-0.202718123793602,0.04155197739601135,-0.07540241628885269,-0.06276775151491165,-0.03519526496529579,-0.10129716992378235,0.13383041322231293,0.050833359360694885,0.12654989957809448,0.02343296818435192,0.1291772872209549,0.03741876780986786,0.27535730600357056,0.040514227002859116,0.13833118975162506,-0.016921015456318855,0.1432260274887085,0.026820451021194458,-0.002916348399594426,-0.04672689735889435,-0.14962880313396454,-0.13911205530166626,0.07535837590694427,0.06924741715192795,-0.20153260231018066,-0.19418346881866455,-0.05590123310685158,0.07242363691329956,0.12289847433567047,-0.25694531202316284,-0.21579545736312866,-0.013338197022676468,0.07927397638559341,-0.2688996195793152,0.02694018930196762,-0.002790573751553893,-0.0640508309006691,-0.013400805182754993,0.07681293785572052,0.14721903204917908,-0.06764566898345947,0.13169845938682556,-0.0809648260474205,0.45701614022254944,-0.03626149892807007,0.1533387303352356,0.3239186406135559,-0.09346074610948563,0.1512349545955658,0.11579114943742752,-0.04130655154585838,0.06243428215384483,0.009855656884610653,0.06321188062429428,0.14125172793865204,0.0008696384029462934,0.12741884589195251,0.013018596917390823,0.2195536494255066,-0.19191187620162964,-0.15425565838813782,0.09216620773077011,-0.14031335711479187,-0.01191620621830225,-0.00938982143998146,0.19195210933685303,0.27501919865608215,0.05696713551878929,-0.08280540257692337,-0.18363608419895172,0.3757592439651489,-0.13246950507164001,-0.15377601981163025,-0.12343309074640274,0.43594682216644287,-0.11266548186540604,0.1834612488746643,-0.18506073951721191,-0.0026945937424898148,0.05220925807952881,-0.11008692532777786,0.16766057908535004,0.11900489032268524,0.1916602998971939,-0.06452333927154541,-0.04435937851667404,0.1378442645072937,-0.00009720343950903043,0.03221435472369194,0.31588903069496155,0.10765697807073593,0.1501958817243576,0.21029792726039886,0.05139381065964699,0.1245364397764206,-0.15560157597064972,-0.026210863143205643,-0.06239154934883118,-0.07968743145465851,0.06463775783777237,0.07980913668870926,0.05215083807706833,-0.11261776089668274,-0.11343155801296234,-0.28567537665367126,-0.12968257069587708,0.14436769485473633,-0.19970481097698212,-0.3186108469963074,-0.09198684245347977,-0.038067881017923355,0.145436093211174,-0.12047874927520752,0.15942901372909546,-0.06123242899775505,-0.21769025921821594,0.06611853092908859,0.11975123733282089,0.24174143373966217,0.11654338985681534,-0.14832833409309387,-0.04582161828875542,-0.05783025175333023],[-0.159698024392128,0.18436212837696075,-0.018385980278253555,0.024991855025291443,0.050696536898612976,-0.14109273254871368,-0.08491130918264389,-0.23494605720043182,0.07452277094125748,0.05364109203219414,-0.02200588397681713,-0.034991782158613205,-0.12876391410827637,-0.2744596600532532,0.005599902011454105,-0.021557118743658066,0.08071591705083847,0.057544954121112823,-0.22611933946609497,-0.03904372826218605,-0.10020213574171066,0.0046754032373428345,0.06483487039804459,-0.11055031418800354,-0.07821367681026459,-0.2669961750507355,-0.22699804604053497,0.07583848387002945,0.12141890823841095,0.11348454654216766,0.08512981981039047,-0.07968944311141968,-0.30147647857666016,0.009213808923959732,0.011360353790223598,-0.1963982731103897,-0.029757151380181313,0.09125316143035889,-0.029261590912938118,0.20929737389087677,-0.2548900246620178,-0.10936824232339859,-0.03814157098531723,-0.01763838343322277,-0.02121863327920437,-0.02533084899187088,-0.004888677038252354,-0.0519912913441658,-0.015312954783439636,0.0523919053375721,-0.02762107364833355,-0.03253566473722458,0.042394205927848816,-0.09450916200876236,-0.13375549018383026,-0.07720132172107697,0.07105543464422226,-0.09249521791934967,-0.04479571804404259,-0.01967933028936386,0.16559869050979614,-0.10998717695474625,-0.23525376617908478,-0.12041063606739044,0.22540482878684998,0.11382885277271271,-0.05988011136651039,0.09107472747564316,-0.18233579397201538,-0.11719565093517303,-0.08848714083433151,-0.12186035513877869,-0.23045778274536133,0.03390190377831459,-0.06795383989810944,-0.1550443321466446,0.08775313198566437,-0.030261708423495293,-0.12380298227071762,-0.08695954084396362,-0.06113839149475098,-0.05427807196974754,0.20153677463531494,-0.01737777143716812,-0.0762663185596466,0.10299962759017944,-0.06553275883197784,0.08581053465604782,0.37198251485824585,-0.21583569049835205,-0.164945587515831,-0.04197191819548607,0.10393724590539932,0.04150458797812462,-0.06196847930550575,0.11987902969121933,0.06849037855863571,-0.07172710448503494,-0.11790385842323303,0.0921572670340538,-0.007508806884288788,-0.12132302671670914,-0.2907809019088745,0.1271703690290451,0.05699959397315979,0.005850386805832386,0.033953189849853516,0.11848403513431549,-0.1538400650024414,-0.16466955840587616,-0.11618997901678085,-0.10046317428350449,-0.048049893230199814,0.1563349813222885,-0.09505777806043625,-0.04718858003616333,0.009724263101816177,0.13807009160518646,-0.04986654967069626,-0.019806336611509323,-0.01445718016475439,-0.03984110802412033,-0.13206161558628082,0.13699032366275787,-0.07748524099588394,0.09472030401229858,0.06964380294084549,-0.06970479339361191],[0.184663787484169,0.1388784795999527,0.13475185632705688,-0.2441612184047699,0.23509865999221802,-0.42129313945770264,-0.4690150022506714,0.13564616441726685,-0.18107786774635315,-0.02059660479426384,-0.18069827556610107,-0.18066613376140594,0.38817620277404785,-0.09952111542224884,0.22639021277427673,-0.0887012854218483,-0.04637143015861511,-0.06188996136188507,0.11124497652053833,-0.055189818143844604,0.4806881248950958,0.14311538636684418,-0.04622364789247513,-0.2615770399570465,0.40393000841140747,0.15824729204177856,-0.1835280805826187,-0.28524264693260193,-0.1904771775007248,0.07853977382183075,-0.27837899327278137,0.13610292971134186,-0.20721356570720673,-0.250654399394989,0.03153384476900101,-0.03286197409033775,-0.24583706259727478,0.08190515637397766,-0.28734511137008667,-0.1901148110628128,-0.1824653148651123,-0.12039560079574585,0.01642548479139805,0.031004661694169044,-0.26218366622924805,-0.2894572913646698,0.3707374334335327,0.6897670030593872,0.25109365582466125,-0.09615872800350189,0.29021164774894714,-0.24983100593090057,-0.4211018681526184,-0.19493399560451508,0.0752473771572113,-0.20657899975776672,-0.1630844622850418,0.3359537422657013,-0.4444780945777893,-0.4104538857936859,0.02650497294962406,-0.23212255537509918,0.15919093787670135,0.02095508575439453,0.13045626878738403,-0.15233023464679718,0.01739249937236309,-0.14792141318321228,0.17840829491615295,0.2925933301448822,-0.0918944701552391,-0.08064891397953033,-0.03510076552629471,-0.3422100841999054,0.12681692838668823,0.09202863276004791,-0.19333243370056152,0.2014801949262619,0.03263720124959946,-0.25074630975723267,-0.06883507966995239,0.08430697023868561,0.08575519174337387,-0.19375909864902496,-0.1295187771320343,-0.20197837054729462,0.29055479168891907,0.08138169348239899,-0.09661059081554413,0.15061841905117035,0.11318707466125488,0.18205775320529938,-0.15953044593334198,-0.20370198786258698,0.47532370686531067,-0.16789193451404572,-0.03448653966188431,0.26463088393211365,0.02809062786400318,0.522193193435669,0.21998971700668335,-0.025678174570202827,0.2121027559041977,0.055326737463474274,0.12168778479099274,-0.046352993696928024,-0.14768417179584503,-0.11146505922079086,0.16316749155521393,0.35331228375434875,-0.13912689685821533,0.18239739537239075,-0.10272238403558731,-0.052499424666166306,0.24865266680717468,-0.0683787614107132,0.07681760936975479,0.05494516342878342,-0.2802070677280426,-0.07123309373855591,-0.0290718711912632,-0.2321125864982605,-0.30513298511505127,0.3019305169582367,-0.25019514560699463,-0.15700410306453705,-0.2579924464225769,-0.1471569836139679],[0.10143620520830154,-0.051848314702510834,0.054000746458768845,-0.2475578635931015,0.1590845286846161,-0.08757141977548599,0.2965017855167389,-0.1911611407995224,-0.011203296482563019,-0.18312981724739075,-0.1812812238931656,0.33312779664993286,-0.14089840650558472,0.11953828483819962,0.1432206779718399,0.05778893828392029,-0.13262760639190674,-0.12609551846981049,0.22139619290828705,0.1536957323551178,0.059204746037721634,0.0250175129622221,-0.013229523785412312,-0.06980304419994354,-0.06251943856477737,-0.2361617237329483,-0.0851815938949585,-0.13705728948116302,-0.11080633848905563,-0.07035452127456665,-0.21541699767112732,-0.10128344595432281,0.14173373579978943,-0.022592876106500626,-0.09487795829772949,-0.26442500948905945,0.018614500761032104,-0.03749324008822441,-0.2511805593967438,-0.1425749808549881,-0.12182020395994186,0.006155879236757755,-0.10283144563436508,0.051203653216362,-0.12445544451475143,-0.2809627056121826,0.1539926826953888,0.07800273597240448,0.3160187005996704,0.07160800695419312,0.14175085723400116,0.45834389328956604,0.0035389394033700228,0.17905285954475403,0.198288232088089,0.09955443441867828,-0.19632384181022644,-0.009937530383467674,-0.21595211327075958,0.07274652272462845,0.0748242735862732,-0.03457600623369217,-0.12821589410305023,0.40054434537887573,-0.1576991081237793,-0.059705331921577454,-0.041055191308259964,-0.3134954869747162,-0.1398472934961319,-0.06169579178094864,0.1353471428155899,-0.015284312888979912,0.05248500034213066,-0.16572822630405426,0.11506068706512451,0.2945082485675812,-0.15041512250900269,-0.0254996195435524,-0.08311792463064194,0.34365594387054443,-0.11776696145534515,0.030177030712366104,-0.009741086512804031,0.2277774214744568,-0.052673403173685074,-0.14962983131408691,0.09351535141468048,-0.1515291929244995,0.085795097053051,-0.1802375316619873,-0.05920187011361122,0.04167146980762482,0.17683930695056915,0.07326047867536545,0.23360073566436768,0.08692000061273575,0.11758989095687866,-0.051291324198246,0.09887619316577911,0.10264231264591217,-0.03028576448559761,-0.038846008479595184,0.0068722437135875225,-0.05522248148918152,-0.006800799164921045,0.08112003654241562,-0.20800316333770752,-0.26514506340026855,-0.3059808015823364,-0.07209673523902893,-0.012848762795329094,0.0869075283408165,0.08826493471860886,-0.152226984500885,0.02117159217596054,-0.24636560678482056,0.09024250507354736,0.15816684067249298,-0.029190128669142723,0.10837538540363312,-0.1498662829399109,-0.19866812229156494,-0.27389129996299744,0.43317511677742004,0.10912617295980453,-0.13886263966560364,-0.0912058874964714,0.1390252411365509],[-0.03613964095711708,0.27193281054496765,0.03342079371213913,0.024919310584664345,0.03754661604762077,-0.12719202041625977,-0.08228009939193726,0.025060229003429413,-0.05243062600493431,-0.04184234142303467,0.1455526053905487,0.10236187279224396,0.06273597478866577,0.08299018442630768,0.07399125397205353,0.12654516100883484,0.026449965313076973,0.21690230071544647,-0.07087527215480804,-0.14334549009799957,0.03285545855760574,0.005327994469553232,0.22218789160251617,-0.12163626402616501,-0.16787195205688477,-0.154545858502388,-0.22722968459129333,-0.009920192882418633,0.18757455050945282,0.05048138648271561,0.02410493791103363,0.11554447561502457,0.12416934967041016,0.23853793740272522,0.22370079159736633,0.0400557816028595,0.055052511394023895,0.2707512676715851,-0.2122829258441925,-0.009806892834603786,-0.09286786615848541,-0.1652233749628067,-0.03525411710143089,-0.09016796201467514,0.051222335547208786,0.0006588250398635864,-0.03831987828016281,-0.120869480073452,0.09428530186414719,0.05271287262439728,-0.06636828184127808,-0.19260646402835846,-0.07766134291887283,-0.018858999013900757,-0.10847180336713791,0.12471173703670502,-0.14300766587257385,-0.017863363027572632,0.02095852419734001,0.004573524463921785,0.07791819423437119,0.017202572897076607,-0.1889292150735855,0.013548050075769424,-0.1964825689792633,-0.02526087313890457,-0.025666942819952965,0.037404146045446396,-0.041887495666742325,0.2851724922657013,0.10397659987211227,0.14868666231632233,-0.01437531691044569,0.02462238445878029,0.00783651601523161,-0.10871796309947968,-0.13928437232971191,-0.005154035985469818,-0.06105509400367737,-0.07807577401399612,-0.1648372858762741,-0.11623788625001907,-0.07330261915922165,-0.0714147686958313,-0.046222224831581116,-0.29442793130874634,0.1344328373670578,0.10700230300426483,0.44382956624031067,0.1707950085401535,0.19614924490451813,-0.07901143282651901,0.01653246581554413,0.2662176191806793,-0.05692224204540253,-0.11725305765867233,-0.11598417162895203,0.060637883841991425,0.10065075010061264,-0.1667981892824173,-0.10441401600837708,0.06821797788143158,-0.009845259599387646,-0.07143349200487137,0.11645977199077606,0.06790602207183838,0.06968823075294495,0.05780569091439247,0.0402994379401207,-0.1721400022506714,-0.06880463659763336,0.007725625764578581,-0.06011514738202095,0.17882570624351501,0.00020185232278890908,-0.09383704513311386,0.20644092559814453,0.02683442085981369,-0.2832978367805481,-0.12095604091882706,-0.22306039929389954,0.0039952704682946205,-0.08787638694047928,-0.07664818316698074,-0.2398286610841751,-0.11953497678041458,0.11999531835317612,0.013658189214766026],[-0.037440601736307144,0.09963308274745941,0.08276133239269257,0.0373692661523819,0.11813277006149292,-0.2576698660850525,-0.2899251878261566,-0.06215697526931763,0.07749480754137039,0.07805175334215164,-0.12864002585411072,-0.20390552282333374,0.34523212909698486,-0.2615952789783478,-0.08553693443536758,-0.0795472115278244,0.03411974012851715,0.0672096237540245,0.15833823382854462,0.019149281084537506,0.26741862297058105,0.13095365464687347,-0.09730730205774307,-0.017575301229953766,0.13124015927314758,0.03798888623714447,-0.07375992089509964,-0.22766847908496857,-0.06455834209918976,0.11365390568971634,-0.11354612559080124,0.07179314643144608,-0.3001967966556549,-0.08920851349830627,0.18695540726184845,-0.011374397203326225,-0.2599679231643677,0.011974143795669079,-0.26529553532600403,-0.09945835173130035,-0.01238095760345459,-0.18348966538906097,-0.22325673699378967,-0.13091203570365906,-0.15415814518928528,-0.06281330436468124,-0.008864395320415497,0.6023635268211365,0.08759637922048569,-0.03674592450261116,0.1966627687215805,-0.38513606786727905,-0.19497911632061005,0.03603160008788109,0.08939711004495621,-0.08442212641239166,0.10118120908737183,0.25733116269111633,-0.2523431181907654,-0.030789483338594437,0.07734939455986023,-0.2652381956577301,0.1746886521577835,0.004982732702046633,0.016911091282963753,-0.09003652632236481,0.27116620540618896,0.00639622937887907,-0.017883678898215294,0.08767010271549225,-0.1286134272813797,-0.19277116656303406,0.21623586118221283,-0.006354867946356535,0.1981617659330368,0.16903914511203766,-0.0840127170085907,0.17914250493049622,-0.18423211574554443,-0.12260850518941879,-0.1379227638244629,-0.08725303411483765,0.1443142592906952,-0.10625260323286057,-0.11573843657970428,-0.04645630344748497,0.17847824096679688,0.07026494294404984,0.15206553041934967,0.0599745512008667,-0.03729885444045067,0.08520229905843735,-0.24708706140518188,-0.3199232220649719,0.07577180862426758,-0.10641578584909439,-0.07297082245349884,-0.06033218652009964,-0.22971965372562408,0.3665468990802765,0.06481701880693436,-0.03976801037788391,0.16276796162128448,0.274204820394516,0.03440789505839348,-0.31047749519348145,-0.12020427733659744,-0.18442648649215698,0.1629304736852646,0.2835939824581146,-0.3350815176963806,0.15802666544914246,-0.009847325272858143,-0.06776677817106247,0.09188764542341232,-0.27112919092178345,0.03927155211567879,-0.09836556017398834,-0.2730875015258789,0.0054632751271128654,0.00793770793825388,0.04920113831758499,-0.12878063321113586,0.42358121275901794,-0.0047941203229129314,0.06693398207426071,-0.16484878957271576,-0.1216200515627861],[0.19385723769664764,0.040850792080163956,0.06864955276250839,-0.04584234580397606,0.44065120816230774,-0.10636791586875916,0.059709932655096054,-0.04558294266462326,-0.013810643926262856,-0.0010707717156037688,-0.09679507464170456,0.1584610939025879,0.05777636170387268,-0.055335674434900284,0.21254633367061615,-0.064110167324543,0.262897789478302,0.13215188682079315,0.22863151133060455,0.005045074038207531,0.1238989308476448,-0.01200324296951294,-0.17616157233715057,-0.15879422426223755,-0.13706143200397491,-0.13511304557323456,0.021880008280277252,-0.15601427853107452,0.03762596845626831,-0.0832381621003151,-0.50253826379776,-0.11669453978538513,0.14262987673282623,-0.1705428510904312,-0.18104486167430878,-0.08207496255636215,0.0032823856454342604,-0.11429347842931747,-0.3436751663684845,-0.0815582200884819,-0.1566968560218811,0.12574730813503265,-0.11994785070419312,0.007846380583941936,-0.12175679951906204,-0.22992101311683655,0.4082857072353363,0.08503790944814682,0.09996932744979858,0.10890334844589233,0.001045636716298759,0.6356813311576843,-0.1302170604467392,0.2978363335132599,0.2048727422952652,0.08829115331172943,-0.35156500339508057,-0.12083210796117783,-0.405707448720932,0.04213305190205574,-0.09123417735099792,0.17807531356811523,0.05895467475056648,0.15474355220794678,-0.4604893624782562,0.011182841844856739,0.05061417818069458,-0.4399344027042389,0.10938315838575363,-0.08020666986703873,0.16209129989147186,-0.07978352159261703,0.17476843297481537,-0.0678686872124672,0.06970449537038803,0.264467716217041,0.00407770648598671,-0.06406756490468979,0.1135367900133133,0.5473837852478027,-0.11075747013092041,-0.1262749582529068,0.09348756074905396,0.06902336329221725,-0.18150435388088226,-0.09583230316638947,0.0746367797255516,-0.2533239722251892,-0.024913456290960312,-0.18071497976779938,0.10310213267803192,-0.13461439311504364,0.11180552840232849,-0.12933139503002167,0.13624344766139984,0.14593958854675293,0.09298879653215408,-0.0996844545006752,-0.001404740964062512,0.04639691859483719,0.1760525107383728,-0.21344418823719025,0.056287750601768494,-0.24281340837478638,-0.028589176014065742,-0.15759381651878357,-0.2877853810787201,-0.26719310879707336,-0.09554123878479004,-0.07213574647903442,-0.10845717787742615,-0.04501132667064667,-0.17128323018550873,-0.17328956723213196,-0.06945986300706863,-0.14325357973575592,0.1284835785627365,0.12192539870738983,-0.12331695854663849,-0.013961348682641983,-0.05234844982624054,0.13360506296157837,-0.24043507874011993,0.2882886230945587,-0.20771217346191406,-0.08147954940795898,-0.2805754542350769,0.27662402391433716],[-0.0732087641954422,0.32450050115585327,-0.15133072435855865,-0.04938811436295509,-0.07998006790876389,0.21343174576759338,-0.21171687543392181,0.23706118762493134,-0.1441008597612381,-0.1396515667438507,0.12381413578987122,-0.09025763720273972,0.05679577216506004,0.03992653638124466,0.026405323296785355,0.23307886719703674,0.07558086514472961,0.05258427932858467,-0.017036989331245422,-0.20786140859127045,0.012801154516637325,-0.36497974395751953,0.2929830551147461,-0.019478950649499893,-0.07779958099126816,0.0805901437997818,0.09151072800159454,0.07095731794834137,0.03128715604543686,0.13572748005390167,-0.14578019082546234,-0.20300157368183136,-0.11965147405862808,-0.007191738113760948,-0.1481437087059021,0.10023342818021774,0.008318860083818436,0.24887517094612122,0.1326727569103241,-0.02788389101624489,0.2523786127567291,-0.1190347671508789,-0.16618391871452332,-0.26396244764328003,-0.10083365440368652,0.04809048771858215,-0.16576401889324188,-0.15690460801124573,0.00923996139317751,0.05543718487024307,-0.09911713004112244,0.08832953870296478,0.2083282172679901,0.09247681498527527,0.026878830045461655,0.20086722075939178,0.005150854121893644,-0.17891214787960052,0.007753546815365553,0.19094514846801758,0.13561898469924927,0.014900599606335163,-0.003006371669471264,0.01580413244664669,-0.20863103866577148,0.11342926323413849,0.06738059222698212,-0.15181563794612885,0.208723783493042,0.13903561234474182,-0.0025876108556985855,0.14554058015346527,-0.04629434272646904,-0.017622385174036026,0.11493214219808578,-0.12780050933361053,0.04496760293841362,0.2892792224884033,-0.03091675043106079,-0.10936394333839417,0.0011550551280379295,-0.1251637488603592,-0.19366633892059326,-0.12541745603084564,-0.20294557511806488,-0.15088190138339996,0.08434037864208221,0.013362102210521698,0.23502099514007568,0.20780447125434875,0.28438234329223633,-0.01145179383456707,-0.019408244639635086,0.12082076817750931,0.010321974754333496,-0.23614047467708588,0.023284904658794403,0.004744879901409149,-0.36850306391716003,0.17613863945007324,-0.12465846538543701,-0.01961694471538067,0.05407554656267166,-0.19190312922000885,0.0969727635383606,-0.16685588657855988,-0.13298912346363068,-0.03913160413503647,0.2645168602466583,-0.015349064022302628,-0.09595461189746857,-0.10250727087259293,-0.07638993859291077,0.016167879104614258,0.33484387397766113,0.09242686629295349,0.07123509794473648,-0.010833819396793842,-0.2196076512336731,0.07162302732467651,0.03674754127860069,0.11531087756156921,0.08197755366563797,0.014896973967552185,-0.1723102629184723,0.09263256937265396,0.08695923537015915,-0.04696952924132347],[-0.028236737474799156,-0.09225265681743622,-0.20324011147022247,-0.0066710845567286015,-0.10162793844938278,0.0900752916932106,-0.14909964799880981,0.08237840235233307,0.02670966275036335,-0.01650739274919033,-0.123016856610775,-0.12657253444194794,-0.08263733983039856,-0.11324262619018555,0.0641770213842392,-0.06695330888032913,-0.14340440928936005,-0.03804401680827141,0.15027514100074768,-0.19667775928974152,0.037321604788303375,0.11708343029022217,-0.3280826508998871,-0.041211917996406555,0.09560631960630417,-0.13142605125904083,-0.24051429331302643,-0.2622975707054138,-0.18964716792106628,0.19675810635089874,-0.06086413562297821,0.09659689664840698,-0.18109838664531708,-0.12207857519388199,0.1589721441268921,0.25001999735832214,-0.08713840693235397,-0.030243931338191032,-0.1574947088956833,-0.04119880497455597,-0.036110855638980865,0.0854920968413353,-0.264251172542572,0.05929609760642052,-0.05672980099916458,-0.030777031555771828,-0.2230299562215805,0.16787101328372955,0.12844419479370117,-0.05282639339566231,-0.08298321068286896,-0.0506100207567215,0.026146288961172104,0.013878120109438896,0.037254899740219116,0.02583559975028038,0.046310827136039734,0.3552878499031067,-0.03463252633810043,-0.2733299434185028,0.028437037020921707,-0.1182219386100769,0.19729381799697876,-0.20123256742954254,0.056341998279094696,0.1298791766166687,-0.04018986225128174,-0.08110185712575912,0.11735165119171143,-0.1915903389453888,-0.051015082746744156,-0.1381969004869461,-0.08166078478097916,-0.02307937666773796,0.12486957758665085,0.2696264684200287,-0.039262428879737854,-0.0643930584192276,-0.20955108106136322,-0.07791613042354584,-0.2326897382736206,-0.07409942150115967,0.057413797825574875,0.02791719138622284,0.05634923279285431,0.124930739402771,0.023153306916356087,-0.13092827796936035,-0.08037199825048447,-0.025781428441405296,0.06850551068782806,0.14679746329784393,-0.1488308608531952,-0.1691300868988037,-0.12271575629711151,-0.06019704043865204,0.14541786909103394,0.1580706089735031,-0.3107474446296692,0.16247501969337463,0.11872833967208862,-0.21563051640987396,-0.0630330890417099,0.15676964819431305,-0.2159578651189804,-0.01176977064460516,0.0023526300210505724,-0.04782110080122948,0.22976772487163544,0.15032002329826355,-0.06050632521510124,-0.24731247127056122,-0.06624230742454529,-0.08704783022403717,-0.1398201882839203,-0.15255436301231384,0.22113795578479767,-0.028674153611063957,-0.12481560558080673,-0.08780508488416672,0.02831241488456726,-0.08779627829790115,-0.04525604099035263,0.362077534198761,-0.06680702418088913,-0.13556130230426788,-0.26377710700035095,-0.13665561378002167],[-0.1951606124639511,-0.07509741932153702,0.18853691220283508,-0.35094189643859863,0.5012386441230774,-0.04772157222032547,0.01935127004981041,-0.13806886970996857,-0.10232667624950409,0.18599501252174377,-0.13600976765155792,0.21193335950374603,0.0562409982085228,-0.1004420593380928,0.2406071275472641,0.025126703083515167,0.20403258502483368,-0.011096009984612465,0.34576112031936646,0.011835146695375443,0.0351715050637722,0.21488767862319946,0.20971809327602386,-0.2356284111738205,-0.05806649848818779,-0.10539685189723969,-0.08645620197057724,-0.09581390023231506,-0.07972345501184464,0.11496919393539429,-0.5008753538131714,-0.23193366825580597,-0.03662430867552757,0.021901441738009453,-0.35206252336502075,-0.3085661232471466,-0.04231566935777664,-0.012233899906277657,-0.41079947352409363,-0.29458439350128174,0.1418098360300064,0.03465259075164795,-0.40407833456993103,0.11455492675304413,-0.23730069398880005,-0.21363773941993713,0.5188508033752441,-0.10343167930841446,0.2657513916492462,-0.01036312896758318,0.15569980442523956,0.5422391295433044,-0.30980873107910156,0.08932981640100479,0.2614295482635498,-0.11450785398483276,-0.4685411751270294,-0.1629856675863266,-0.15774747729301453,0.0005935381050221622,-0.01999671943485737,0.26317256689071655,0.1501857489347458,0.11865856498479843,-0.4459803104400635,0.15947325527668,-0.19193631410598755,-0.29268696904182434,0.09506730735301971,0.04881453514099121,-0.07701539993286133,-0.24500572681427002,0.07041560113430023,0.3234530985355377,0.033444035798311234,0.046310730278491974,-0.028340082615613937,-0.08519294857978821,0.1082935780286789,0.2421538382768631,0.016596514731645584,-0.06761530786752701,0.4826146066188812,0.1476438194513321,-0.34820595383644104,-0.37950921058654785,0.07917650043964386,-0.1299164891242981,-0.043436989188194275,-0.27313676476478577,-0.05521700903773308,0.07904938608407974,0.031000005081295967,-0.1402910202741623,0.05293545126914978,0.10044685006141663,0.004295689519494772,-0.2072276473045349,-0.11058373004198074,0.3025994300842285,0.37522295117378235,-0.20179325342178345,0.014094800688326359,-0.3143584132194519,-0.10191666334867477,-0.09762914478778839,-0.5163124799728394,-0.15400108695030212,-0.0339752696454525,0.06156931072473526,-0.04219009727239609,-0.3993891179561615,-0.08318387717008591,-0.2768115699291229,-0.020836152136325836,-0.1471444070339203,0.23817354440689087,0.09649860113859177,-0.469024658203125,0.06181139498949051,0.1261771321296692,-0.0438256710767746,-0.4412354528903961,0.13788200914859772,-0.3862983286380768,0.04426545277237892,-0.09568043053150177,0.3958972692489624],[-0.3139441907405853,0.25318804383277893,-0.4964555501937866,-0.028078829869627953,-0.01671755313873291,0.45359715819358826,-0.2502041757106781,0.07039713859558105,0.0705244392156601,-0.2014077752828598,0.09115657210350037,-0.1283932477235794,-0.13465295732021332,0.21021446585655212,0.09270703047513962,0.3101595640182495,0.07015962153673172,0.24024192988872528,0.204249769449234,-0.20031492412090302,-0.3549872934818268,-0.2434483766555786,0.3524373173713684,0.08135294914245605,-0.33533337712287903,0.1128852367401123,0.1367938071489334,0.011165980249643326,-0.04387104883790016,0.2751283049583435,-0.22608783841133118,-0.1955145299434662,-0.20826394855976105,0.15120787918567657,-0.2272208034992218,0.3664574921131134,-0.08849991858005524,0.24669374525547028,0.2052503526210785,-0.0741691142320633,0.11311445385217667,0.1506945639848709,-0.4446288049221039,-0.39843979477882385,0.046317894011735916,0.42254185676574707,-0.09792882949113846,-0.02372860163450241,0.0503598116338253,-0.11852553486824036,-0.08163964748382568,-0.12675771117210388,0.33002936840057373,-0.09907305985689163,0.32755374908447266,0.4993589520454407,0.020667454227805138,-0.12981928884983063,0.0940697193145752,0.29512694478034973,-0.07765597850084305,0.13069599866867065,0.09816966950893402,-0.0467781238257885,-0.14257709681987762,0.19142049551010132,-0.018181029707193375,0.058759309351444244,0.4268527626991272,0.15717469155788422,0.102071613073349,0.17021863162517548,-0.15548910200595856,0.2459191530942917,0.1684550791978836,0.007371701765805483,0.3955558240413666,0.37587472796440125,-0.2788688838481903,0.06218212842941284,-0.009388115257024765,-0.4234951436519623,-0.08597661554813385,-0.03497042879462242,-0.1799023151397705,0.08079349249601364,0.2362888753414154,-0.05042901635169983,0.38465094566345215,0.1257798820734024,0.44537946581840515,0.06323584914207458,0.25318416953086853,0.04087335243821144,-0.12065743654966354,-0.1782805174589157,-0.14356939494609833,-0.013553614728152752,-0.5520820617675781,-0.027552105486392975,0.005673517473042011,-0.003076622961089015,-0.1298743635416031,-0.28754159808158875,-0.09825645387172699,-0.408602774143219,-0.34873801469802856,0.042409349232912064,0.27279025316238403,0.006769650150090456,-0.09949318319559097,-0.33107149600982666,-0.22130686044692993,-0.15576961636543274,0.14022181928157806,0.04982111603021622,0.30041784048080444,0.011487210169434547,-0.4936140477657318,0.07006699591875076,0.14164461195468903,0.34653589129447937,0.02293582074344158,0.04549819976091385,-0.3092745542526245,0.027552226558327675,-0.10665687918663025,0.04811573773622513],[-0.3390282988548279,-0.0033818422816693783,-0.30392926931381226,0.1530822217464447,-0.05311567708849907,0.26541799306869507,0.01131134107708931,-0.17044532299041748,0.0504339300096035,0.08911158889532089,0.037990618497133255,-0.09988848119974136,0.03922132030129433,0.06912883371114731,0.028625190258026123,-0.30768299102783203,0.010525853373110294,-0.1432366669178009,0.09159210324287415,-0.19012515246868134,-0.06141078472137451,-0.10436563938856125,-0.2669966220855713,0.13790810108184814,0.12202233076095581,-0.03570985421538353,-0.12132488936185837,-0.10749049484729767,-0.3907797634601593,0.021967504173517227,-0.060439448803663254,-0.046378325670957565,-0.2746293246746063,-0.12777459621429443,-0.020612839609384537,0.3064020872116089,-0.1624542623758316,-0.18148033320903778,0.23672573268413544,0.27169620990753174,0.11266926676034927,-0.03710578382015228,-0.22474464774131775,-0.2027922421693802,-0.3656666874885559,0.11386868357658386,-0.18603169918060303,-0.006007206626236439,0.037496332079172134,0.020859019830822945,-0.15712550282478333,-0.2892555296421051,0.32708364725112915,-0.16842345893383026,-0.03433819115161896,-0.06575235724449158,0.05501478537917137,0.09794575721025467,0.07671961933374405,-0.2581690847873688,0.05675814300775528,-0.14291976392269135,0.027364278212189674,-0.2375776618719101,0.06333216279745102,0.07568899542093277,-0.04428055137395859,-0.06452853977680206,0.30929967761039734,-0.3794328272342682,-0.21077005565166473,-0.09050476551055908,-0.20179006457328796,-0.01558726467192173,0.05890559405088425,0.35716480016708374,0.22385157644748688,-0.0033614574931561947,-0.060925666242837906,-0.0127777811139822,-0.23949578404426575,-0.07725689560174942,-0.12855419516563416,-0.19342553615570068,0.16021674871444702,0.43820640444755554,0.05337778106331825,-0.23522552847862244,-0.07077227532863617,0.012470856308937073,-0.1852252334356308,0.2169644981622696,-0.06650906801223755,-0.07072935998439789,-0.20381775498390198,-0.0728134959936142,0.22638393938541412,0.019393080845475197,-0.4226579964160919,0.21499408781528473,-0.16017761826515198,-0.15668082237243652,0.1763996034860611,0.11787116527557373,-0.04302480071783066,-0.0856432244181633,-0.03150550276041031,0.04883398488163948,-0.01954430155456066,0.34231412410736084,-0.20147410035133362,-0.12233389914035797,0.05670454725623131,0.010074581950902939,-0.11551225930452347,-0.058656200766563416,0.26735439896583557,0.13623376190662384,-0.1461876928806305,-0.12267501652240753,0.28564122319221497,-0.14481744170188904,0.2361370027065277,0.48596662282943726,-0.10342060029506683,-0.18854200839996338,-0.12697641551494598,-0.2716582119464874],[0.06418909877538681,0.05665241554379463,-0.0590863898396492,0.016956711187958717,-0.06198067218065262,-0.10511209070682526,0.08905519545078278,-0.05317698046565056,-0.19560746848583221,-0.11686874181032181,0.025309227406978607,0.1097021996974945,0.000882099149748683,0.15854968130588531,-0.014021635055541992,0.18042944371700287,0.03366663306951523,0.11567176133394241,0.11815944314002991,-0.11860354989767075,0.08037230372428894,0.053309664130210876,-0.038844168186187744,-0.09001879394054413,-0.11776778101921082,-0.07864551991224289,0.024731000885367393,-0.04039568081498146,-0.0691566914319992,-0.14776915311813354,-0.0896684005856514,0.07001305371522903,0.05040409788489342,-0.020800303667783737,-0.20464877784252167,-0.1142534464597702,-0.14219234883785248,0.0581854023039341,-0.10237351804971695,-0.0328863188624382,-0.04001189395785332,-0.09072685986757278,0.11653511226177216,-0.0613839365541935,-0.07153885811567307,-0.13689793646335602,0.19559338688850403,-0.2970477342605591,0.3053714334964752,-0.03906802088022232,0.032199129462242126,0.43620121479034424,0.08993947505950928,0.08854794502258301,0.004172762390226126,-0.09250645339488983,-0.19581374526023865,0.06461240351200104,0.0025826124474406242,0.0677088275551796,0.12970508635044098,-0.12043435871601105,-0.14528438448905945,0.5086620450019836,-0.19686627388000488,0.1179872378706932,0.2237706035375595,-0.12783680856227875,-0.15062841773033142,-0.23526936769485474,-0.007549762725830078,0.30244919657707214,0.17197740077972412,-0.16480934619903564,-0.20890986919403076,0.027985705062747,-0.21531833708286285,0.11538904905319214,-0.13056708872318268,0.37249571084976196,-0.08800416439771652,0.013868769630789757,-0.1164340004324913,-0.0012530653038993478,0.04574206471443176,0.15242527425289154,0.15816619992256165,-0.02186141349375248,-0.04024796187877655,0.2003980427980423,-0.05275130271911621,0.08470185846090317,-0.0371270626783371,-0.07421288639307022,0.28434744477272034,-0.07280233502388,0.2912414073944092,0.21819812059402466,0.07284709066152573,0.02262706868350506,-0.1594662368297577,-0.10104554891586304,0.17594382166862488,-0.01686820015311241,-0.10408709943294525,-0.024067245423793793,-0.11181613057851791,-0.2221902459859848,-0.21792683005332947,0.06882432848215103,-0.17527493834495544,0.16723521053791046,-0.09766054153442383,-0.1755797266960144,0.03868010267615318,-0.07190074026584625,-0.0644441545009613,-0.06599083542823792,0.023360442370176315,0.04526346176862717,-0.05978570878505707,-0.1555349975824356,0.0017499588429927826,0.30348047614097595,0.1250550001859665,-0.09927202761173248,-0.14471624791622162,0.10886200517416],[-0.3092844784259796,0.2991870641708374,0.08260562270879745,-0.13999970257282257,0.055543288588523865,-0.07799188047647476,0.045574530959129333,0.027220137417316437,0.03228425607085228,-0.1172269731760025,0.2914760112762451,0.053546447306871414,-0.0007201670669019222,-0.012365385890007019,-0.029050666838884354,-0.09978412091732025,0.04596445709466934,-0.11708980053663254,-0.26975029706954956,0.041516080498695374,-0.09754397720098495,0.004162814933806658,-0.2378828227519989,-0.08754909783601761,-0.23795732855796814,-0.08958271145820618,-0.26345667243003845,0.2676016390323639,0.004246694501489401,-0.15615642070770264,-0.11032407730817795,-0.11358170211315155,0.007360587827861309,-0.019740117713809013,0.071665458381176,-0.15667016804218292,0.2981451749801636,0.08661556988954544,0.001609664992429316,0.19446100294589996,-0.13764172792434692,0.031661078333854675,-0.07047140598297119,0.06834083050489426,-0.006834112573415041,0.0022032337728887796,-0.046500325202941895,-0.057475075125694275,0.03113180585205555,0.09667423367500305,-0.05649486556649208,0.027433188632130623,0.11637729406356812,0.1688283383846283,-0.2173077017068863,-0.17977383732795715,-0.15774424374103546,-0.007390801794826984,-0.016977442428469658,-0.2539032995700836,0.09639360010623932,-0.3492102324962616,0.07712764292955399,0.05617217719554901,0.1260281652212143,0.12039642035961151,0.015142400749027729,-0.2418014109134674,-0.09068311750888824,-0.11659569293260574,-0.07369309663772583,-0.0711243599653244,-0.16355690360069275,0.12319575995206833,-0.051933228969573975,-0.21775123476982117,-0.08388014882802963,-0.20603659749031067,-0.055651843547821045,-0.023961078375577927,-0.035316821187734604,0.047204118221998215,0.0422595739364624,0.19101130962371826,0.06222282722592354,0.15151134133338928,-0.11146131902933121,-0.04581000655889511,0.2285396158695221,-0.007238815072923899,-0.2349529266357422,-0.046443335711956024,0.15673935413360596,0.21642962098121643,0.04006988927721977,0.20009592175483704,0.13559509813785553,-0.13309594988822937,-0.09626177698373795,-0.20012259483337402,-0.03029915876686573,-0.14515021443367004,-0.11815010756254196,0.014706451445817947,-0.1140836849808693,0.15673194825649261,0.006263509392738342,0.04396527633070946,-0.05158223956823349,-0.14566290378570557,-0.05262602120637894,-0.03251991793513298,-0.052313875406980515,-0.20175515115261078,-0.14077916741371155,-0.055797774344682693,0.14940857887268066,0.015408016741275787,0.15691301226615906,-0.17549635469913483,0.0994221493601799,-0.020380400121212006,0.04930320382118225,-0.057096704840660095,-0.0271773599088192,0.01670965738594532,0.14904175698757172,-0.17446303367614746],[-0.01760001853108406,-0.17534342408180237,0.22405001521110535,-0.15458114445209503,0.30557313561439514,-0.5179497599601746,-0.0671907514333725,0.15610849857330322,-0.1536216139793396,0.0045465086586773396,-0.298522412776947,-0.28574660420417786,0.3705630600452423,-0.16121409833431244,0.18689781427383423,-0.32456523180007935,0.1422043740749359,0.05438800901174545,0.13848885893821716,-0.14033082127571106,0.284434974193573,0.15077468752861023,-0.2790074646472931,-0.1342853307723999,0.21097277104854584,0.11401035636663437,0.0356585755944252,-0.21759910881519318,-0.16299079358577728,0.31108716130256653,-0.07053627073764801,0.11931145936250687,0.07706356793642044,-0.21216140687465668,0.14455130696296692,0.01789446547627449,-0.020438427105545998,-0.06759414076805115,-0.19758707284927368,-0.04084383696317673,-0.2745358943939209,-0.3377581238746643,0.09279824048280716,-0.014336488209664822,-0.18022502958774567,-0.3138454556465149,0.08832474052906036,0.4684186279773712,-0.04177891090512276,-0.21330930292606354,0.33601877093315125,-0.013653111644089222,-0.30169111490249634,-0.0792212039232254,0.16390837728977203,-0.19859233498573303,-0.09977079182863235,0.0014280201867222786,-0.15009431540966034,-0.21980401873588562,0.09983627498149872,-0.10975218564271927,0.2689347267150879,0.1566210240125656,-0.14578093588352203,-0.2002106010913849,0.1443100869655609,-0.028196491301059723,0.03264452889561653,-0.063902348279953,-0.18281108140945435,0.033050406724214554,0.23524831235408783,-0.4309501051902771,0.0631590485572815,0.10116729885339737,-0.12058890610933304,-0.06631923466920853,0.1356145143508911,-0.05921807140111923,-0.13300588726997375,-0.0051723383367061615,0.2519432604312897,-0.008918634615838528,-0.031224720180034637,-0.12998713552951813,-0.0909344032406807,0.10627318173646927,-0.0721544548869133,0.06631884723901749,-0.24274997413158417,0.12823496758937836,-0.2675856947898865,-0.2164658010005951,0.056086037307977676,0.1995420604944229,-0.09249887615442276,0.14287768304347992,0.12791763246059418,0.3958456814289093,-0.047796830534935,0.08698233962059021,0.05897997319698334,0.07646121084690094,-0.06040045619010925,-0.08592485636472702,-0.12365591526031494,-0.18161916732788086,-0.07016314566135406,0.2691551446914673,-0.18141934275627136,-0.05428198352456093,-0.06215251237154007,-0.1474274843931198,0.088236503303051,-0.27586138248443604,-0.08912324160337448,-0.10996534675359726,-0.3343122899532318,0.11416766047477722,-0.013703899458050728,-0.3311810791492462,-0.12193166464567184,0.088520348072052,-0.09573319554328918,0.033953744918107986,-0.19587798416614532,-0.054737064987421036],[0.2119956761598587,-0.08263777941465378,-0.031880300492048264,0.00892458762973547,-0.1106935515999794,-0.03618337959051132,-0.15341730415821075,-0.052496619522571564,-0.3964860737323761,-0.3073387145996094,-0.08027402311563492,0.06208229064941406,0.2554170489311218,0.25079214572906494,-0.004971078597009182,0.14360284805297852,0.23250335454940796,-0.018343046307563782,0.0384480357170105,0.08432507514953613,0.2441089153289795,-0.03860919922590256,-0.08696635067462921,-0.0337071567773819,-0.1674565225839615,0.12082533538341522,0.07080723345279694,-0.059790682047605515,0.09093183279037476,-0.12312978506088257,0.2357483059167862,-0.006027314346283674,0.3129997253417969,0.027732735499739647,-0.004030551761388779,-0.20247386395931244,-0.029359830543398857,-0.008458409458398819,0.05465259030461311,-0.17101916670799255,0.010090029798448086,-0.15438993275165558,0.21578910946846008,-0.06370001286268234,0.18932758271694183,-0.33368679881095886,-0.18126852810382843,-0.16259190440177917,0.3072379529476166,0.16100548207759857,-0.10905894637107849,0.3160381615161896,-0.01071024127304554,0.16832008957862854,0.2774205505847931,-0.0536496564745903,-0.11149786412715912,-0.0839943140745163,-0.03817485272884369,0.15947836637496948,-0.011898220516741276,-0.09247686713933945,0.0003332728228997439,0.32469743490219116,0.11226226389408112,-0.013756722211837769,0.18346963822841644,0.06255121529102325,-0.3041207790374756,-0.12449398636817932,-0.03676217421889305,0.44481536746025085,0.22816698253154755,-0.3356909453868866,-0.14572371542453766,0.06569620966911316,-0.2517862319946289,-0.12091752141714096,-0.3834798336029053,0.3940868079662323,-0.2471347451210022,0.28642377257347107,-0.20253819227218628,-0.08539999276399612,0.11166480928659439,-0.009500505402684212,0.3008178472518921,0.05611834675073624,-0.009651691652834415,0.27917471528053284,-0.17816971242427826,-0.0931195318698883,-0.010143852792680264,0.00688830716535449,0.3953985571861267,0.09053439646959305,-0.1952228546142578,0.4561236500740051,0.1168217733502388,0.25131165981292725,-0.36716243624687195,0.2614278793334961,0.18615925312042236,-0.0005781850195489824,0.049018505960702896,0.2754194736480713,0.14598269760608673,-0.26002371311187744,-0.07768564671278,-0.270023912191391,-0.33491674065589905,0.20381538569927216,-0.05997968837618828,-0.18411217629909515,0.2650103271007538,0.17813755571842194,-0.2117069959640503,0.16125096380710602,0.16165880858898163,0.04691129922866821,-0.2657409608364105,-0.07526487857103348,-0.15897099673748016,0.31287527084350586,0.27614104747772217,-0.1994011104106903,-0.035881154239177704,-0.015506971627473831],[-0.06514517217874527,0.13143189251422882,0.09649834036827087,-0.06756755709648132,-0.12909294664859772,-0.17399604618549347,0.2334756702184677,0.019301066175103188,-0.12008608877658844,-0.14356735348701477,0.04402020201086998,0.03664993494749069,-0.09041591733694077,0.11059321463108063,0.054925788193941116,-0.040714286267757416,-0.058665793389081955,0.19430504739284515,0.019529186189174652,0.1147117093205452,-0.024714672937989235,-0.08056805282831192,-0.03658590838313103,-0.023979874327778816,-0.03330076113343239,-0.13316792249679565,-0.04650033637881279,0.022592373192310333,0.04577072337269783,-0.06125122681260109,0.12621591985225677,0.009553874842822552,-0.025615785270929337,0.07068152725696564,0.06538284569978714,-0.10641174763441086,-0.007776648737490177,0.22561751306056976,-0.09606891125440598,-0.25444111227989197,-0.08952804654836655,-0.23758317530155182,-0.03210362419486046,-0.03905513137578964,-0.028477711603045464,-0.1440695822238922,-0.06121538206934929,-0.1459556370973587,0.045561533421278,-0.18148376047611237,0.016960209235548973,0.2547800540924072,-0.18476596474647522,0.14007386565208435,-0.012628930620849133,0.10812453180551529,-0.21433472633361816,0.13783176243305206,0.022856738418340683,0.07871653884649277,0.18234975636005402,0.09826143831014633,-0.0692567303776741,-0.16693304479122162,-0.21851472556591034,-0.0005114672239869833,-0.19815228879451752,-0.15925560891628265,-0.1846768856048584,0.1045675203204155,-0.1751408874988556,-0.07062292098999023,0.018952833488583565,-0.05548173934221268,-0.12263226509094238,0.0006871965015307069,-0.09588968753814697,0.047829627990722656,-0.04185936227440834,0.21239012479782104,0.18454907834529877,-0.01930004358291626,-0.1648274064064026,0.16202963888645172,-0.08252019435167313,-0.15327227115631104,0.04232892394065857,-0.1596459001302719,0.5166732668876648,-0.09694359451532364,0.013902041129767895,0.13689680397510529,0.38411104679107666,0.170994371175766,-0.07887489348649979,0.17363110184669495,-0.1397963911294937,0.029673129320144653,0.18428562581539154,-0.004750083666294813,-0.006753746885806322,0.023493316024541855,0.029010528698563576,-0.15552465617656708,-0.21152786910533905,-0.07652946561574936,0.03626139089465141,0.12217668443918228,-0.14530432224273682,-0.05849765986204147,-0.08387243747711182,0.06782722473144531,-0.11929971724748611,0.052009355276823044,-0.13094644248485565,-0.09329505264759064,-0.12185213714838028,-0.04423896595835686,0.025454320013523102,-0.1996167153120041,0.06771308928728104,-0.08400517702102661,-0.2494508922100067,0.07079245150089264,0.023396041244268417,-0.04348625987768173,0.20158402621746063,-0.05659600719809532],[0.056602612137794495,0.062376491725444794,0.0908404216170311,-0.1324375420808792,0.3611103892326355,0.031182803213596344,-0.3467264771461487,0.19221079349517822,-0.15850061178207397,-0.06319890916347504,-0.09578811377286911,0.14201319217681885,0.1781822293996811,-0.17772333323955536,0.13288788497447968,-0.06446348875761032,0.2056870311498642,-0.05284669250249863,0.006422471255064011,0.2712036073207855,-0.008517530746757984,-0.004163029137998819,-0.12409274280071259,-0.0586882121860981,0.2772267460823059,-0.062153514474630356,-0.195203498005867,-0.07002640515565872,-0.09984651952981949,-0.04346662387251854,0.010443675331771374,0.19892218708992004,-0.0382470041513443,0.10260039567947388,0.30075791478157043,-0.3469621241092682,-0.06545030325651169,-0.06576931476593018,-0.12884707748889923,0.08529947698116302,-0.2264484316110611,-0.17607387900352478,0.01183378603309393,0.12950488924980164,-0.07256944477558136,-0.062023360282182693,0.05205654352903366,0.40309444069862366,-0.055276647210121155,0.05542492866516113,0.1707785576581955,-0.025817448273301125,-0.1742732971906662,-0.1204506903886795,-0.12949000298976898,-0.10547373443841934,-0.18773874640464783,-0.044011253863573074,-0.19061622023582458,0.10853329300880432,-0.09305582195520401,-0.1058204248547554,0.045039400458335876,-0.057321883738040924,-0.19397306442260742,-0.09081259369850159,0.09465591609477997,-0.17454248666763306,0.09997225552797318,0.03418930619955063,0.1207936480641365,-0.0117452098056674,-0.001017509144730866,-0.2594299614429474,0.3292347192764282,0.3982689082622528,-0.13611957430839539,0.24564631283283234,0.09488852322101593,0.03893327713012695,-0.37714192271232605,-0.23273319005966187,0.10856200009584427,-0.08197430521249771,-0.15544648468494415,0.07818081974983215,0.18248505890369415,0.0025983296800404787,-0.044860221445560455,0.09913435578346252,-0.06946658343076706,-0.08570407330989838,-0.16072086989879608,-0.19831891357898712,0.08465563505887985,-0.13969244062900543,-0.060647834092378616,0.06509210169315338,-0.050827756524086,0.09357776492834091,-0.06556864082813263,0.19825661182403564,0.12632620334625244,-0.16598977148532867,0.2526746392250061,-0.07902723550796509,-0.04731419309973717,-0.4078555405139923,0.12609925866127014,-0.11649478226900101,-0.1572408378124237,0.1309390813112259,0.14381583034992218,0.02982410602271557,0.3835592269897461,-0.14131538569927216,0.06456250697374344,0.04120420664548874,-0.09120101481676102,0.33850738406181335,-0.26622554659843445,0.030014822259545326,-0.12372937053442001,0.3934682309627533,-0.31704533100128174,0.010902750305831432,-0.05741707980632782,-0.22403781116008759],[0.2620278298854828,-0.07152005285024643,0.011628225445747375,0.1560010313987732,-0.2800598740577698,-0.12529133260250092,-0.22795626521110535,0.25638294219970703,-0.21862724423408508,-0.08738446235656738,-0.08250124752521515,-0.3168994188308716,0.4428339898586273,0.0661427304148674,-0.2674351930618286,0.08322179317474365,0.30399709939956665,0.0011452127946540713,-0.3053472340106964,-0.1367703676223755,0.15100809931755066,-0.11910614371299744,0.22359947860240936,0.023201782256364822,-0.30511969327926636,0.08215869963169098,0.35820531845092773,-0.18367744982242584,0.061724089086055756,-0.11549531668424606,0.2500660717487335,-0.010429004207253456,0.24686993658542633,0.1077236756682396,0.0727945938706398,0.016865257173776627,-0.023518405854701996,0.1011873185634613,0.13935233652591705,-0.11654938012361526,0.42945021390914917,-0.4856344163417816,0.03880263864994049,-0.21918439865112305,0.4789205491542816,-0.13052718341350555,-0.43013155460357666,-0.044905249029397964,0.46959614753723145,0.08203453570604324,0.07031397521495819,0.30771180987358093,-0.022419625893235207,-0.12718239426612854,0.3033026158809662,-0.19255907833576202,0.17717650532722473,-0.11159832030534744,0.21869978308677673,0.2587129473686218,-0.003971460275352001,-0.19294553995132446,0.07322323322296143,0.39760538935661316,0.37928807735443115,-0.13667434453964233,-0.03751658648252487,0.06313876062631607,-0.2418564409017563,-0.09248761832714081,0.027621734887361526,0.3127780258655548,0.43006032705307007,-0.2521369457244873,-0.21138212084770203,-0.009424605406820774,-0.008689682930707932,-0.08312954008579254,-0.23769451677799225,0.2825184464454651,-0.22895179688930511,-0.007074008230119944,-0.37366583943367004,-0.24484588205814362,0.25321823358535767,0.1739334911108017,0.4347056746482849,0.3894710838794708,-0.024593906477093697,0.1591322273015976,-0.09256859123706818,-0.14431653916835785,0.13518370687961578,-0.11917466670274734,0.21067753434181213,0.056102387607097626,-0.16236960887908936,0.4546085298061371,0.1938621699810028,-0.011533430777490139,-0.1588636189699173,0.6334389448165894,-0.02583303488790989,0.016505274921655655,0.015104990452528,0.2347651571035385,0.07380201667547226,-0.18801972270011902,-0.02643466927111149,-0.0587129108607769,-0.3856283128261566,0.32950493693351746,-0.07511886209249496,0.04551255702972412,0.5260953307151794,0.15512414276599884,-0.20153437554836273,0.3648732900619507,-0.010159778408706188,0.2567744255065918,-0.24976830184459686,0.11269418150186539,0.03977324068546295,0.2645303010940552,0.4348369538784027,0.12662333250045776,-0.1938544660806656,-0.12471342831850052],[0.07644760608673096,-0.02683665230870247,-0.18387024104595184,-0.33246928453445435,-0.28939133882522583,-0.06280051916837692,0.3464418351650238,0.2713582515716553,-0.0495431125164032,-0.23048701882362366,0.06709778308868408,-0.012145889922976494,-0.19947656989097595,0.22733567655086517,0.17564287781715393,-0.0928664579987526,-0.015816718339920044,0.2251327484846115,-0.1976686418056488,0.00071910914266482,0.25591906905174255,-0.4287687838077545,0.011025472544133663,0.20573927462100983,-0.25112149119377136,0.18370932340621948,0.0013310107169672847,0.07593978941440582,-0.18141332268714905,0.1005353033542633,-0.07315108180046082,0.043734896928071976,0.33392229676246643,-0.06814482063055038,-0.3602083623409271,-0.12866412103176117,0.2575969994068146,0.09492914378643036,0.23582938313484192,-0.34929531812667847,0.11735783517360687,-0.31052446365356445,0.1281152218580246,-0.1793753057718277,0.18990539014339447,-0.21817632019519806,0.07338397204875946,-0.30099624395370483,-0.10928599536418915,0.06811575591564178,-0.1562952697277069,0.06969116628170013,-0.0234639011323452,0.1508580446243286,0.09175535291433334,0.04555583372712135,-0.1244271844625473,0.09625497460365295,0.21079199016094208,0.18284842371940613,0.06732276827096939,0.040293000638484955,0.014683768153190613,0.08484870940446854,-0.10803230851888657,0.12357137352228165,0.0024168770760297775,-0.16302873194217682,-0.24201123416423798,-0.051160797476768494,-0.16168075799942017,-0.011520838364958763,0.21947453916072845,-0.11965388804674149,-0.40573635697364807,-0.07769697904586792,0.1569426953792572,0.041608087718486786,-0.023860540241003036,0.05149882659316063,0.41966038942337036,0.3189663589000702,-0.03089011460542679,0.15272948145866394,0.15751974284648895,-0.08419740200042725,0.06232171878218651,-0.13433468341827393,0.14865124225616455,-0.33270561695098877,0.06126893684267998,0.2632383108139038,0.18719139695167542,0.13067905604839325,-0.01357653085142374,0.191785991191864,0.2471202164888382,0.2088228166103363,0.05336381122469902,0.22908152639865875,-0.1796349585056305,-0.05466536805033684,0.18999019265174866,-0.2625705897808075,-0.08325266093015671,-0.028506359085440636,-0.046971146017313004,0.06504938006401062,-0.2387620210647583,0.3166123330593109,-0.03525134176015854,-0.03989168629050255,-0.19654391705989838,0.04290521517395973,0.04527571424841881,0.03758257254958153,-0.12813881039619446,-0.03677993267774582,0.018335603177547455,0.18200817704200745,0.22991570830345154,-0.3803963363170624,0.05338883399963379,-0.11490093171596527,0.061225637793540955,0.1506456583738327,-0.00683113606646657,0.18052077293395996],[-0.12016353756189346,0.12925565242767334,0.10513237118721008,-0.13055992126464844,-0.09467009454965591,0.07013500481843948,-0.12096036225557327,0.1719934642314911,-0.2218710482120514,-0.1565927267074585,-0.10241175442934036,0.29982414841651917,0.01976543851196766,-0.008046533912420273,0.15534748136997223,0.02895801141858101,-0.07777047157287598,-0.07237040996551514,-0.01604132540524006,0.259563148021698,0.2732337415218353,-0.2357608526945114,-0.18917761743068695,-0.09011968970298767,0.19470179080963135,0.1292349100112915,-0.2974141240119934,-0.10265076905488968,-0.21020463109016418,-0.13423319160938263,-0.031037652865052223,0.3258282542228699,-0.031900059431791306,0.2535764276981354,0.06247742101550102,-0.19993063807487488,-0.13355441391468048,-0.07014645636081696,0.0302236657589674,0.08609706908464432,-0.06957254558801651,-0.16544929146766663,0.07173217833042145,0.10348916798830032,-0.32230672240257263,-0.13061068952083588,-0.29527387022972107,-0.07695662975311279,-0.07670267671346664,-0.1923934519290924,0.3734619617462158,-0.0005679081077687442,-0.020953645929694176,-0.14477017521858215,0.09092479944229126,-0.23341494798660278,-0.32410064339637756,0.1484593152999878,-0.19711756706237793,-0.06801039725542068,0.04904766380786896,-0.3167641758918762,-0.037933122366666794,-0.0567571222782135,-0.01446562260389328,0.04840719327330589,0.19667528569698334,-0.03380874544382095,-0.1259995847940445,-0.11427228152751923,0.14020131528377533,0.10065250098705292,0.13535058498382568,-0.3448408544063568,0.033810101449489594,0.2792828381061554,0.10296493768692017,0.05940607190132141,0.017697691917419434,-0.03850463405251503,-0.12695464491844177,-0.007529785390943289,-0.20327690243721008,-0.01711711287498474,0.16245505213737488,-0.022379480302333832,-0.013501632027328014,-0.10759532451629639,0.1253490149974823,-0.19909094274044037,-0.18735739588737488,0.10939100384712219,-0.014142177067697048,-0.06889110058546066,-0.2916525602340698,-0.0018891355721279979,0.11459016054868698,-0.03557071462273598,0.2557203471660614,-0.03653446212410927,-0.09936995804309845,0.0729789286851883,0.200569286942482,0.13071878254413605,0.11220350861549377,0.1542501300573349,-0.2730989456176758,-0.3876700699329376,0.16527384519577026,0.13628949224948883,-0.0112179359421134,0.06619357317686081,-0.08388380706310272,0.18187759816646576,-0.025238661095499992,0.040747836232185364,-0.21177439391613007,-0.1469247043132782,0.11562418937683105,0.15213125944137573,-0.4112701714038849,-0.18711046874523163,0.10917121171951294,0.49849367141723633,0.05423394590616226,-0.14748400449752808,0.014402679167687893,-0.22268877923488617],[0.185024231672287,0.0351535938680172,-0.2922040820121765,0.2254781723022461,-0.3350387215614319,-0.2930765748023987,-0.2682461738586426,0.06075812876224518,-0.10193699598312378,-0.4403539001941681,-0.0671800822019577,-0.3879522681236267,0.1705634891986847,0.12263160943984985,-0.3840605318546295,-0.08431801944971085,0.5359699130058289,-0.042830709367990494,-0.2602831721305847,-0.15023140609264374,0.06379247456789017,-0.003974652849137783,0.3113004267215729,0.2627376914024353,-0.22495205700397491,0.06912697851657867,0.41496360301971436,-0.02838577888906002,-0.12326691299676895,0.0867871344089508,0.47201865911483765,-0.23280119895935059,0.04478723183274269,-0.047023702412843704,-0.2680665850639343,0.44404885172843933,-0.11155647784471512,-0.008664704859256744,0.17493876814842224,0.01592758297920227,0.36339011788368225,-0.49708762764930725,0.24933041632175446,-0.13885608315467834,0.4560874104499817,0.08169203251600266,-0.6504122018814087,-0.08198359608650208,0.32465681433677673,0.028269199654459953,0.026396004483103752,0.10287347435951233,0.07669436186552048,-0.3671121597290039,0.12417414784431458,0.0035862436052411795,0.18088383972644806,-0.22472456097602844,0.14741529524326324,0.3890334367752075,-0.01648772321641445,-0.02219182811677456,0.2827422022819519,0.08989918977022171,0.2739512026309967,-0.29455018043518066,-0.07796847075223923,0.1989794373512268,-0.13545750081539154,-0.04471999779343605,-0.14876870810985565,0.029278697445988655,0.1879998743534088,-0.0937819853425026,-0.4897131025791168,-0.25453072786331177,0.0508757084608078,-0.26333892345428467,-0.09291018545627594,0.3588681221008301,-0.1382080614566803,-0.05165960639715195,-0.29310667514801025,-0.3020680844783783,0.13418562710285187,-0.13038308918476105,0.39685046672821045,0.3764702379703522,-0.20570454001426697,0.22173626720905304,-0.2194909304380417,0.05133935064077377,0.12025866657495499,-0.15402980148792267,-0.14016538858413696,-0.04259248077869415,-0.44066768884658813,0.5082663893699646,-0.11714325845241547,0.016930678859353065,-0.24458281695842743,0.6614308953285217,-0.0003846561012323946,0.10995042324066162,-0.1573837399482727,0.23508082330226898,0.11302800476551056,-0.02614818513393402,-0.1053389236330986,0.045050591230392456,-0.2900744676589966,0.2511694133281708,-0.04712454602122307,-0.3914863169193268,0.3035041391849518,0.1626843363046646,-0.1602105349302292,0.5522345900535583,0.00802875217050314,0.1348126381635666,-0.016000861302018166,-0.09705609828233719,0.10089413821697235,0.13742117583751678,0.4105381965637207,0.15323148667812347,-0.17010025680065155,0.0956600084900856],[0.09712029248476028,0.06104985997080803,-0.14554670453071594,-0.10298318415880203,-0.1279413104057312,-0.005773390643298626,0.22573110461235046,0.04357662424445152,-0.2216368466615677,0.26588669419288635,-0.02327503263950348,-0.06150592118501663,-0.20960891246795654,0.052126821130514145,0.027678152546286583,-0.07998022437095642,-0.02642461098730564,0.23586325347423553,0.06826037168502808,-0.3803076446056366,-0.009866777807474136,-0.19869184494018555,0.1895606815814972,0.38178083300590515,-0.026858685538172722,0.036239881068468094,0.21005603671073914,-0.23262299597263336,0.029812464490532875,0.2330094277858734,-0.08774112910032272,-0.3221299946308136,0.3051931858062744,-0.2252195179462433,-0.39260947704315186,0.13147149980068207,0.25405353307724,0.04466293379664421,0.22820162773132324,-0.3268921971321106,0.00999902281910181,-0.23666974902153015,-0.07551344484090805,-0.08199106901884079,0.11663896590471268,0.16775164008140564,-0.01899528130888939,-0.30825695395469666,-0.00737381586804986,0.07666146755218506,-0.24359944462776184,0.1929563730955124,0.07533782720565796,0.06007497385144234,0.3303869664669037,0.17539383471012115,0.2174164205789566,0.022444412112236023,0.38438481092453003,-0.019666187465190887,-0.1031043753027916,-0.06814409047365189,0.034652624279260635,-0.1314866989850998,-0.2885879874229431,-0.07826753705739975,0.04397472366690636,0.06895783543586731,0.010194361209869385,0.22963088750839233,-0.20597606897354126,-0.09102197736501694,0.2888968884944916,-0.22127920389175415,-0.34392285346984863,-0.13683214783668518,0.23973657190799713,-0.03678283467888832,-0.13135424256324768,-0.03880753740668297,0.13407070934772491,0.3036045432090759,-0.026517456397414207,0.029453793540596962,-0.07112369686365128,-0.22859624028205872,-0.03313225135207176,-0.12242554128170013,-0.1464107632637024,-0.24950629472732544,0.1315261870622635,0.2950896620750427,0.412219762802124,0.08316904306411743,0.18120938539505005,0.2110489308834076,0.004573071841150522,0.13744713366031647,-0.06926386803388596,0.13129043579101562,0.04557737708091736,-0.0058965920470654964,-0.004720101598650217,-0.4732711613178253,-0.40972232818603516,-0.1844175010919571,-0.20481786131858826,0.2173997461795807,-0.3660062253475189,0.30645686388015747,-0.21804308891296387,-0.15512573719024658,-0.3132055997848511,0.20093576610088348,-0.15803159773349762,0.2213010936975479,-0.2648487687110901,0.264694482088089,-0.1423029899597168,-0.16224050521850586,0.18927277624607086,0.14953875541687012,-0.13176333904266357,0.017173578962683678,-0.05769963935017586,0.39264002442359924,-0.16180212795734406,0.28963571786880493],[0.057843778282403946,-0.022064313292503357,-0.002561504952609539,-0.2943803369998932,-0.16855038702487946,-0.008445066399872303,0.2574596405029297,0.19028060138225555,-0.2005438208580017,-0.27039867639541626,-0.09254961460828781,0.25660768151283264,