{"model_type":"mlp","input_size":63,"labels":["A","B","C","D","E","F","G","H","I","K","L","N","O","P","Q","S","T","U","V","W","X","Y"],"layers":[{"name":"dense_Dense1","input_size":63,"output_size":128,"activation":"relu","weights":[[-0.06706846505403519,-0.053671788424253464,-0.10120557993650436,-0.056344758719205856,0.053130704909563065,-0.03175710141658783,-0.019164737313985825,-0.15398018062114716,-0.10751863569021225,-0.1193559318780899,-0.01509545836597681,0.005649356171488762,-0.08233024924993515,0.04217129200696945,0.06356174498796463,0.05577896162867546,-0.026825478300452232,-0.021968204528093338,0.07680422067642212,0.12857963144779205,0.16652128100395203,0.01993064023554325,0.03805247321724892,-0.10976045578718185,0.110966257750988,-0.05859486386179924,-0.0006378787220455706,0.022533372044563293,0.04254820942878723,0.07218816131353378,0.01719564013183117,-0.090098075568676,-0.097013458609581,-0.16944724321365356,-0.07513155043125153,0.06408867239952087,-0.07997482270002365,0.14687009155750275,-0.03887075558304787,-0.06270403414964676,0.0619957372546196,0.0006145166698843241,-0.10647061467170715,0.027413131669163704,-0.02705991454422474,-0.15654124319553375,-0.15232481062412262,0.12281091511249542,0.1479349583387375,-0.10516198724508286,-0.03128846734762192,0.05635498836636543,-0.023013677448034286,-0.052492983639240265,0.09741818159818649,-0.052553433924913406,0.09639310091733932,-0.18275338411331177,-0.06465868651866913,-0.1529163420200348,0.0014517441159114242,-0.015392628498375416,-0.2011057585477829,0.1990416795015335,0.05830089747905731,-0.039488907903432846,0.026927223429083824,-0.06281010061502457,-0.001333031221292913,-0.09308534115552902,-0.09221068024635315,-0.026302089914679527,0.12434087693691254,0.028875675052404404,-0.1635304093360901,0.015191520564258099,0.019569119438529015,0.05201750993728638,0.07527096569538116,-0.10590140521526337,-0.03420374169945717,-0.0933971107006073,-0.1947566568851471,0.1018921434879303,-0.1406083106994629,0.0063747805543243885,0.03307624161243439,0.13177424669265747,0.06859149783849716,-0.1010560467839241,-0.1286148726940155,-0.15271149575710297,-0.08491338044404984,-0.010295610874891281,0.09974957257509232,0.15451563894748688,0.059183523058891296,-0.07486595958471298,-0.14716500043869019,0.07686866819858551,0.10433387756347656,-0.16861748695373535,0.001192298368550837,0.03136307746171951,0.011953510344028473,0.06143732741475105,0.18383657932281494,-0.09970994293689728,0.001986541785299778,0.04911278933286667,0.0857362300157547,0.07350639253854752,-0.08092062920331955,-0.07951238006353378,0.0209729615598917,0.05925672501325607,-0.009136153385043144,0.08329149335622787,-0.021694142371416092,0.040734246373176575,0.06878332048654556,-0.10240726917982101,0.0042157587595283985,0.02122126892209053,-0.07855989784002304,-0.10853183269500732,0.11407515406608582,0.09413838386535645],[-0.0809035375714302,0.1289679855108261,-0.037869181483983994,-0.16317491233348846,-0.017238330096006393,-0.13090483844280243,-0.1089126467704773,0.06510709226131439,0.18702435493469238,0.004943491891026497,-0.14127975702285767,-0.1378852128982544,-0.09989503771066666,0.006030144169926643,0.034450966864824295,-0.01204080693423748,0.09264284372329712,-0.17455027997493744,0.1444285660982132,-0.18265452980995178,0.09860256314277649,-0.092374287545681,-0.12608268857002258,0.12323502451181412,0.17599375545978546,-0.09141489863395691,0.1433560699224472,0.09999142587184906,0.06327996402978897,-0.1089462861418724,-0.1530197411775589,-0.08533191680908203,0.12374900281429291,-0.045128028839826584,0.06388439983129501,0.07154149562120438,0.03721153736114502,0.11781778931617737,-0.07581306993961334,0.0751502737402916,-0.05770450085401535,-0.020662488415837288,-0.05124606192111969,-0.07243016362190247,-0.0305698923766613,-0.10278826951980591,0.04029853641986847,-0.12003911286592484,-0.06525375694036484,-0.13750532269477844,0.007632434368133545,0.11980605125427246,0.004041225183755159,0.05767339840531349,0.13006578385829926,0.06750348955392838,-0.07460985332727432,-0.008253159932792187,0.12894049286842346,0.04834720492362976,-0.15193229913711548,0.09328535199165344,-0.15123343467712402,-0.0032477190252393484,-0.009925049729645252,-0.16173990070819855,0.1167740523815155,0.11773285269737244,-0.09383968263864517,0.0057251485995948315,0.035291656851768494,-0.02247934602200985,-0.17492367327213287,-0.0897119790315628,0.05193940922617912,0.042152807116508484,-0.008565791882574558,-0.054161105304956436,-0.161116823554039,-0.08530519902706146,0.017862379550933838,0.024603798985481262,0.03090595081448555,0.03646771237254143,0.05949098616838455,-0.14987929165363312,0.18681681156158447,-0.10260075330734253,0.05216749757528305,-0.007155424915254116,0.025936925783753395,0.10713314265012741,0.1138380616903305,0.006724145263433456,-0.003289243672043085,0.01695568673312664,0.016310732811689377,0.010189147666096687,0.05940145626664162,-0.07352209091186523,-0.06788124889135361,-0.06842996925115585,0.12820924818515778,-0.044132210314273834,0.03997938707470894,-0.011489716358482838,0.015664653852581978,-0.024365277960896492,0.10468923300504684,0.1446196436882019,-0.02124839648604393,0.10429025441408157,0.03693060576915741,0.05883965641260147,-0.15165193378925323,-0.04549049958586693,-0.14261868596076965,-0.17133797705173492,0.03074154444038868,-0.18546675145626068,0.0037850793451070786,-0.01541831437498331,-0.027619024738669395,0.04148440808057785,-0.06798052042722702,0.06451981514692307,0.13989068567752838,0.1823006570339203],[-0.07953888177871704,-0.016783330589532852,-0.12269376218318939,-0.05890551209449768,0.05357559770345688,0.1918635368347168,-0.12153006345033646,0.017411429435014725,0.18229755759239197,0.09152231365442276,-0.04149970784783363,0.14794613420963287,0.02278919704258442,-0.05411159619688988,-0.11553142964839935,-0.08173418045043945,-0.18069355189800262,-0.18925859034061432,0.025867586955428123,0.021170035004615784,-0.08080416917800903,0.009108471684157848,-0.17903704941272736,0.038542650640010834,0.12426987290382385,0.03604384884238243,-0.03799201175570488,0.028229743242263794,0.1005895733833313,0.07281123101711273,0.0618119090795517,0.042716044932603836,-0.1505281925201416,-0.05158984661102295,-0.037893474102020264,0.017489707097411156,-0.09204874187707901,-0.047044795006513596,-0.187547504901886,0.02958921529352665,0.16488705575466156,0.09912560135126114,0.07128459215164185,-0.03363893926143646,-0.08005687594413757,-0.1192857027053833,-0.02064240165054798,0.10084924101829529,-0.019670428708195686,0.07959911227226257,0.10553281754255295,-0.11783868074417114,0.000980860902927816,-0.08995983749628067,0.028470931574702263,-0.06380605697631836,0.028688011690974236,0.15133307874202728,0.10849872976541519,0.02144475281238556,0.0942930355668068,-0.16095249354839325,0.025400621816515923,0.07331477850675583,0.13163098692893982,-0.17571182548999786,-0.09398631751537323,-0.0698142722249031,-0.031775183975696564,0.10554531216621399,-0.0523606613278389,0.057939834892749786,-0.01756785623729229,-0.1467738002538681,0.06639380753040314,0.18478713929653168,0.1594311147928238,-0.039764076471328735,0.05551920086145401,0.057918746024370193,0.04710710421204567,0.0958498865365982,0.013667670078575611,0.007139727007597685,0.08530379831790924,0.141163632273674,-0.10124091804027557,-0.09829588234424591,-0.035759396851062775,0.054940398782491684,-0.15906980633735657,-0.10848131030797958,0.1541874259710312,0.18707305192947388,0.039430681616067886,-0.1306106597185135,-0.019589398056268692,0.06258026510477066,0.06341207027435303,-0.021297236904501915,0.05893894284963608,0.11157835274934769,0.1573483794927597,0.1623256504535675,-0.09921542555093765,-0.13248339295387268,0.019276121631264687,-0.17078866064548492,-0.046667326241731644,0.07507651299238205,-0.1219862774014473,-0.17927372455596924,0.036945685744285583,-0.10028800368309021,0.06528489291667938,0.07516985386610031,-0.01173508819192648,-0.19190973043441772,0.13134267926216125,0.09538808465003967,0.07472531497478485,0.03230096399784088,0.08895573019981384,-0.09383600950241089,-0.0317104235291481,-0.09726355224847794,0.12065311521291733,-0.08578255772590637],[-0.10549568384885788,-0.26998698711395264,0.2967238128185272,0.1264919936656952,-0.07875993847846985,-0.2658180594444275,-0.263540118932724,-0.32458022236824036,-0.21509714424610138,-0.25627341866493225,-0.006244551856070757,-0.03306177258491516,0.15428999066352844,-0.2186298370361328,-0.11181078851222992,-0.12060005962848663,-0.16236068308353424,-0.20983722805976868,0.2604061961174011,0.31001633405685425,-0.022245584055781364,-0.16416007280349731,0.22775958478450775,-0.05961036682128906,-0.1062043234705925,0.19809755682945251,0.013531453907489777,0.10181717574596405,0.1478676050901413,0.28219345211982727,0.02787071280181408,-0.026931844651699066,-0.016108302399516106,-0.15279211103916168,-0.20972566306591034,0.22411946952342987,0.16635404527187347,-0.058966416865587234,-0.016747841611504555,0.05609167367219925,-0.17485274374485016,-0.07403646409511566,-0.17986120283603668,0.05561401695013046,-0.020412907004356384,-0.16474121809005737,0.3129895031452179,0.062104612588882446,-0.259298175573349,-0.08145362138748169,0.4919200539588928,0.12440504133701324,0.004814671352505684,0.2976437211036682,0.1592627614736557,-0.09823155403137207,-0.026019878685474396,-0.060644783079624176,-0.04393663629889488,-0.12122983485460281,0.06295531243085861,0.3380989134311676,0.06166103854775429,-0.16978920996189117,-0.018207259476184845,-0.03184369206428528,-0.21414607763290405,-0.16867269575595856,0.06356905400753021,-0.11008083820343018,-0.019674906507134438,-0.10703320056200027,0.08429090678691864,0.06434936076402664,-0.22996270656585693,0.28424134850502014,0.2858148515224457,-0.176442489027977,0.12788616120815277,-0.1205693706870079,-0.14052006602287292,0.19378526508808136,-0.005141825880855322,-0.0933762788772583,-0.2141537219285965,-0.29561373591423035,-0.427850604057312,0.22106479108333588,0.0439656600356102,-0.11848220974206924,-0.011127939447760582,-0.2113366425037384,-0.01769445091485977,-0.0501118078827858,-0.059499360620975494,0.01848553866147995,0.1429193615913391,-0.12437959760427475,-0.245145782828331,0.16760604083538055,0.05896572023630142,-0.11169026046991348,0.08154353499412537,0.20827293395996094,-0.1698753982782364,0.08206845819950104,-0.23476800322532654,0.1972249150276184,-0.001835128292441368,0.10737493634223938,-0.09420312941074371,-0.06310369819402695,-0.15843047201633453,0.22466064989566803,0.07189755886793137,0.11786536127328873,0.16280150413513184,0.11583343148231506,-0.18657095730304718,0.06386091560125351,-0.014693581499159336,-0.19397079944610596,-0.04115481674671173,-0.3110787868499756,0.13496848940849304,-0.28403952717781067,-0.019380612298846245,-0.10230998694896698],[0.008693056181073189,-0.11535849422216415,0.09232055395841599,0.008047464303672314,0.08184323459863663,-0.3018817603588104,-0.3011946380138397,-0.20399221777915955,0.001138912746682763,-0.016661973670125008,-0.03261193633079529,0.14909648895263672,-0.23549138009548187,0.023940932005643845,-0.0014377026818692684,-0.018695326521992683,-0.06732691824436188,-0.04028727486729622,-0.1666618436574936,0.023305566981434822,0.1193687692284584,-0.38162505626678467,-0.17440147697925568,-0.24665382504463196,0.07244515419006348,-0.06702577322721481,-0.009511937387287617,-0.15024343132972717,0.16649480164051056,-0.16973045468330383,-0.16490374505519867,0.22911183536052704,-0.16271434724330902,0.13100379705429077,-0.28419747948646545,0.15606673061847687,0.0288764126598835,-0.15742045640945435,-0.2506566643714905,-0.28351688385009766,-0.24935467541217804,-0.24760045111179352,0.2817569971084595,0.03710130974650383,-0.28814247250556946,0.06247469410300255,0.1538589745759964,-0.3122188150882721,-0.11707747727632523,0.002949967747554183,-0.06353609263896942,-0.19915610551834106,-0.04956459254026413,-0.010379166342318058,0.0722702145576477,0.020199047401547432,0.23507843911647797,-0.21667249500751495,0.09161876887083054,-0.25008636713027954,0.045255277305841446,0.0236960556358099,-0.05902477353811264,-0.1425841748714447,-0.2780977785587311,0.030081475153565407,0.10520628839731216,-0.14493660628795624,-0.04122433811426163,0.06928377598524094,0.06336269527673721,0.09118126332759857,-0.3758561909198761,-0.11728496104478836,-0.013609811663627625,0.16046042740345,0.0023597439285367727,0.059034693986177444,-0.08978685736656189,-0.0918709933757782,-0.1263258308172226,-0.08632995188236237,-0.048280175775289536,-0.04803778976202011,0.05239173769950867,-0.1930544674396515,-0.02452036552131176,0.16978056728839874,-0.1985080987215042,0.060106199234724045,0.003180441213771701,0.2882207930088043,0.08001277595758438,0.06638023257255554,-0.14216022193431854,0.2518799901008606,0.02215461991727352,0.07854403555393219,-0.09883098304271698,0.11880426108837128,-0.015844453126192093,0.19281837344169617,0.061218537390232086,0.2409343123435974,-0.13478663563728333,-0.3243274390697479,-0.1461610198020935,0.03007805161178112,0.07814601808786392,0.0847601443529129,-0.16736353933811188,0.025408141314983368,0.02394481934607029,-0.09495660662651062,0.04660132899880409,0.24982991814613342,0.1290123015642166,0.07522859424352646,-0.28756600618362427,0.4176184833049774,-0.044439446181058884,0.004149490501731634,0.02806233800947666,-0.06057638302445412,0.1576530635356903,0.031110640615224838,0.06591867655515671,-0.16564783453941345],[-0.09045164287090302,-0.07920469343662262,0.19214515388011932,0.3446967601776123,-0.000757237896323204,-0.007571667432785034,-0.23790058493614197,0.24779164791107178,-0.2211710810661316,-0.1866011917591095,-0.05166131630539894,-0.000041906212572939694,-0.17828935384750366,-0.05366406962275505,-0.3422863185405731,0.16315919160842896,-0.2241870015859604,-0.06655319035053253,0.3062913417816162,-0.2608815133571625,-0.2847026586532593,-0.1701326221227646,0.12725311517715454,0.14019854366779327,-0.20487797260284424,-0.014105677604675293,-0.06863157451152802,0.14108189940452576,0.1599288284778595,-0.15195295214653015,-0.3179517686367035,-0.09652025997638702,-0.14253799617290497,-0.13967104256153107,0.05943359062075615,0.06419716775417328,0.2929307818412781,-0.09711139649152756,0.1577630490064621,0.23906004428863525,-0.22903957962989807,0.1855584681034088,-0.15366700291633606,0.03442404046654701,0.06590142101049423,-0.024447001516819,-0.2548815906047821,-0.08537376672029495,-0.07307594269514084,0.0485851913690567,0.020165953785181046,0.13555482029914856,-0.04756186529994011,0.0426178015768528,-0.02748367004096508,0.22672654688358307,-0.2489885836839676,0.06290511041879654,-0.16942459344863892,0.10833976417779922,-0.15437716245651245,0.028002841398119926,0.2643449902534485,-0.04691438376903534,0.010706992819905281,-0.17795999348163605,0.007999397814273834,0.30680587887763977,-0.08486980199813843,-0.2310558557510376,0.08395735174417496,-0.3732508718967438,0.0356125570833683,0.033694762736558914,-0.028524450957775116,0.05337740480899811,-0.08251981437206268,0.2340783178806305,0.2198476493358612,0.31268319487571716,-0.10223589092493057,0.14146530628204346,-0.2331879436969757,0.0740625411272049,0.1457112431526184,-0.1459374874830246,-0.22329534590244293,-0.12980368733406067,0.016674542799592018,-0.06324442476034164,0.07074093818664551,0.10015629231929779,-0.2761766016483307,0.2039661854505539,-0.20311053097248077,-0.11654893308877945,-0.19163329899311066,0.03414100036025047,0.15650199353694916,-0.04609466344118118,0.31394293904304504,0.17110435664653778,-0.006508754566311836,-0.05786697566509247,-0.0070749809965491295,0.003922090865671635,-0.00011010453454218805,-0.11522261053323746,0.2978818118572235,-0.023931516334414482,-0.11297578364610672,0.09633529186248779,0.006952113006263971,-0.1255338340997696,0.05607469379901886,-0.38940152525901794,0.12521451711654663,-0.08691317588090897,-0.038483064621686935,0.3447682857513428,0.03773890435695648,-0.13296176493167877,0.24536913633346558,-0.039974749088287354,-0.09154760837554932,0.09346924722194672,-0.02024148590862751,-0.2790331244468689],[-0.06230343133211136,-0.2594504654407501,0.19273599982261658,0.12038931250572205,0.0424652025103569,-0.0018743828404694796,-0.2701188325881958,-0.2919505536556244,-0.45320889353752136,-0.07208841294050217,0.1750543862581253,0.022427726536989212,0.14704711735248566,-0.20964467525482178,0.10560476034879684,0.1003868356347084,-0.304463267326355,-0.2822111248970032,0.1320042461156845,0.19570083916187286,-0.15889084339141846,-0.06384366750717163,0.23181799054145813,-0.017730921506881714,-0.13699425756931305,-0.07388470321893692,-0.1489167958498001,-0.028557851910591125,0.15873856842517853,0.3909640908241272,-0.03203516826033592,-0.20732513070106506,0.06250971555709839,-0.0780036598443985,-0.0857115387916565,0.17842531204223633,0.14484642446041107,-0.08987355977296829,-0.0842796191573143,-0.14336387813091278,-0.1611780822277069,0.030817897990345955,-0.020143339410424232,-0.09520556777715683,0.05330711603164673,-0.12280361354351044,0.422881156206131,-0.08995383977890015,-0.15436993539333344,0.08412022888660431,0.6400176882743835,-0.09183838963508606,0.009130476973950863,0.16484425961971283,0.24543876945972443,0.10659336298704147,0.0400623194873333,-0.23820051550865173,-0.013161384500563145,-0.07746584713459015,0.047672633081674576,0.33107873797416687,-0.1998482197523117,-0.11842192709445953,0.13985174894332886,0.1282833069562912,-0.002818705979734659,-0.1826130896806717,0.07161301374435425,0.15582267940044403,0.1812741756439209,0.052150994539260864,0.18662826716899872,0.07214964181184769,-0.2528536915779114,0.03919084370136261,0.2155252993106842,-0.1553819328546524,-0.03418957069516182,0.02878754399716854,-0.11564354598522186,0.020358525216579437,0.01939963549375534,-0.073778435587883,-0.19043706357479095,-0.03636021167039871,-0.04960167407989502,0.06408054381608963,0.06672190129756927,-0.11760170757770538,-0.011339300312101841,0.05477697774767876,0.2029208093881607,-0.17045167088508606,0.08498270064592361,-0.06372405588626862,0.14870277047157288,0.030755747109651566,-0.003926894627511501,0.10312281548976898,0.1294012814760208,-0.17851322889328003,-0.062186043709516525,-0.06394781917333603,-0.06336761265993118,0.1587873250246048,-0.08313193172216415,0.3674391210079193,-0.01573869213461876,0.04460538551211357,-0.053930025547742844,0.04079217463731766,-0.20175857841968536,0.4128628671169281,0.026388350874185562,0.24986940622329712,0.005987103097140789,-0.007671689614653587,-0.3652634024620056,0.061106473207473755,-0.16847355663776398,-0.05460447818040848,-0.06632452458143234,-0.2992655038833618,0.21894249320030212,-0.18538177013397217,-0.3284696936607361,-0.1877780705690384],[0.26036500930786133,-0.07005615532398224,0.12479045242071152,0.21242837607860565,0.07612217962741852,-0.23518821597099304,-0.23739656805992126,-0.11427126824855804,-0.03688482940196991,0.07771442085504532,0.10131298005580902,0.041541628539562225,-0.06490204483270645,0.10116604715585709,-0.07378501445055008,0.1012139841914177,0.07842205464839935,-0.015408984385430813,-0.03550320491194725,0.21120615303516388,0.15565235912799835,-0.27719438076019287,-0.18750721216201782,-0.022078629583120346,-0.011577049270272255,0.1580946147441864,0.026779696345329285,0.25603458285331726,0.3449889123439789,0.007210486568510532,-0.25143080949783325,0.15182869136333466,-0.14141859114170074,-0.11604967713356018,-0.14119580388069153,-0.004697118420153856,0.14749035239219666,0.11188080161809921,-0.019013674929738045,0.042622435837984085,-0.20298632979393005,-0.020390208810567856,-0.12130975723266602,0.17629887163639069,0.017759984359145164,-0.06205381453037262,0.04311162978410721,-0.2060435563325882,-0.12095358222723007,-0.16049602627754211,0.07098162919282913,-0.06594865024089813,-0.23876425623893738,0.19719773530960083,0.11480045318603516,0.10595428198575974,0.11315177381038666,-0.12881310284137726,0.0618874616920948,-0.14614003896713257,0.0006101710605435073,0.1219855472445488,-0.1277615875005722,-0.15232914686203003,0.03270971402525902,0.0751393660902977,0.08528398722410202,0.05650491639971733,-0.11527714133262634,-0.24999453127384186,0.144118994474411,0.05276162177324295,-0.17877280712127686,0.054991815239191055,-0.1418122798204422,0.18421991169452667,0.02780986949801445,-0.12732438743114471,-0.021603843197226524,-0.04020305722951889,-0.08435860276222229,0.20512139797210693,-0.07905594259500504,0.03290513902902603,0.05025874823331833,-0.25104695558547974,-0.2349802404642105,0.2345292568206787,-0.12141875177621841,0.10912346839904785,-0.18804457783699036,0.1681831330060959,-0.17511223256587982,-0.0470588244497776,-0.010969243943691254,0.2508457601070404,0.062219683080911636,0.12348495423793793,0.03321763873100281,-0.034312546253204346,0.18490782380104065,0.022180942818522453,0.1408984661102295,0.10634517669677734,-0.023832552134990692,-0.17208009958267212,0.005410997197031975,-0.04153573885560036,0.04029946029186249,0.15841439366340637,-0.13266228139400482,-0.2054814100265503,0.18789109587669373,-0.12670615315437317,0.07603530585765839,-0.046214502304792404,0.14855265617370605,0.07952980697154999,-0.3273717164993286,0.33528581261634827,-0.09615005552768707,0.14601239562034607,0.04166995733976364,-0.21331533789634705,0.058479178696870804,-0.06465259939432144,-0.19454602897167206,-0.07432429492473602],[0.13713915646076202,-0.19502931833267212,-0.012744462117552757,0.08629821985960007,0.028168093413114548,-0.20328134298324585,-0.26994413137435913,0.20551268756389618,-0.11363875865936279,-0.15333013236522675,-0.03759758919477463,-0.11959034949541092,-0.08593408018350601,-0.14946416020393372,-0.11521710455417633,0.07930714637041092,-0.38728654384613037,-0.06692138314247131,0.08046037703752518,-0.048639606684446335,-0.10112796723842621,0.018474232405424118,-0.07768375426530838,0.23334744572639465,-0.04797015339136124,-0.06911973655223846,0.022420579567551613,0.029715372249484062,0.09490945190191269,-0.162797749042511,-0.1377146989107132,-0.2762468755245209,-0.24619026482105255,-0.2545551359653473,0.12182752788066864,0.06967300921678543,0.26468315720558167,-0.22583229839801788,0.2378741353750229,0.2185533493757248,-0.22769615054130554,0.07037107646465302,0.07361569255590439,-0.07248140871524811,0.04752647504210472,-0.06068174168467522,-0.12777727842330933,-0.11614396423101425,-0.2479332983493805,0.08147484809160233,0.08622132241725922,0.08516087383031845,0.006638531107455492,-0.08433981239795685,0.006402484606951475,0.09924336522817612,-0.13927091658115387,0.11553151160478592,-0.09677319973707199,-0.03572447970509529,0.042073529213666916,0.24415388703346252,-0.06149474158883095,0.26972872018814087,0.0464249923825264,0.09675313532352448,0.024819055572152138,0.06642811000347137,-0.051789291203022,-0.10047794878482819,-0.019183261319994926,-0.22236986458301544,-0.0921846255660057,-0.04754658788442612,-0.24821265041828156,0.1695227175951004,-0.190120130777359,0.22217826545238495,0.04519940912723541,0.5266135334968567,0.08471161127090454,-0.07626865804195404,-0.07767294347286224,0.054011840373277664,-0.13624204695224762,-0.24165935814380646,0.02832145057618618,-0.07989168912172318,-0.0966426283121109,-0.18125584721565247,-0.08260321617126465,-0.07222126424312592,-0.23779237270355225,0.11246950179338455,-0.18571737408638,0.009259038604795933,-0.22504062950611115,-0.07610152661800385,-0.09731714427471161,-0.06359252333641052,0.22156690061092377,-0.00938783586025238,-0.07065532356500626,-0.11691804975271225,0.08068366348743439,0.01675507053732872,0.048240967094898224,-0.11313309520483017,0.15681399405002594,-0.06594681739807129,-0.22807952761650085,0.14665073156356812,0.06231682747602463,-0.06839925795793533,-0.02667798288166523,-0.251207560300827,0.1939617395401001,-0.10067620873451233,-0.18460536003112793,0.2256964147090912,-0.12449952960014343,-0.08501313626766205,0.15944808721542358,-0.13374489545822144,-0.032580967992544174,-0.18550576269626617,-0.059340376406908035,0.04220724478363991],[-0.02596629597246647,-0.5900321006774902,0.2924827039241791,-0.2290073186159134,-0.04592137783765793,-0.004436233546584845,0.012924769893288612,-0.05255129560828209,-0.3425174951553345,-0.18977178633213043,0.20061923563480377,0.20993991196155548,0.3564399182796478,-0.3530857563018799,0.11812201887369156,-0.09729640185832977,-0.37076565623283386,-0.49431031942367554,0.35598188638687134,0.28825896978378296,0.034346871078014374,-0.39434123039245605,-0.0005093427025713027,-0.1423734724521637,-0.2645138204097748,-0.07774987071752548,0.1134931743144989,-0.2016189843416214,0.12056775391101837,0.26783668994903564,0.17021578550338745,-0.3372090458869934,0.12080825865268707,0.045967333018779755,0.07829549163579941,0.4975639283657074,0.031185628846287727,-0.3090019226074219,0.11091610789299011,-0.340352326631546,-0.18850471079349518,-0.16213712096214294,0.2966722846031189,-0.2623389959335327,0.041307203471660614,-0.18928906321525574,0.34979820251464844,-0.03779173642396927,-0.2548939883708954,0.12274329364299774,0.5284798741340637,-0.42743027210235596,0.11212566494941711,0.27992141246795654,0.2238314151763916,0.04874961078166962,0.016625551506876945,-0.07050638645887375,0.07415513694286346,-0.29527345299720764,0.052099209278821945,0.2687326967716217,-0.2185172587633133,-0.18867206573486328,0.0987461656332016,0.28540584444999695,0.30703261494636536,-0.33876508474349976,0.1745595782995224,0.10373377799987793,0.14594009518623352,0.0679151639342308,0.3245871365070343,-0.23600737750530243,-0.30690088868141174,0.03235209733247757,0.1430474817752838,0.09272842109203339,-0.07288473099470139,-0.2981102168560028,0.12012743949890137,-0.4083048701286316,0.19028417766094208,-0.2785784602165222,-0.3069322109222412,0.2809824049472809,-0.36783841252326965,-0.08999152481555939,0.0692996010184288,-0.23165374994277954,-0.23366236686706543,0.001428598421625793,0.27419406175613403,-0.19921034574508667,0.37571412324905396,0.0781649574637413,-0.018870249390602112,-0.16826950013637543,0.0020178123377263546,-0.23376281559467316,0.22845546901226044,-0.3265295922756195,0.12823790311813354,-0.023323040455579758,-0.12074467539787292,-0.012061274610459805,-0.20548836886882782,0.45722460746765137,0.33938518166542053,0.4499184787273407,-0.08560873568058014,-0.09687473624944687,-0.009762794710695744,0.5038589239120483,-0.1344856172800064,0.3985607326030731,0.03309052065014839,0.23719561100006104,-0.2795487940311432,0.13582368195056915,-0.03343330696225166,-0.04664352908730507,0.18826496601104736,-0.4087577164173126,0.05374966189265251,-0.3345380127429962,-0.13587135076522827,-0.0740361362695694],[0.061766430735588074,0.0035739450249820948,0.2928643226623535,0.20679935812950134,0.22089427709579468,-0.31004276871681213,-0.4435640871524811,-0.02872890792787075,-0.3065403699874878,-0.09286476671695709,0.07744519412517548,-0.05090436711907387,-0.13241593539714813,0.0040953452698886395,-0.1737545281648636,0.17132633924484253,-0.1235930323600769,0.010012905113399029,-0.04187730699777603,0.14949162304401398,0.20450922846794128,0.05090288817882538,-0.161722332239151,-0.12194446474313736,-0.14524419605731964,0.11742938309907913,0.06540143489837646,0.20917479693889618,0.14350363612174988,-0.0647866427898407,-0.23213693499565125,0.16020159423351288,-0.14671500027179718,-0.22763000428676605,-0.25189027190208435,0.01930641569197178,0.17465855181217194,0.14115117490291595,-0.04088471829891205,0.148784339427948,-0.21591104567050934,0.09415196627378464,-0.1734609305858612,0.14612534642219543,-0.19234557449817657,0.0373038612306118,0.07449410855770111,0.013223890215158463,0.07156480848789215,-0.014115751720964909,-0.06840739399194717,0.2505994737148285,-0.28591713309288025,0.18533100187778473,0.06405967473983765,0.21027608215808868,0.17187082767486572,0.2085793912410736,0.02687465399503708,-0.05954969674348831,0.03932179510593414,0.08014746755361557,0.17586058378219604,-0.0885334461927414,-0.07230086624622345,-0.1627187877893448,-0.1825679987668991,0.199104905128479,-0.17725595831871033,-0.2561541497707367,-0.11870936304330826,0.032605770975351334,-0.28172653913497925,0.12145727127790451,-0.10303609073162079,0.11552361398935318,-0.019364500418305397,-0.04443495720624924,-0.005131994374096394,0.23902051150798798,-0.3144947290420532,0.358110636472702,-0.13501222431659698,0.18361929059028625,-0.1467718780040741,-0.4155636727809906,-0.2657115161418915,0.028875572606921196,-0.09620141983032227,-0.07079334557056427,-0.02986038289964199,0.11654701828956604,-0.33071741461753845,0.021564390510320663,-0.26132798194885254,0.15772034227848053,0.025097355246543884,-0.02306840755045414,-0.03875815123319626,-0.004438736941665411,0.21767626702785492,0.036104150116443634,0.24862273037433624,0.1606811285018921,0.1697453260421753,-0.024220185354351997,-0.052570685744285583,-0.11441857367753983,-0.09624786674976349,0.09928306192159653,-0.09678597748279572,0.08197425305843353,0.15863801538944244,-0.26747456192970276,0.20265553891658783,-0.258220374584198,0.0763525515794754,-0.10143528878688812,-0.15737131237983704,0.39761677384376526,-0.048472676426172256,-0.09417998045682907,0.10768596827983856,-0.11843907088041306,0.18282034993171692,0.015852736309170723,-0.21096393465995789,-0.1397971659898758],[-0.13013020157814026,0.0510360449552536,-0.07446032762527466,0.04825209826231003,-0.11081814765930176,-0.18515869975090027,-0.14789381623268127,0.2486734837293625,-0.031164122745394707,-0.21313470602035522,-0.0795089527964592,0.02284827269613743,0.00412573479115963,-0.19990800321102142,-0.061899758875370026,-0.039456482976675034,-0.17091406881809235,-0.1004827693104744,-0.020189831033349037,-0.2776457667350769,-0.14469702541828156,-0.05558298900723457,-0.012314829975366592,0.0001475564786233008,0.041055355221033096,-0.09808308631181717,0.0026784404180943966,0.12475164979696274,0.09523485600948334,-0.1577729433774948,-0.2410721480846405,-0.14807100594043732,-0.1970924735069275,-0.17334261536598206,-0.06480998545885086,-0.05380672961473465,0.16515809297561646,-0.051071036607027054,0.07600196450948715,0.19520078599452972,-0.1434275060892105,0.06012542545795441,-0.09835011512041092,-0.07264111191034317,-0.1494714766740799,0.05364734306931496,-0.04695681110024452,-0.18621723353862762,0.04113190248608589,0.08434668928384781,0.10230916738510132,-0.040535781532526016,0.04022778198122978,-0.21820302307605743,0.3329817056655884,0.16508321464061737,-0.1397816687822342,0.13412724435329437,0.017227569594979286,0.026791540905833244,-0.10744106024503708,0.04363710433244705,-0.1888221949338913,0.07634653151035309,0.16189786791801453,0.04706985875964165,-0.013508759438991547,0.21125859022140503,-0.08104366809129715,-0.034533049911260605,-0.024543700739741325,-0.2172388732433319,-0.18660864233970642,0.10479716211557388,-0.16128796339035034,-0.04583711177110672,0.07777941226959229,0.03563515841960907,-0.007019339594990015,0.3165620267391205,-0.18352241814136505,0.08123835921287537,-0.13724146783351898,-0.08210411667823792,-0.03762070834636688,0.0027625916991382837,-0.16383057832717896,-0.12813788652420044,0.13002315163612366,-0.15570713579654694,-0.1042167991399765,0.15672895312309265,-0.12762539088726044,0.11088410019874573,-0.08311299979686737,0.01064982172101736,-0.2152642458677292,-0.19246675074100494,-0.13592728972434998,-0.11238120496273041,0.2675808370113373,-0.18010522425174713,-0.07062756270170212,-0.1528967320919037,0.3104146718978882,-0.2549833357334137,0.04919087141752243,-0.20328699052333832,0.041181936860084534,0.05614166706800461,-0.13382184505462646,0.05919085443019867,0.09892378747463226,0.0821303054690361,-0.07469765096902847,-0.09376335144042969,0.0764545202255249,-0.2111252248287201,-0.014764505438506603,0.07649804651737213,-0.09780377149581909,0.054821792989969254,0.17890605330467224,-0.10964133590459824,-0.06324703246355057,-0.165545254945755,0.02276667207479477,-0.19362753629684448],[-0.011352035216987133,-0.6229463219642639,0.2814572751522064,-0.47437167167663574,0.11622760444879532,0.19348914921283722,-0.17049896717071533,-0.21158142387866974,-0.43341970443725586,-0.6344942450523376,0.23899617791175842,0.20565906167030334,0.41481146216392517,-0.34295547008514404,0.38410794734954834,-0.15649735927581787,-0.5546509623527527,-0.5764122605323792,0.5599355101585388,0.4077569246292114,0.026242049410939217,-0.4380006492137909,0.37879014015197754,-0.3301698863506317,-0.46490490436553955,-0.029660934582352638,-0.06919194757938385,-0.6030577421188354,-0.019110379740595818,0.3374432921409607,0.5510439276695251,-0.36622512340545654,0.4529053568840027,0.16415248811244965,0.07698054611682892,0.45076847076416016,-0.0032203325536102057,-0.27460503578186035,-0.17293840646743774,-0.45189011096954346,-0.18997259438037872,-0.21715973317623138,0.46034732460975647,-0.39752447605133057,0.0066943299025297165,-0.20657609403133392,0.27491694688796997,-0.05069822818040848,-0.4719589054584503,0.01367906853556633,0.1991678774356842,-0.6213905215263367,0.01262628473341465,0.3178544044494629,0.2468676120042801,-0.14402496814727783,-0.0034703335259109735,-0.13218140602111816,-0.013290336355566978,-0.19502459466457367,-0.0952412560582161,0.6158544421195984,-0.06036543846130371,-0.324106901884079,0.020096372812986374,0.49508363008499146,0.22527049481868744,-0.24605651199817657,-0.035063743591308594,0.3561275899410248,0.08426672965288162,0.2009972780942917,0.47377660870552063,-0.18880534172058105,-0.19275549054145813,0.06832089275121689,0.2983119785785675,0.15277716517448425,-0.27169269323349,-0.47484421730041504,0.3426036834716797,-0.6370046138763428,0.38063114881515503,-0.12925000488758087,-0.4115656018257141,0.38119015097618103,-0.29513272643089294,0.004303498659282923,0.016605094075202942,-0.12651145458221436,-0.36057382822036743,-0.1277856081724167,0.5538969039916992,-0.3863251805305481,0.5537563562393188,0.05602419748902321,0.3023485541343689,-0.022906331345438957,-0.06437649577856064,-0.3118690848350525,-0.03699847683310509,-0.44133076071739197,-0.011926364153623581,-0.02061758004128933,0.0636477917432785,0.020762355998158455,-0.4192274212837219,0.4609721302986145,0.38954412937164307,0.6957021355628967,-0.2703092098236084,0.1931428462266922,0.18988065421581268,0.30855241417884827,0.125698059797287,0.5031706094741821,0.12598933279514313,0.1458292305469513,-0.5040261149406433,0.022515110671520233,0.13083377480506897,-0.011909506283700466,0.5044776201248169,-0.4149725139141083,0.22139500081539154,-0.5597453713417053,-0.11127405613660812,0.21302808821201324],[0.1892143189907074,-0.042257681488990784,0.3370307683944702,0.20316649973392487,0.30404627323150635,-0.1455850452184677,-0.3239002823829651,0.1679423451423645,-0.22051739692687988,0.23372040688991547,0.10728146880865097,-0.02287692204117775,-0.3738507330417633,-0.11924080550670624,-0.2816057503223419,0.18350687623023987,-0.054606445133686066,0.044446881860494614,0.013723324984312057,0.07298880815505981,0.09469575434923172,-0.013809019699692726,-0.12332168221473694,0.04579416289925575,-0.004632802214473486,-0.0320512093603611,0.11763755232095718,0.21359828114509583,0.14177902042865753,-0.21181720495224,-0.2519986629486084,0.33374643325805664,-0.09562791883945465,-0.15505766868591309,-0.21035826206207275,-0.03077462874352932,0.4236323833465576,0.14421623945236206,0.1364974081516266,0.23828038573265076,-0.2711547911167145,0.2668679654598236,-0.29878780245780945,0.25625374913215637,0.027750948444008827,-0.025187931954860687,0.020463019609451294,0.11488838493824005,-0.1826360523700714,-0.06381458044052124,0.008509932085871696,-0.03346102312207222,-0.2088758945465088,0.15005962550640106,0.24000541865825653,0.1747325360774994,0.1014128029346466,0.008854375220835209,-0.02319786325097084,-0.15313151478767395,0.13310861587524414,-0.16994810104370117,0.0772380605340004,-0.09356546401977539,-0.15280061960220337,-0.05558491125702858,-0.30395713448524475,0.29004353284835815,-0.24936160445213318,-0.21910066902637482,-0.1871524304151535,0.0826120376586914,-0.16463953256607056,0.1822163313627243,-0.22088497877120972,0.09975290298461914,-0.0593419186770916,-0.1704329401254654,0.11045335233211517,0.0722818449139595,-0.3462007939815521,0.38326528668403625,-0.28062519431114197,0.2559454143047333,-0.04246924817562103,-0.3390865623950958,-0.4691755473613739,0.025471152737736702,-0.16725316643714905,0.22583073377609253,0.07319717854261398,-0.04024466872215271,-0.456058531999588,-0.1414673775434494,-0.27069053053855896,0.22514083981513977,-0.13323749601840973,0.28574615716934204,0.23365719616413116,0.10466210544109344,0.23125749826431274,0.25228962302207947,0.1923629641532898,0.2646440863609314,-0.10192672908306122,0.02875906601548195,-0.011068719439208508,-0.11726593971252441,-0.0836065337061882,0.07027669250965118,-0.17911297082901,-0.03809082880616188,0.3083735406398773,-0.06713052839040756,-0.12388511002063751,-0.2704964578151703,0.033872466534376144,0.09663677215576172,-0.2601395547389984,0.20471219718456268,0.009892023168504238,-0.0033081909641623497,0.01683269441127777,-0.20769506692886353,0.03728481009602547,0.1815367192029953,-0.16678333282470703,-0.02158203348517418],[-0.11324993520975113,-0.31607168912887573,-0.08067980408668518,0.13799823820590973,-0.09329435229301453,-0.0854329913854599,-0.23509995639324188,0.008989484049379826,-0.3420262038707733,-0.07643505185842514,-0.0004253919469192624,0.015088795684278011,0.028990834951400757,-0.23603284358978271,0.08341149240732193,-0.10330063104629517,-0.14087016880512238,-0.11383262276649475,0.20362448692321777,0.030188674107193947,-0.14790990948677063,0.03760281950235367,-0.05083603039383888,0.1294315606355667,0.13196557760238647,-0.20339153707027435,-0.08724594116210938,0.1494915932416916,-0.029158130288124084,-0.11361448466777802,-0.20148658752441406,0.018402455374598503,-0.04849173128604889,-0.03482811525464058,-0.055483561009168625,0.16348420083522797,0.11405961960554123,-0.10783887654542923,0.1809961050748825,0.23385627567768097,-0.2603273093700409,0.07081551104784012,-0.1848456710577011,-0.257449746131897,-0.1662270724773407,0.14516788721084595,-0.16019168496131897,-0.11128336191177368,-0.07861544191837311,-0.009612935595214367,0.20045585930347443,-0.05059194564819336,-0.16172370314598083,-0.006466689053922892,0.07274100184440613,-0.10567929595708847,-0.14780065417289734,-0.1194409728050232,-0.15654072165489197,-0.1655116081237793,0.0684339702129364,0.10060586780309677,-0.20388971269130707,0.17951413989067078,0.10536351054906845,-0.015675947070121765,-0.09727952629327774,0.22532115876674652,0.011016163043677807,-0.12015453726053238,-0.07137266546487808,-0.30005061626434326,-0.001827102154493332,0.006457231007516384,-0.007180599495768547,-0.1512710601091385,-0.22753098607063293,0.04544379934668541,0.028484109789133072,0.46369004249572754,0.17587968707084656,-0.22288480401039124,-0.18102076649665833,0.0002423834812361747,-0.09782174229621887,-0.1533048152923584,0.025420233607292175,-0.07860425859689713,-0.13381190598011017,-0.06635306775569916,0.015530792064964771,-0.07391256839036942,0.09302806109189987,0.046446722000837326,0.06274209916591644,-0.21650181710720062,-0.3194841146469116,-0.20030371844768524,-0.15371017158031464,-0.04125421121716499,0.04900429770350456,-0.15862876176834106,-0.08517919480800629,-0.04250529035925865,0.01699693128466606,-0.10312791913747787,0.012174824252724648,-0.22821001708507538,0.24548785388469696,0.08303344994783401,-0.15033899247646332,0.09636777639389038,-0.15103280544281006,-0.22056186199188232,0.06250939518213272,-0.08415302634239197,0.06771773099899292,-0.22366096079349518,0.022567760199308395,-0.0362466499209404,0.04862535372376442,0.043784938752651215,-0.0008651152602396905,-0.1664622575044632,0.053967513144016266,-0.05326656997203827,0.034479767084121704,-0.09168878197669983],[0.14582647383213043,-0.003903491422533989,0.1825268268585205,0.01624220982193947,0.07672332227230072,-0.14048320055007935,-0.04147093743085861,-0.02001871168613434,-0.03297402337193489,0.002888571936637163,-0.1879395991563797,0.1831502765417099,-0.08552566170692444,-0.1449824720621109,-0.17697757482528687,0.09376362711191177,-0.054649848490953445,-0.042815402150154114,0.12147607654333115,0.039274729788303375,0.08561670035123825,0.02826688066124916,0.1444094479084015,0.15320146083831787,0.11694362014532089,0.19408321380615234,0.009165124036371708,0.03776610270142555,0.07365468889474869,0.07110363990068436,-0.2039102464914322,0.059516094624996185,-0.1452661007642746,-0.4182259738445282,-0.0681401789188385,-0.06738485395908356,0.05801768600940704,-0.02198006771504879,-0.14825312793254852,0.09346000105142593,-0.024696575477719307,0.32570508122444153,-0.293830931186676,0.0006940746097825468,-0.0011357179610058665,0.021913113072514534,0.24417418241500854,0.048959750682115555,-0.21379336714744568,-0.10578376054763794,0.5959809422492981,0.2780088186264038,0.02783145196735859,0.05579822510480881,0.170805424451828,-0.020385324954986572,-0.049208153039216995,-0.03936829790472984,-0.09899447113275528,0.10090291500091553,-0.08821532130241394,0.09817180782556534,0.1034722700715065,-0.10718324035406113,0.037947215139865875,-0.07592035084962845,-0.27723321318626404,0.01082195807248354,0.0467941053211689,-0.14630739390850067,-0.008378267288208008,-0.008806881494820118,0.11352004110813141,0.030014006420969963,-0.0348103791475296,0.02295352704823017,0.12771686911582947,0.23405273258686066,-0.030452128499746323,0.07699838280677795,0.04902281239628792,0.09526721388101578,0.1405368596315384,-0.05027979239821434,-0.2482476383447647,-0.13792027533054352,-0.3858749270439148,0.015590935945510864,0.15966594219207764,-0.04835180193185806,0.020752539858222008,-0.0773642286658287,-0.2062668353319168,-0.07966389507055283,-0.15644849836826324,0.11480884253978729,0.0011269721435382962,0.02013769932091236,-0.013009555637836456,0.13903111219406128,0.02187754027545452,-0.03000558726489544,0.19517356157302856,-0.05589216947555542,0.05879947170615196,0.19680514931678772,-0.06210356950759888,0.08654171973466873,-0.3052038252353668,-0.026864761486649513,-0.04472590982913971,-0.0627797320485115,-0.07497259229421616,0.22411347925662994,0.02669341117143631,-0.005833110306411982,0.09458157420158386,0.22079402208328247,-0.05291910097002983,0.1343618780374527,-0.03564625233411789,0.01588617078959942,-0.33344775438308716,-0.15989504754543304,0.1874438375234604,-0.09717858582735062,-0.30210205912590027,0.022855402901768684],[-0.020772239193320274,-0.21965675055980682,-0.11892160773277283,-0.01995719037950039,0.1446458250284195,-0.22295674681663513,-0.03468882292509079,-0.15268026292324066,-0.11942563951015472,-0.1737629622220993,0.0980287566781044,-0.07965274155139923,0.03894967958331108,-0.2735290229320526,0.02800382301211357,0.2445710450410843,-0.1565733104944229,-0.24790285527706146,0.06570605933666229,-0.047853678464889526,0.16903693974018097,-0.03297403082251549,-0.10752072930335999,-0.14109069108963013,-0.06669197231531143,0.0729033499956131,0.05587703362107277,0.056933917105197906,-0.012148173525929451,-0.23548345267772675,0.05514563247561455,-0.21454541385173798,0.035298049449920654,-0.19690737128257751,0.1498153954744339,0.10842522978782654,0.10449542850255966,0.01425770204514265,-0.049406446516513824,-0.16243477165699005,-0.19994701445102692,0.006840009242296219,-0.10673892498016357,-0.0005112597136758268,-0.00937812589108944,-0.1023728996515274,-0.07577794045209885,-0.15905512869358063,-0.1082419902086258,0.17719103395938873,0.13243316113948822,-0.21006892621517181,-0.17508265376091003,0.03445037081837654,0.05162880942225456,0.17813898622989655,0.13376285135746002,-0.12663067877292633,-0.08962177485227585,0.03195895999670029,-0.26751354336738586,0.02527550235390663,-0.18329483270645142,-0.0461006686091423,0.12508666515350342,0.006049503106623888,0.06935758143663406,0.0581217035651207,0.15644635260105133,-0.005367984529584646,0.16061356663703918,-0.15045645833015442,-0.12088476121425629,-0.06647763401269913,-0.2047586888074875,0.13553793728351593,-0.16303572058677673,-0.16632618010044098,0.03566386178135872,0.1626254916191101,-0.021725313737988472,0.041373834013938904,-0.008427470922470093,-0.052830927073955536,-0.10704801231622696,-0.11591880768537521,-0.05900990962982178,0.024264855310320854,-0.18823762238025665,0.013529813848435879,-0.20155514776706696,0.15945865213871002,0.028935149312019348,-0.06659116595983505,-0.026097040623426437,-0.012565337121486664,-0.18776430189609528,0.07266815751791,-0.023245345801115036,-0.05129488930106163,0.06962204724550247,0.005219594109803438,0.1149836853146553,0.15368299186229706,0.03132515028119087,-0.08995317667722702,0.023566126823425293,-0.11719562113285065,0.11054151505231857,0.1398485153913498,0.02153664641082287,0.21360112726688385,-0.005615809466689825,0.09061229974031448,0.1535300761461258,0.12416741251945496,-0.1981567144393921,0.0803760439157486,0.005893116816878319,0.1420438289642334,0.0007955242763273418,-0.018689807504415512,0.22070036828517914,-0.24735504388809204,-0.037483394145965576,-0.13654805719852448,0.041180990636348724,-0.11000830680131912],[-0.10985425114631653,0.4325374364852905,-0.24207647144794464,-0.3984127938747406,-0.02302459068596363,0.001168062211945653,-0.06954269111156464,0.3743045926094055,-0.24068805575370789,0.009234318509697914,0.06903423368930817,-0.09964784979820251,0.18001003563404083,0.09089262783527374,0.1278487741947174,0.12337902188301086,-0.05555989593267441,-0.08447138220071793,0.09044063091278076,-0.143134206533432,-0.05315811559557915,0.2398705929517746,-0.3811904788017273,0.18692493438720703,0.007934991270303726,0.001710859127342701,-0.07341586798429489,0.08115918934345245,-0.2395026981830597,-0.20830848813056946,0.018531370908021927,0.09442685544490814,-0.06281498074531555,-0.22589582204818726,0.13600121438503265,0.10677367448806763,-0.07005500793457031,-0.26091498136520386,0.07402241230010986,0.04915648698806763,0.34244537353515625,0.27481526136398315,-0.13477680087089539,-0.004341882653534412,-0.027369538322091103,-0.23613013327121735,-0.37782400846481323,-0.04834527149796486,0.05271914601325989,-0.00030614782008342445,-0.002262608613818884,-0.012665455229580402,0.18298408389091492,-0.1956375539302826,-0.13073508441448212,-0.3442845344543457,-0.08637303113937378,0.07796606421470642,-0.08099205046892166,0.15416216850280762,0.20605379343032837,0.2323472648859024,-0.04133393242955208,0.1342819482088089,0.08741609752178192,0.15176823735237122,-0.08839969336986542,0.05891871452331543,0.002091245725750923,0.43896037340164185,0.1259409636259079,0.22266574203968048,0.012809719890356064,-0.167703315615654,0.024875149130821228,0.026849785819649696,0.09735610336065292,0.06734258681535721,-0.0726698487997055,0.27683284878730774,0.21036185324192047,0.0014669426018372178,0.10149110108613968,0.23854756355285645,0.309879332780838,0.04165003448724747,0.06028943881392479,0.12317414581775665,-0.06400399655103683,-0.33696800470352173,-0.2607259154319763,-0.33041420578956604,0.03002670593559742,-0.06458036601543427,-0.00799859780818224,0.04472512751817703,-0.1492343544960022,0.0003336063527967781,-0.12930485606193542,-0.0006113567505963147,-0.019550660625100136,-0.31062135100364685,0.010989610105752945,-0.3108941316604614,0.09878646582365036,-0.1536804735660553,-0.01021608617156744,-0.2510952651500702,0.02938893251121044,-0.14833536744117737,0.06626778095960617,-0.1560787856578827,0.07769425958395004,-0.22271008789539337,0.022927146404981613,0.13749182224273682,-0.052523333579301834,0.2795107662677765,0.00014758447650820017,-0.0034504197537899017,0.12441800534725189,-0.19220855832099915,-0.1670481264591217,0.11275315284729004,-0.125130295753479,-0.20573551952838898,0.16128043830394745,0.47085699439048767],[-0.10484211146831512,0.1351298838853836,-0.05333235487341881,0.20403620600700378,0.17625433206558228,0.16228486597537994,-0.10715191811323166,0.28492558002471924,-0.33453232049942017,0.1536845862865448,-0.18105341494083405,0.049851518124341965,-0.12623316049575806,-0.23434239625930786,-0.23260697722434998,0.10236206650733948,-0.12257304042577744,-0.014910466969013214,-0.0627027377486229,0.008731143549084663,-0.048226550221443176,0.15198370814323425,0.03203124552965164,0.17509452998638153,-0.09393493086099625,0.07013469189405441,-0.0669105127453804,0.08161265403032303,0.06178504228591919,0.1878780573606491,-0.12604252994060516,0.12316043674945831,-0.23088869452476501,-0.17613859474658966,0.1537075787782669,-0.15296097099781036,0.19145014882087708,-0.22383126616477966,-0.06876573711633682,0.24383044242858887,-0.054779183119535446,0.06040476635098457,-0.26966238021850586,0.13168621063232422,-0.045383110642433167,-0.013065342791378498,0.2650565803050995,0.12513156235218048,-0.02779444307088852,-0.1259024292230606,0.4623824656009674,0.22616824507713318,0.09924720972776413,-0.18420645594596863,-0.010186400264501572,-0.1825481802225113,-0.06342094391584396,0.20293989777565002,-0.07769476622343063,0.17261923849582672,0.14560715854167938,0.11933440715074539,0.02732490748167038,-0.1654551923274994,-0.01717444136738777,-0.06460275501012802,-0.15623916685581207,0.032067593187093735,-0.09487410634756088,-0.17699265480041504,0.030277226120233536,-0.0924769714474678,0.17645660042762756,-0.16489431262016296,-0.24416932463645935,-0.005770737770944834,0.03564181923866272,0.13845400512218475,0.04003726318478584,-0.13103874027729034,-0.1316038817167282,0.16156461834907532,0.08819692581892014,0.033384017646312714,-0.20061776041984558,-0.04559930041432381,-0.1331944614648819,-0.11085532605648041,0.07241646945476532,-0.10151124745607376,-0.04957035556435585,0.019151965156197548,-0.2214098870754242,-0.18510866165161133,-0.03446132317185402,-0.10230407118797302,0.09541865438222885,-0.05985105782747269,-0.06335906684398651,-0.18277429044246674,0.05946460738778114,0.11009413003921509,0.1171063706278801,-0.09180876612663269,0.17067214846611023,0.251779168844223,0.10366833955049515,0.08218274265527725,-0.1280394047498703,-0.2283354252576828,-0.14004799723625183,0.0033521295990794897,-0.0675482451915741,0.08969977498054504,0.03625829517841339,0.011640883050858974,0.05912332981824875,0.08884511142969131,0.11423733085393906,0.006780741736292839,-0.008556210435926914,0.011861428618431091,-0.19149580597877502,0.002464551944285631,0.25588810443878174,-0.09583540260791779,-0.13417662680149078,0.14539822936058044],[0.053188905119895935,-0.19328457117080688,0.047027844935655594,-0.03306567668914795,0.24168214201927185,-0.22832849621772766,-0.2802087664604187,-0.07120602577924728,0.02556385099887848,-0.17872820794582367,-0.023776710033416748,0.0950988382101059,0.00704995496198535,-0.1431344598531723,0.020064206793904305,0.08128173649311066,-0.2917326092720032,-0.1608944982290268,0.04880590736865997,0.07956256717443466,0.30270761251449585,0.06175290793180466,0.18207332491874695,-0.17775693535804749,-0.07176662981510162,0.132549449801445,0.18517090380191803,-0.08342217653989792,0.016636699438095093,0.04478324577212334,-0.23406153917312622,-0.011500293388962746,0.0029778198804706335,-0.11713120341300964,0.05593428015708923,0.00008932172204367816,0.03873280808329582,0.06645835191011429,0.01785011775791645,-0.35165250301361084,0.0631098672747612,0.012180761434137821,-0.20470376312732697,-0.18283234536647797,0.0633879080414772,-0.2206285446882248,-0.12774665653705597,-0.1825045347213745,-0.18101036548614502,0.06906057894229889,-0.017594311386346817,-0.19775532186031342,0.08164376765489578,0.08204382658004761,-0.11558830738067627,0.22679583728313446,0.18658539652824402,-0.21319279074668884,-0.03104601614177227,-0.05337001383304596,-0.30222269892692566,0.1229901909828186,0.042509544640779495,-0.03765095770359039,0.20705485343933105,-0.15878161787986755,-0.06339310109615326,0.09547862410545349,-0.010240006260573864,-0.17219403386116028,-0.05894782766699791,-0.13968265056610107,-0.07520762830972672,0.032666146755218506,-0.03343033045530319,0.07136186957359314,-0.1309819370508194,0.10135646909475327,-0.014626304619014263,-0.03546033054590225,-0.03649527207016945,-0.10463912039995193,-0.017793796956539154,-0.08417179435491562,-0.04302521422505379,-0.1056266576051712,-0.2470002919435501,-0.10713560879230499,-0.055992767214775085,0.09049385040998459,-0.10827295482158661,-0.13529151678085327,-0.09380700439214706,-0.04608844593167305,0.04922306910157204,0.2001410573720932,-0.2751530706882477,0.019033512100577354,0.321590393781662,0.015046000480651855,-0.12136027961969376,-0.024950049817562103,0.0753932073712349,-0.07130059599876404,0.09125827997922897,-0.08228092640638351,-0.04925869405269623,-0.04485781118273735,-0.03774299845099449,0.11989584565162659,-0.06610482931137085,0.06315373629331589,0.345196932554245,0.01955261453986168,-0.05490294471383095,-0.16939136385917664,-0.15900534391403198,-0.003729172283783555,-0.032926179468631744,-0.04720982164144516,0.19015821814537048,-0.02974465861916542,-0.08782283961772919,-0.16384215652942657,-0.041050221771001816,-0.08458923548460007,0.012628193013370037,-0.010137972421944141],[-0.08105453848838806,0.11816620826721191,-0.4052305519580841,-0.07405254989862442,-0.24599385261535645,0.07656947523355484,0.25029247999191284,-0.02908613160252571,-0.2920682728290558,-0.26279374957084656,-0.13280031085014343,0.026074450463056564,0.1097814068198204,0.017552286386489868,0.16352340579032898,-0.11315078288316727,-0.013777504675090313,-0.11043617129325867,0.10032524168491364,-0.26634910702705383,-0.0778309628367424,0.21763473749160767,-0.28944242000579834,0.20195677876472473,-0.08491110801696777,0.07742401957511902,0.026154514402151108,0.019803140312433243,-0.23714163899421692,-0.2239968478679657,-0.20154382288455963,-0.07300684601068497,0.05950842797756195,-0.28411251306533813,-0.13982193171977997,-0.08005276322364807,-0.1364181935787201,-0.24126891791820526,0.13620591163635254,-0.052240174263715744,0.21246522665023804,0.16260047256946564,-0.2913295328617096,-0.14210307598114014,-0.2245078682899475,-0.07021277397871017,-0.3888839781284332,-0.08578091859817505,-0.057146914303302765,0.013039572164416313,0.09322348237037659,-0.1170952320098877,0.031056640669703484,-0.23299258947372437,0.12934885919094086,-0.141278475522995,-0.08119717985391617,-0.03698074445128441,-0.08452005684375763,0.11458718776702881,-0.11163248866796494,0.17523404955863953,-0.23118436336517334,0.2816706895828247,0.1516159474849701,0.08940260112285614,-0.19202060997486115,0.1684761792421341,-0.0656365379691124,0.32719728350639343,0.09062274545431137,0.09021785855293274,0.08930624276399612,0.03626541793346405,-0.022643612697720528,-0.10368021577596664,0.13262426853179932,0.023282309994101524,-0.077542245388031,0.5010198354721069,0.29972565174102783,-0.06733671575784683,0.1806931346654892,0.2006378322839737,0.23739244043827057,0.01068697776645422,-0.0927983969449997,-0.04148326814174652,-0.08673899620771408,-0.17407619953155518,-0.38357818126678467,0.005321360193192959,-0.17256419360637665,0.023341024294495583,0.047876715660095215,-0.04320273548364639,-0.06762686371803284,0.007603722624480724,-0.006927239242941141,0.02699396200478077,-0.034843724220991135,0.02046031504869461,-0.07029769569635391,-0.06406674534082413,0.334952712059021,-0.11171148717403412,-0.1665293574333191,-0.07612771540880203,-0.23836635053157806,-0.03277330845594406,0.08574346452951431,-0.08544668555259705,0.0007015150040388107,-0.2856903374195099,0.014844777062535286,0.015406923368573189,0.011856737546622753,0.054166242480278015,-0.06529346853494644,-0.16813158988952637,0.11606700718402863,-0.13516288995742798,-0.011500596068799496,-0.056412845849990845,0.06962104141712189,-0.23056983947753906,-0.12225130200386047,0.05734030902385712],[0.13323017954826355,0.07357112318277359,-0.13166804611682892,0.07672823965549469,-0.001042822957970202,0.19405609369277954,-0.026254048570990562,0.1718931794166565,-0.06768916547298431,-0.07619781792163849,-0.04105842486023903,0.0013358460273593664,-0.049302052706480026,-0.11404816061258316,-0.12208721786737442,-0.07774849981069565,0.0524391233921051,-0.028120502829551697,-0.0844513475894928,-0.06764636933803558,0.0021247020922601223,0.2492661029100418,-0.05472351238131523,0.029273774474859238,0.07163064926862717,0.12758448719978333,-0.06602580845355988,0.050952646881341934,-0.13992126286029816,0.24429529905319214,-0.12645664811134338,-0.09090092778205872,-0.16259916126728058,-0.17714719474315643,0.05809018760919571,-0.17102012038230896,0.012756487354636192,-0.14783050119876862,-0.11098304390907288,0.11522819101810455,0.15811748802661896,-0.17228567600250244,-0.23341725766658783,0.07180827856063843,-0.03387356922030449,0.028365841135382652,0.17191624641418457,-0.002928095404058695,-0.049099769443273544,0.0037798373959958553,0.28408339619636536,0.08563186973333359,-0.02471916750073433,-0.1331724375486374,-0.07200642675161362,-0.058818306773900986,0.14688420295715332,0.2812073528766632,-0.13182975351810455,-0.05318981036543846,0.03153364360332489,0.15244022011756897,0.04176933318376541,-0.03482682257890701,-0.21199873089790344,-0.02169043943285942,-0.15520520508289337,-0.12030193954706192,0.06878785789012909,-0.13355062901973724,-0.019961344078183174,0.14300347864627838,0.06290427595376968,-0.12011077255010605,-0.2735508978366852,-0.12897051870822906,0.22402061522006989,0.15011021494865417,-0.1152288168668747,-0.15673209726810455,-0.06860864162445068,0.11825070530176163,0.04489821940660477,-0.02931848168373108,-0.1404946893453598,-0.10523568838834763,-0.14952053129673004,-0.058545514941215515,0.19601885974407196,-0.035663679242134094,-0.0735967606306076,0.0017761174822226167,-0.011802274733781815,-0.019010290503501892,-0.2059033364057541,0.11324191093444824,0.1295045167207718,-0.1021709218621254,0.0332164540886879,0.04410143569111824,-0.17973576486110687,0.12422893941402435,0.16425521671772003,-0.16214366257190704,0.03691745549440384,0.06744001060724258,-0.08919097483158112,0.31901371479034424,-0.38661080598831177,-0.2979513108730316,-0.007944796234369278,-0.0033482792787253857,-0.12686991691589355,0.25792571902275085,0.05309884995222092,0.018784215673804283,-0.18065717816352844,0.2086520940065384,0.0886785164475441,-0.04638734832406044,-0.03887230530381203,0.16605336964130402,-0.1021798849105835,0.08113078027963638,0.1291155070066452,0.025810105726122856,-0.12927813827991486,0.16654743254184723],[0.19164623320102692,-0.18246513605117798,-0.12870846688747406,0.054900139570236206,0.06306774914264679,-0.019828738644719124,0.047614309936761856,-0.09928001463413239,0.3261614441871643,-0.14403684437274933,-0.06523537635803223,0.09199773520231247,0.020465927198529243,-0.08044120669364929,-0.08362870663404465,0.05163223296403885,-0.22884927690029144,-0.08760162442922592,-0.19367457926273346,-0.06842551380395889,0.24622172117233276,-0.21555691957473755,0.1325526386499405,-0.24497421085834503,0.012708964757621288,0.11219941079616547,0.17821060121059418,-0.3757520020008087,0.12647601962089539,-0.03547811508178711,-0.059256091713905334,-0.19342269003391266,0.08510509133338928,-0.026279162615537643,-0.1262390911579132,0.05974844470620155,-0.04339560866355896,-0.03989536687731743,-0.26603683829307556,-0.10303404927253723,0.00971898715943098,-0.2992372214794159,0.13523562252521515,-0.11887640506029129,-0.09909273684024811,0.10270577669143677,0.06727485358715057,0.18708926439285278,-0.12217206507921219,0.06229301169514656,-0.08490385115146637,-0.2257550209760666,-0.27970606088638306,-0.0814913958311081,-0.15976572036743164,0.036593154072761536,-0.040716007351875305,-0.2661350667476654,-0.34834232926368713,0.21092356741428375,-0.29585322737693787,0.02774253487586975,0.25119224190711975,-0.26524707674980164,-0.03460361063480377,0.07357052713632584,-0.07265203446149826,-0.20381629467010498,-0.07838037610054016,0.006248769350349903,-0.07958057522773743,-0.05209473893046379,-0.025353174656629562,0.11413972079753876,-0.018985597416758537,-0.01797514595091343,-0.13256001472473145,0.041471295058727264,0.15898871421813965,0.10128086060285568,0.10065938532352448,-0.3513585925102234,0.11214383691549301,0.02525402419269085,-0.10394266247749329,-0.18799592554569244,0.008588825352489948,-0.09836632758378983,0.19257886707782745,-0.013387585058808327,-0.051693689078092575,0.12721025943756104,-0.0508744902908802,-0.05231787636876106,-0.23386375606060028,0.059522636234760284,-0.11478898674249649,0.07136575877666473,0.2600770592689514,-0.19599409401416779,-0.2917061448097229,0.0064438823610544205,0.1106714978814125,0.01728050969541073,-0.037089038640260696,0.07998054474592209,-0.13312079012393951,-0.06185592710971832,-0.03824574500322342,-0.08647383749485016,0.0844239890575409,-0.10166490077972412,0.27770939469337463,-0.2630510926246643,0.08757537603378296,0.06497690081596375,-0.05615593120455742,-0.044348083436489105,0.19223715364933014,-0.18590815365314484,0.020731579512357712,0.11476324498653412,-0.2082906812429428,0.1277771145105362,0.04236763343214989,0.11034853011369705,-0.11727078258991241,-0.10198801010847092],[-0.09489680081605911,0.021316885948181152,-0.102103091776371,0.00456413347274065,-0.04607829824090004,-0.05381718650460243,0.21250313520431519,0.03753553703427315,0.008264247328042984,-0.09471402317285538,-0.131626695394516,-0.08229761570692062,0.04553661867976189,-0.05300230160355568,0.1661723405122757,-0.16212183237075806,0.1894693225622177,0.02954275906085968,-0.12233276665210724,-0.0554148368537426,-0.1650046706199646,0.14298170804977417,-0.25559186935424805,-0.19729790091514587,0.059878863394260406,0.04069866985082626,-0.16771838068962097,-0.15342824161052704,-0.15521615743637085,-0.1341276317834854,-0.061218149960041046,-0.2241179198026657,-0.09944596141576767,-0.07734154909849167,0.05019102618098259,-0.10265425592660904,-0.09822971373796463,-0.3596818447113037,0.07165965437889099,-0.03936677798628807,0.14346662163734436,0.025375699624419212,-0.11449279636144638,-0.1633177399635315,-0.06266891956329346,-0.05537736415863037,-0.18803046643733978,-0.03682839125394821,0.04024253040552139,0.09251265972852707,0.019313784316182137,-0.20760226249694824,-0.022309022024273872,-0.20382915437221527,-0.11156678944826126,-0.08559305965900421,-0.1426786482334137,-0.10261454433202744,-0.06060442700982094,0.13180378079414368,-0.16746886074543,0.03782029449939728,-0.09574221819639206,0.19817501306533813,0.07831314206123352,0.21340720355510712,0.04251362010836601,-0.13817672431468964,-0.03377280756831169,-0.012777572497725487,0.14730091392993927,-0.1398598998785019,-0.07468000799417496,-0.008899975568056107,0.009260505437850952,-0.09258852154016495,-0.01797677017748356,-0.13929666578769684,0.061386119574308395,0.3971329927444458,0.3165660798549652,-0.3778305649757385,0.14087620377540588,0.07153725624084473,0.2279805690050125,0.17051976919174194,0.16905169188976288,-0.06990846246480942,-0.08018354326486588,-0.067598357796669,-0.17504967749118805,0.14020144939422607,0.16549265384674072,-0.08043830841779709,0.08444075286388397,-0.12148472666740417,-0.23937423527240753,0.13903096318244934,-0.07607206702232361,0.017760369926691055,-0.24750204384326935,-0.05178426578640938,-0.07566644251346588,-0.0248191487044096,0.03587254881858826,-0.16051626205444336,0.12002523988485336,-0.02194465883076191,-0.2278875857591629,-0.05475115403532982,0.21983671188354492,0.030722418799996376,0.09281899034976959,-0.1857965886592865,-0.08591195195913315,0.0855458527803421,-0.11173243075609207,0.05587097629904747,0.08702903985977173,-0.08851597458124161,-0.20746925473213196,-0.2584250569343567,0.031067373231053352,0.06773185729980469,0.00512136472389102,-0.21413129568099976,-0.23457741737365723,0.08947666734457016],[-0.06923322379589081,0.14176012575626373,-0.097743920981884,-0.10636632144451141,0.05460353195667267,0.348793625831604,-0.16836847364902496,0.09550042450428009,-0.04742208495736122,0.22944650053977966,-0.22141136229038239,0.11756397783756256,-0.057640526443719864,0.02552204579114914,-0.10634548962116241,0.077271968126297,0.06846006959676743,0.012990721501410007,-0.11309672147035599,-0.06439090520143509,-0.08910692483186722,0.11739131808280945,0.026621216908097267,0.1417074352502823,0.2526753544807434,0.10386902838945389,-0.024143895134329796,0.09533120691776276,0.011630306020379066,0.19882021844387054,0.058302950114011765,0.12019623816013336,-0.18620534241199493,0.05177590250968933,0.1554529219865799,-0.06559654325246811,-0.17445962131023407,-0.03358031436800957,-0.019244195893406868,0.04940883070230484,-0.035156797617673874,0.029703473672270775,-0.06560690701007843,0.15081466734409332,0.2416067123413086,0.1581858992576599,0.41789552569389343,-0.1270449161529541,-0.018917271867394447,0.13537538051605225,0.4035053849220276,0.20407597720623016,0.0828016921877861,-0.16834314167499542,-0.1295188069343567,-0.15202917158603668,0.005076906178146601,0.1341860294342041,-0.07372453063726425,0.048445943742990494,-0.06278767436742783,0.11748895794153214,0.11782971024513245,0.02121923491358757,-0.18701525032520294,-0.2725445330142975,-0.20062515139579773,-0.20461131632328033,0.12060500681400299,-0.12818537652492523,-0.021874194964766502,0.19484205543994904,0.09920260310173035,-0.07488054037094116,-0.17935723066329956,-0.34722453355789185,0.1603499948978424,0.10703171789646149,0.08514238148927689,-0.0635223239660263,0.15640458464622498,-0.31561145186424255,-0.019515903666615486,-0.2783151865005493,-0.15227077901363373,-0.006499043200165033,0.1216544657945633,-0.12657257914543152,0.07014793902635574,-0.20569230616092682,-0.09954365342855453,-0.09641040116548538,-0.1869473159313202,-0.1314324140548706,-0.07849039137363434,-0.015681250020861626,0.12085668742656708,-0.04349857568740845,-0.055688850581645966,-0.2220029979944229,-0.08085270971059799,0.08707307279109955,0.22073198854923248,0.0028734691441059113,-0.0392254963517189,0.047088976949453354,0.12303011864423752,0.34659960865974426,-0.2038305550813675,-0.34251582622528076,-0.23337920010089874,0.008197986520826817,0.03607913851737976,0.3703725039958954,0.16662079095840454,0.01965436153113842,-0.12218795716762543,-0.0883767306804657,0.20338945090770721,-0.06676731258630753,0.03755134344100952,0.1517326980829239,-0.17828406393527985,-0.08826910704374313,0.07598211616277695,0.05777837336063385,-0.006318236235529184,0.2200077474117279],[0.0155134666711092,-0.01492959726601839,-0.4223828613758087,-0.005176164675503969,0.1742020845413208,0.26408764719963074,0.1632373183965683,-0.062395643442869186,0.49920621514320374,-0.08190756291151047,-0.29709020256996155,-0.13544808328151703,-0.08411300927400589,-0.2903640866279602,0.005427692085504532,0.07690057158470154,-0.2128526121377945,-0.16344405710697174,-0.1138063296675682,-0.06189882010221481,0.008821043185889721,-0.49900490045547485,0.08279791474342346,-0.448170930147171,0.06563475728034973,0.23032863438129425,0.2679349184036255,-0.45148760080337524,-0.18873855471611023,0.034196637570858,0.13139905035495758,-0.0675184577703476,0.24830518662929535,0.047075383365154266,-0.08322400599718094,-0.22664396464824677,-0.08069174736738205,-0.04150481894612312,-0.3855217695236206,-0.36923637986183167,0.11091922223567963,-0.1713792234659195,0.11158821731805801,-0.49098873138427734,0.17606008052825928,0.29272785782814026,-0.07562128454446793,0.29723671078681946,-0.0757092833518982,0.1905284821987152,0.17871688306331635,-0.14336320757865906,-0.07518249750137329,-0.2086469680070877,-0.22541894018650055,0.289383202791214,0.12573732435703278,-0.06904293596744537,-0.2803522050380707,0.4468937814235687,-0.2701324224472046,0.031795065850019455,0.1897154599428177,-0.3691624104976654,-0.3416069746017456,-0.29859495162963867,-0.0712122991681099,-0.23273760080337524,-0.02513853833079338,-0.14169055223464966,0.12785586714744568,-0.21831819415092468,0.19440515339374542,0.13864584267139435,-0.03929949924349785,0.12563811242580414,-0.16446809470653534,0.030746974050998688,0.19263947010040283,0.08256646245718002,0.24438491463661194,-0.5105750560760498,0.08069438487291336,0.07863164693117142,-0.10419035702943802,-0.25180456042289734,-0.18885523080825806,-0.2805043160915375,-0.16769063472747803,0.21844226121902466,-0.03418545797467232,0.22079601883888245,0.00679461844265461,-0.05281504616141319,-0.09061621874570847,0.11579596996307373,-0.16625890135765076,0.19887448847293854,0.259969562292099,-0.27531111240386963,-0.4600488841533661,0.2063223421573639,0.0420406274497509,0.09368521720170975,-0.25078120827674866,0.09259927272796631,0.23788347840309143,-0.14874035120010376,-0.045617781579494476,-0.24720023572444916,0.3231136202812195,-0.0426703579723835,0.35636115074157715,-0.14494666457176208,0.16437043249607086,0.018195679411292076,-0.3744433522224426,-0.31431475281715393,0.2059546709060669,-0.34650135040283203,0.13105210661888123,-0.052496716380119324,-0.20386527478694916,0.31201693415641785,-0.05858468636870384,0.17895163595676422,0.21610960364341736,-0.06486164033412933],[0.08159143477678299,-0.2054699957370758,-0.1323254406452179,0.04640943557024002,-0.13481487333774567,0.18572008609771729,0.13110163807868958,0.2070697546005249,0.20409689843654633,0.09290329366922379,-0.2172970324754715,-0.21331912279129028,0.14299467206001282,0.08496566116809845,0.23077337443828583,0.11760850995779037,0.1553056240081787,-0.017080897465348244,-0.007597016170620918,-0.03175586462020874,-0.12335027009248734,-0.33079442381858826,-0.22053436934947968,-0.168727844953537,0.01660374365746975,0.015299187041819096,0.045207489281892776,-0.12524811923503876,-0.32387736439704895,-0.11565526574850082,-0.0805700346827507,-0.06338083744049072,-0.04126467555761337,-0.006048659794032574,-0.07753194123506546,-0.02104635164141655,-0.2966424524784088,-0.3284028172492981,0.08684390038251877,-0.09882138669490814,0.22613908350467682,-0.22675928473472595,-0.09585050493478775,-0.29488226771354675,0.038511987775564194,0.16028915345668793,-0.29972752928733826,-0.10959599167108536,-0.10227113962173462,0.18210208415985107,-0.10817074775695801,-0.1791566163301468,-0.21944423019886017,-0.2315652221441269,-0.09964107722043991,-0.07032454013824463,-0.2505568265914917,-0.21628622710704803,-0.22393804788589478,0.0740591436624527,-0.27484920620918274,-0.07060475647449493,0.04940573871135712,0.06851939111948013,-0.12553957104682922,-0.07100648432970047,-0.055267054587602615,0.012988787144422531,-0.09204667806625366,0.12330638617277145,0.07605848461389542,-0.30434346199035645,0.037272389978170395,-0.04800422489643097,-0.08639150857925415,-0.2436920404434204,-0.20054617524147034,-0.2062709480524063,0.11665191501379013,0.3679140508174896,0.3445759117603302,-0.3265404999256134,0.15921300649642944,-0.04840058833360672,-0.03500659763813019,0.027199596166610718,0.06893067061901093,-0.2782881557941437,0.0281599722802639,-0.07122304290533066,-0.15072959661483765,0.21696235239505768,0.10804755985736847,0.06572926789522171,0.053830649703741074,-0.13428522646427155,-0.27338969707489014,-0.1332615315914154,0.1834481656551361,-0.2642657160758972,-0.5081552267074585,-0.051744453608989716,-0.04338225722312927,-0.31483492255210876,0.2587449550628662,-0.22921103239059448,0.04250470921397209,-0.1826067864894867,-0.11692541092634201,-0.0804901123046875,0.04449819400906563,0.08048049360513687,-0.05433616042137146,-0.15310151875019073,0.08334898948669434,-0.06862242519855499,-0.08824820816516876,-0.36216065287590027,0.23097462952136993,-0.14321406185626984,-0.09103694558143616,-0.14676228165626526,-0.11335796862840652,0.20648939907550812,-0.11409235000610352,0.016045834869146347,-0.06350740790367126,-0.12717382609844208],[0.022030211985111237,0.1333720088005066,-0.08814350515604019,0.19395971298217773,0.21382445096969604,-0.059908751398324966,-0.04969613626599312,-0.028300974518060684,0.17426776885986328,-0.04957971349358559,-0.23684029281139374,0.1079086884856224,0.01374391745775938,0.009976827539503574,-0.17890165746212006,0.1236499771475792,-0.02567962184548378,0.004017562139779329,0.11545927077531815,0.04927594214677811,0.20891056954860687,0.20173928141593933,0.15078483521938324,0.1294107586145401,0.02293909527361393,0.0938921570777893,0.14236335456371307,0.20381540060043335,0.08538386970758438,0.15784186124801636,-0.17963670194149017,0.09595967829227448,-0.18442685902118683,-0.2674283981323242,-0.010278099216520786,0.051747940480709076,-0.04316097870469093,-0.08059494197368622,-0.08144678175449371,0.3094593584537506,0.013109087944030762,0.15199130773544312,-0.16691191494464874,0.001006999402306974,0.1570463329553604,-0.07989533990621567,0.17994260787963867,0.19074538350105286,-0.14334870874881744,0.11585883796215057,0.4567324221134186,0.15268459916114807,0.09676457196474075,0.03460562974214554,-0.026006123051047325,-0.026033995673060417,0.11879175156354904,0.14645341038703918,-0.25103679299354553,0.14372046291828156,0.012892646715044975,0.06803139299154282,0.11813941597938538,-0.08096417039632797,0.00415934668853879,0.06876181811094284,-0.11017832159996033,0.1126893162727356,-0.036510270088911057,-0.27521318197250366,-0.09686192870140076,-0.20136712491512299,0.15860426425933838,-0.20093050599098206,-0.0297649335116148,0.09287424385547638,-0.11084763705730438,0.11134463548660278,-0.09075956046581268,-0.06460932642221451,0.028205417096614838,0.20549379289150238,0.038490694016218185,0.06463436782360077,-0.09128634631633759,-0.20687788724899292,-0.2292240560054779,-0.053966328501701355,0.07794324308633804,-0.08526667207479477,0.0473955012857914,0.10559845715761185,-0.3207065463066101,-0.15646138787269592,-0.3387371897697449,0.14476032555103302,0.01311968732625246,-0.00961678009480238,-0.02832075022161007,0.13470478355884552,-0.02081993967294693,-0.048636846244335175,0.11036235094070435,0.252215176820755,-0.051358602941036224,0.13397957384586334,0.018993299454450607,-0.0286430474370718,-0.37697723507881165,-0.018560802564024925,-0.1152762770652771,-0.21417246758937836,-0.019645793363451958,0.0632229819893837,-0.0004703792801592499,-0.11482406407594681,-0.11738874763250351,0.10679908096790314,0.13137699663639069,0.11128643155097961,0.08011399209499359,0.02255149371922016,-0.2557184100151062,-0.011174526065587997,-0.003650825237855315,0.21909567713737488,-0.18459586799144745,0.00048036687076091766],[0.14150837063789368,-0.17328329384326935,-0.1059437021613121,0.10222310572862625,0.1199246197938919,-0.1805001050233841,-0.2194095104932785,0.03932705521583557,-0.21889393031597137,-0.12644802033901215,-0.15531198680400848,-0.07639691978693008,-0.1256149560213089,-0.13602779805660248,0.042043644934892654,0.042383626103401184,-0.07677657902240753,-0.01654946431517601,0.02267153561115265,-0.10387266427278519,0.04265156388282776,-0.18169336020946503,-0.15807901322841644,-0.14652955532073975,0.0691433921456337,0.23358288407325745,0.07623440027236938,-0.06425978988409042,-0.07503823935985565,0.13778094947338104,-0.14109115302562714,-0.030342066660523415,0.04544423893094063,-0.13292917609214783,0.16894695162773132,0.24146825075149536,-0.021604491397738457,-0.09039637446403503,0.1516440361738205,0.013642554171383381,0.0009429907659068704,0.10510165244340897,0.004527045413851738,-0.12681692838668823,0.000028591661248356104,-0.038836222141981125,0.015978727489709854,-0.11127408593893051,0.03213178366422653,0.04549869894981384,-0.03874565660953522,-0.2750321626663208,0.0407722108066082,0.0727953314781189,0.17651785910129547,-0.14095735549926758,-0.104688361287117,-0.030532170087099075,-0.04117882251739502,-0.128886878490448,-0.02034102752804756,-0.02784443274140358,-0.1343887895345688,-0.01537075825035572,0.12708301842212677,0.1252463459968567,-0.05056726187467575,0.1778828650712967,0.06880276650190353,-0.12693430483341217,0.1578509658575058,-0.2547726631164551,-0.1052168533205986,0.07827964425086975,-0.19254706799983978,0.0031733999494463205,0.04391590505838394,-0.06797254830598831,-0.16676954925060272,-0.14474137127399445,-0.10841254144906998,0.1560695916414261,0.08541573584079742,0.10554422438144684,-0.16893064975738525,-0.12642799317836761,-0.07973682880401611,-0.10828918218612671,0.1726098358631134,0.11737483739852905,-0.05404975637793541,0.18049964308738708,0.03707299381494522,-0.13889750838279724,0.06527796387672424,0.003406585892662406,-0.22786717116832733,0.21387837827205658,0.08083935081958771,-0.07856909930706024,0.14736774563789368,0.09976641088724136,0.07258640974760056,0.0744602307677269,-0.10367456078529358,0.0451885424554348,-0.14988987147808075,0.16151180863380432,0.03260182961821556,0.0015696084592491388,-0.20793657004833221,0.019208792597055435,-0.02582620084285736,-0.019509583711624146,0.0933598205447197,0.004661557264626026,-0.004702563863247633,-0.016467111185193062,-0.21856935322284698,0.024905242025852203,-0.13302698731422424,-0.14408941566944122,-0.048067860305309296,-0.11649329960346222,-0.07698215544223785,-0.08043770492076874,-0.24758824706077576,-0.07534869015216827],[-0.12324054539203644,0.14257299900054932,-0.1619947999715805,-0.17202624678611755,-0.22496609389781952,0.1026376336812973,0.19911468029022217,0.1166282370686531,-0.3832586109638214,-0.1399061232805252,-0.07500163465738297,-0.0651772990822792,0.1094227135181427,-0.012374306097626686,0.11223944276571274,0.07192182540893555,0.10168786346912384,-0.02788245864212513,-0.03766771778464317,-0.03269254416227341,-0.1298520863056183,0.30670034885406494,-0.4498670995235443,0.06039546802639961,0.12665747106075287,-0.11807217448949814,-0.16055911779403687,0.26025745272636414,-0.4277746379375458,-0.18666988611221313,-0.07269717752933502,-0.04864811152219772,-0.14241670072078705,-0.00009988747478928417,0.025361590087413788,0.11270879954099655,-0.18863865733146667,-0.23718109726905823,0.07887743413448334,0.0036466168239712715,0.2229645699262619,0.11052106320858002,-0.08125601708889008,-0.04428733512759209,0.014502647332847118,-0.18936172127723694,-0.0639987364411354,-0.26252320408821106,-0.05076654627919197,0.03297687694430351,-0.03307456150650978,-0.14266419410705566,0.20849518477916718,-0.20749282836914062,-0.04947882518172264,-0.23280155658721924,-0.20472493767738342,0.1616862416267395,-0.006146193016320467,0.2245946228504181,0.11175361275672913,0.015484139323234558,-0.2910717725753784,0.1354323774576187,0.08975878357887268,0.24606743454933167,-0.0795058012008667,0.061864208430051804,0.04884113743901253,0.2692360579967499,-0.09026864916086197,0.13563036918640137,0.027246655896306038,-0.25674593448638916,0.0425150990486145,-0.15933749079704285,0.18521368503570557,-0.1387176364660263,-0.12254244089126587,0.14186373353004456,0.28149983286857605,-0.008260801434516907,0.13666999340057373,0.1711268573999405,0.2020178586244583,0.052840761840343475,-0.15189899504184723,0.14413951337337494,-0.05182645842432976,-0.14574824273586273,-0.3521464169025421,-0.2389305680990219,-0.004919934086501598,0.12692175805568695,0.07620565593242645,-0.06726200133562088,0.05207065865397453,-0.19436512887477875,0.012735631316900253,0.34603992104530334,-0.010593184269964695,-0.21652761101722717,-0.10138724744319916,-0.44409939646720886,0.1375335156917572,-0.11559661477804184,0.011878269724547863,-0.3028485178947449,-0.2656928598880768,-0.22520409524440765,-0.0844186320900917,-0.07517923414707184,0.12791860103607178,-0.06394316256046295,-0.1048036739230156,0.06544423848390579,-0.1731291115283966,0.0494278222322464,0.11941986531019211,-0.08612445741891861,-0.10037153959274292,-0.1661277711391449,-0.06811784952878952,-0.01571384258568287,-0.10293184220790863,-0.5132859945297241,-0.18150116503238678,0.3864625096321106],[0.1497066468000412,0.09464797377586365,-0.044244442135095596,-0.024334628134965897,0.06813985854387283,-0.04557490348815918,-0.052224673330783844,-0.19039641320705414,-0.03195132687687874,0.18610964715480804,0.08748475462198257,-0.09597493708133698,-0.16584275662899017,-0.013193376362323761,-0.08785854279994965,0.2564721703529358,0.05707575008273125,0.16614660620689392,0.18541336059570312,0.17198534309864044,0.1452571600675583,0.1583646535873413,-0.06826204806566238,-0.08364717662334442,0.1643679440021515,0.11272449791431427,0.18620498478412628,0.06090707704424858,0.21570409834384918,-0.031456463038921356,-0.17644952237606049,0.2135041207075119,-0.15574821829795837,-0.4038093686103821,0.016188044100999832,-0.266358345746994,-0.021596480160951614,-0.12338770180940628,-0.27163928747177124,0.0894496813416481,-0.05855969712138176,0.052556879818439484,-0.45156294107437134,0.15148521959781647,-0.17125177383422852,0.06224220618605614,0.06718339771032333,0.04154694452881813,0.016306951642036438,0.005618898663669825,0.2192748785018921,0.31093597412109375,0.025180069729685783,0.027506733313202858,0.07850382477045059,-0.07647430151700974,0.16345983743667603,0.23804433643817902,-0.10075780004262924,0.16011375188827515,-0.02570153772830963,-0.03786204010248184,0.06995115429162979,-0.13025276362895966,-0.1760825365781784,-0.010874267667531967,-0.23073945939540863,0.11641193926334381,-0.11892261356115341,-0.20553328096866608,0.13117553293704987,0.1367540955543518,-0.14337973296642303,0.0460253581404686,-0.08341291546821594,0.07274101674556732,0.3528946340084076,-0.04238942638039589,-0.15619909763336182,-0.1038968488574028,-0.1936311423778534,0.24297519028186798,-0.033495232462882996,0.13459502160549164,-0.04554156959056854,-0.2238229513168335,-0.14428624510765076,0.14950720965862274,0.001020336989313364,-0.04348354786634445,-0.05257792770862579,-0.06495200097560883,-0.21169337630271912,-0.3455345034599304,0.04747390002012253,0.08407523483037949,-0.1501869410276413,-0.017447086051106453,0.15682516992092133,0.18964050710201263,-0.05282243713736534,0.014398283325135708,0.030235987156629562,0.21137386560440063,0.06583163887262344,-0.07194820791482925,-0.16499146819114685,0.256156325340271,-0.14836207032203674,-0.04154117405414581,-0.0721236988902092,-0.2857065796852112,0.1610390841960907,0.14183293282985687,0.0473419651389122,-0.004943754989653826,-0.17234815657138824,0.05366817116737366,-0.1281006932258606,0.011159827001392841,-0.07580170780420303,-0.03866277262568474,-0.14952842891216278,-0.01117977499961853,-0.03868120536208153,0.002059226157143712,-0.22316274046897888,0.1502411663532257],[0.14012373983860016,-0.010956646874547005,0.11265142261981964,-0.11625327169895172,0.3323797881603241,-0.07439319789409637,0.06780728697776794,0.007493668235838413,-0.1702745258808136,0.0018265576800331473,-0.11853418499231339,0.11463190615177155,-0.01613565906882286,-0.07362611591815948,-0.1486613005399704,0.16202470660209656,-0.07086003571748734,0.061335280537605286,0.05656345561146736,0.04965813830494881,0.1816173940896988,0.02045787312090397,0.08229958266019821,0.14255495369434357,-0.08917573094367981,0.08568786084651947,0.16260263323783875,0.1505477875471115,0.052529413253068924,0.005987755488604307,-0.05881267413496971,0.0268996674567461,-0.1367810219526291,-0.016126492992043495,0.16234223544597626,-0.20695360004901886,0.02491462416946888,0.11882384121417999,-0.014054054394364357,0.018522387370467186,-0.20881755650043488,0.17925553023815155,0.09373854845762253,0.1638408750295639,0.05894981324672699,-0.06746416538953781,-0.019926749169826508,-0.01042513083666563,0.0120128458365798,0.07854355126619339,-0.1721166968345642,-0.05866556242108345,-0.04622127115726471,0.026501359418034554,-0.016908537596464157,-0.08137641847133636,0.15295560657978058,0.08994163572788239,0.08057288825511932,-0.24033845961093903,-0.0600477010011673,0.02778449095785618,-0.21619562804698944,-0.029313446953892708,0.1374436318874359,-0.18039946258068085,-0.17583544552326202,-0.017573339864611626,0.04995949566364288,-0.17969048023223877,-0.11247681826353073,-0.06724562495946884,-0.07000619918107986,0.20242705941200256,-0.0478326752781868,-0.004088842775672674,-0.02402549982070923,0.009947717189788818,0.09243544191122055,-0.02970435470342636,-0.08555901795625687,0.0753093734383583,-0.2633868157863617,-0.0778181329369545,-0.009009191766381264,-0.13498158752918243,-0.12051136791706085,0.04161308333277702,0.15622635185718536,0.040565695613622665,-0.12257234007120132,-0.22917023301124573,0.021206799894571304,-0.054757144302129745,-0.1136162206530571,0.08563153445720673,0.0019408330554142594,0.20388753712177277,0.145467147231102,-0.17151422798633575,0.04559798538684845,-0.016948673874139786,0.03846636414527893,0.011396661400794983,-0.12211237102746964,0.004329186864197254,-0.08255425095558167,0.20868411660194397,0.12455297261476517,-0.013566989451646805,-0.12745952606201172,-0.1416017860174179,0.09564889222383499,0.03069424256682396,-0.027338944375514984,-0.35220903158187866,-0.1585981249809265,-0.12689867615699768,-0.11033426225185394,-0.00006624897650908679,-0.025547755882143974,0.04679785296320915,-0.13565419614315033,0.09019958227872849,0.10420479625463486,-0.0557195208966732,-0.154305100440979,-0.14904232323169708],[-0.15702763199806213,-0.13789385557174683,-0.05813494324684143,0.0021727310959249735,-0.05472520366311073,-0.05034962296485901,0.05313715711236,0.06425688415765762,-0.3317619562149048,-0.26535919308662415,0.1416727751493454,-0.1982707977294922,0.03346360847353935,-0.15684863924980164,0.19064322113990784,-0.03279990702867508,-0.00442249933257699,0.01439257338643074,0.09494084119796753,0.0165744349360466,0.03573422506451607,0.13441088795661926,-0.11791093647480011,0.07924456894397736,0.020840773358941078,0.13989675045013428,-0.03875470906496048,0.14040066301822662,-0.26949211955070496,-0.10157749801874161,-0.06897199898958206,-0.2855563163757324,-0.04999462142586708,-0.10277394950389862,-0.10515081882476807,-0.07159954309463501,0.08591972291469574,-0.18364211916923523,-0.07305426150560379,0.1687120795249939,0.017382606863975525,0.137811541557312,-0.29721617698669434,0.059576574712991714,-0.17037300765514374,-0.11682296544313431,-0.0841074213385582,-0.17765429615974426,0.02204781211912632,-0.0035381445195525885,0.03156694397330284,-0.09656611829996109,-0.06494321674108505,-0.21556414663791656,0.3285577893257141,-0.022022360935807228,0.01724410057067871,0.07540933042764664,-0.1051601991057396,-0.15133750438690186,-0.10430893301963806,-0.0037337574176490307,-0.12880609929561615,0.04231748357415199,0.12495449185371399,0.04562392085790634,-0.24662920832633972,0.13478681445121765,-0.06658703833818436,0.28348487615585327,0.16794274747371674,0.12220870703458786,0.09748664498329163,-0.2369767725467682,-0.27091047167778015,-0.10511678457260132,0.1996660977602005,0.02946128137409687,0.04394987225532532,0.2073598951101303,0.2871391773223877,0.02371436171233654,0.2175319790840149,0.0939260870218277,-0.045828282833099365,0.05267248675227165,-0.2072019875049591,0.06717237085103989,-0.2437988519668579,-0.08786798268556595,-0.16583794355392456,-0.08485489338636398,-0.0707322210073471,-0.09505781531333923,0.04527174308896065,-0.08271748572587967,-0.16048869490623474,0.03343309089541435,0.10261135548353195,0.14262919127941132,0.04892277717590332,-0.08938063681125641,-0.06316225975751877,-0.25340718030929565,0.1308593899011612,-0.13996653258800507,-0.12482859194278717,-0.27483418583869934,-0.23330534994602203,0.14175519347190857,-0.13454166054725647,0.015544282272458076,-0.020986611023545265,-0.19868047535419464,-0.06398703157901764,-0.008816483430564404,-0.10138656198978424,0.11401357501745224,0.08497274667024612,-0.056491654366254807,-0.10561352223157883,-0.2388135939836502,0.1412329375743866,-0.14648841321468353,-0.16938456892967224,-0.21404466032981873,-0.17095834016799927,0.18717831373214722],[0.2785056233406067,0.09425483644008636,-0.23346014320850372,-0.012683420442044735,0.016197144985198975,-0.07555919140577316,-0.04882638528943062,-0.07566621899604797,0.01791965961456299,0.3345387876033783,-0.01057261973619461,0.014782430604100227,-0.2960782051086426,0.09719265252351761,-0.04748047888278961,0.1368287354707718,0.04906057193875313,0.13016635179519653,-0.1558724194765091,0.2302078902721405,0.10591575503349304,0.15954387187957764,-0.1753537803888321,-0.11513441056013107,0.2513630986213684,-0.15589554607868195,-0.24043282866477966,0.11085602641105652,-0.02601480856537819,-0.13857236504554749,0.11282481253147125,0.23896704614162445,-0.1973554939031601,-0.10002598911523819,-0.1498406082391739,-0.09516215324401855,0.0065843393094837666,-0.14350073039531708,-0.374830424785614,0.05994432419538498,-0.1939096450805664,-0.21048876643180847,-0.2602563202381134,0.09843532741069794,-0.08697687089443207,-0.2025606483221054,-0.031348880380392075,-0.19693492352962494,0.059320464730262756,-0.12140432000160217,0.4548253118991852,0.27143827080726624,0.2226025015115738,0.03728014603257179,0.03149961680173874,-0.008817748166620731,-0.15409667789936066,0.23014025390148163,-0.2055148333311081,0.19537599384784698,0.1856539249420166,-0.2283228486776352,0.19226619601249695,-0.23481017351150513,-0.07047762721776962,0.13938850164413452,0.047491688281297684,-0.2920011579990387,-0.24306337535381317,-0.1393011212348938,0.05232936143875122,0.3612108528614044,0.037795934826135635,-0.07877706736326218,-0.09991264343261719,0.15294887125492096,0.22301451861858368,-0.28927263617515564,-0.09913772344589233,-0.26940613985061646,-0.05217587575316429,0.1590946912765503,-0.23485462367534637,0.018354507163167,-0.12778127193450928,-0.2947041988372803,-0.17306993901729584,0.2724948525428772,-0.1990390568971634,-0.15953092277050018,0.0824420154094696,0.027404937893152237,0.007498538121581078,-0.22986732423305511,-0.0726979449391365,-0.06109392270445824,-0.06482601165771484,-0.11439342796802521,-0.1367015540599823,0.09441173076629639,-0.13233281672000885,-0.02877219393849373,0.005137044470757246,0.12531255185604095,-0.04548754543066025,0.03562508895993233,-0.3189358413219452,0.07555039972066879,-0.17261336743831635,-0.18120665848255157,-0.12440560013055801,-0.08192688226699829,0.04923715814948082,0.2611028254032135,-0.10463885217905045,0.10435651987791061,-0.08264710009098053,0.14823105931282043,-0.002914183773100376,0.029569990932941437,0.028128327801823616,-0.07531071454286575,-0.1679079234600067,-0.0706157386302948,0.1981326788663864,-0.1241120994091034,-0.32459574937820435,0.04843529313802719],[0.032636918127536774,0.04466385766863823,0.035169605165719986,0.1445329338312149,0.13218870759010315,0.3140609562397003,0.10125446319580078,0.03527752682566643,0.19753152132034302,-0.0007542112725786865,-0.2439562827348709,0.21369315683841705,-0.2718692123889923,0.047318313270807266,-0.2234765589237213,0.01653243787586689,0.1323278844356537,0.19391325116157532,-0.2633396089076996,-0.05584874376654625,0.22710934281349182,-0.05069901794195175,0.15437886118888855,0.08002019673585892,0.03941113129258156,0.11116711050271988,0.07735919952392578,0.038788750767707825,0.11250068247318268,0.13418221473693848,-0.22390979528427124,0.2296062558889389,-0.19375529885292053,0.10517029464244843,-0.0040895030833780766,-0.2770864963531494,-0.11837617307901382,-0.03496526554226875,0.06860829889774323,0.08617536723613739,-0.1493815928697586,-0.1289195567369461,0.15521177649497986,0.0027456050738692284,0.17218415439128876,0.1243160218000412,0.029373450204730034,0.060057274997234344,0.1914982795715332,0.09743193536996841,0.07209983468055725,0.04918904975056648,-0.16680748760700226,-0.042159225791692734,-0.07123204320669174,-0.17184920608997345,0.23024895787239075,0.13332924246788025,0.06210863217711449,-0.10888627916574478,-0.03910718485713005,-0.3621867001056671,0.0349661223590374,0.07082368433475494,-0.17070046067237854,-0.31068748235702515,-0.13386759161949158,0.0198011863976717,-0.15983712673187256,-0.1705101728439331,0.055892691016197205,0.06816225498914719,-0.1361938863992691,0.09489267319440842,0.10872042179107666,-0.35210490226745605,-0.29364150762557983,-0.0031599397771060467,0.0771956518292427,0.15565846860408783,-0.09358151257038116,-0.10632199048995972,0.001868245773948729,-0.03272053971886635,-0.17495787143707275,-0.09834124147891998,0.16753767430782318,-0.1646987348794937,-0.053146231919527054,0.16900457441806793,0.17196764051914215,-0.07339657098054886,-0.08563504368066788,0.21869605779647827,-0.27834808826446533,0.06490501016378403,0.12762679159641266,0.18860580027103424,0.1365921050310135,-0.26167017221450806,-0.21956703066825867,0.028857722878456116,-0.07766604423522949,-0.044257115572690964,-0.3054095208644867,-0.15191932022571564,0.22419525682926178,0.08078974485397339,-0.15626007318496704,-0.29400816559791565,-0.1834816336631775,-0.0943513885140419,-0.06330937147140503,-0.04208297282457352,0.09100661426782608,-0.328126460313797,0.047135043889284134,-0.1862596720457077,0.2008046954870224,-0.08657177537679672,-0.11435268819332123,0.15718495845794678,0.06766031682491302,0.2741592228412628,-0.07215941697359085,0.2882189452648163,0.03407202288508415,-0.04593072459101677],[-0.01129266805946827,0.05384065583348274,0.20188449323177338,0.12479910254478455,-0.1376735121011734,-0.06238206848502159,0.19896459579467773,-0.07989910989999771,-0.14388591051101685,-0.07525987923145294,-0.21309442818164825,-0.12367961555719376,-0.009635834954679012,-0.057808443903923035,0.18391399085521698,-0.18674862384796143,0.09303352981805801,0.11905358731746674,-0.0981101393699646,-0.13033460080623627,0.0207201074808836,-0.07753276824951172,-0.12722502648830414,0.16381020843982697,0.05908665060997009,0.01288186851888895,0.055389534682035446,0.14052054286003113,0.15546678006649017,-0.039316896349191666,0.026780756190419197,-0.025892334058880806,0.024229275062680244,-0.27544987201690674,0.024879688397049904,0.019846215844154358,0.0012207033578306437,-0.24676752090454102,0.20716814696788788,-0.01164285559207201,0.1393381506204605,0.2182360589504242,-0.20272953808307648,0.012542013078927994,-0.1910618543624878,0.08845436573028564,-0.05358099564909935,-0.0979580208659172,-0.003906771540641785,-0.12030037492513657,0.08882012963294983,-0.3192441761493683,-0.033562708646059036,0.009401027113199234,0.20579421520233154,-0.11244905740022659,-0.021377280354499817,-0.05295925214886665,-0.051509443670511246,-0.12732042372226715,0.008350749500095844,-0.0324956439435482,-0.23904339969158173,-0.061248183250427246,0.22775520384311676,0.09410978108644485,-0.05475786700844765,0.07505666464567184,0.10489870607852936,-0.02669726125895977,0.011110210791230202,-0.15284593403339386,0.06417839974164963,0.0674610584974289,-0.2947514057159424,-0.20253412425518036,0.12116658687591553,0.06354692578315735,0.010036569088697433,0.09060423076152802,0.02804958075284958,-0.05292395502328873,-0.027698446065187454,0.14999966323375702,-0.16609223186969757,-0.23772677779197693,0.035913679748773575,-0.2049182802438736,0.016236012801527977,-0.07592875510454178,0.0636964812874794,0.02358141727745533,-0.17737995088100433,0.1331513524055481,-0.1040586531162262,-0.21388831734657288,-0.27478381991386414,0.1379343867301941,0.19520342350006104,-0.03863698989152908,-0.1263715624809265,0.05888357758522034,0.051699332892894745,-0.22897547483444214,0.021750060841441154,-0.26627489924430847,0.09524518251419067,-0.1772650182247162,-0.1585032343864441,0.010835451073944569,0.017273424193263054,0.007142417132854462,-0.08478360623121262,-0.1049521267414093,0.00041402943315915763,-0.23906078934669495,-0.04696657136082649,-0.009804446250200272,-0.12799856066703796,-0.30109652876853943,-0.04061655327677727,-0.18810993432998657,0.044731851667165756,-0.01879982091486454,-0.07303956151008606,-0.08236203342676163,-0.2974335253238678,0.004138606134802103],[0.1547922044992447,0.01672571524977684,-0.09430427849292755,0.02589019201695919,-0.024448515847325325,-0.095943883061409,0.04085952416062355,-0.23877088725566864,-0.06679744273424149,0.1465909481048584,0.17533300817012787,-0.24030843377113342,-0.199705109000206,0.11541715264320374,-0.07581775635480881,0.17001311480998993,0.1906891167163849,0.050625693053007126,-0.1821659803390503,0.4050171971321106,-0.08784510940313339,0.08035238832235336,-0.15321074426174164,-0.024683132767677307,-0.028942551463842392,-0.18361598253250122,0.03907807171344757,-0.20151358842849731,-0.04801873862743378,-0.3170979619026184,0.09122413396835327,0.2600199580192566,-0.18843860924243927,-0.02233518287539482,-0.1756579875946045,0.04271538555622101,0.0009010431822389364,0.08869768679141998,-0.2935250997543335,-0.2741273045539856,-0.25463244318962097,-0.2054898589849472,-0.16005650162696838,-0.09825234115123749,-0.3288434147834778,-0.2517053186893463,0.2216743379831314,-0.12021646648645401,0.016654495149850845,0.15437470376491547,0.6167333722114563,0.21880224347114563,0.06907502561807632,-0.0651765763759613,-0.1951489895582199,-0.07618021965026855,-0.23101027309894562,0.07016697525978088,-0.05340683087706566,0.02836700528860092,-0.06085948273539543,-0.2029362916946411,0.18798798322677612,-0.10386399179697037,-0.05676572024822235,0.05730622261762619,0.10379613190889359,-0.3046799302101135,-0.08848632872104645,0.03501368314027786,0.11360065639019012,0.26206642389297485,-0.17666463553905487,-0.06211527809500694,-0.10231111198663712,0.22252200543880463,0.1901133507490158,-0.47894287109375,-0.2420424520969391,-0.14565052092075348,0.03565320745110512,-0.10091138631105423,-0.1979965716600418,0.06216150522232056,-0.09841443598270416,0.015294641256332397,0.0760560929775238,0.3690657317638397,-0.32508155703544617,-0.259732186794281,0.08651784807443619,0.11459571868181229,0.07256541401147842,-0.018597101792693138,0.17889073491096497,0.15481454133987427,-0.1082296222448349,-0.14708590507507324,-0.11467786878347397,0.11828601360321045,0.0475025549530983,-0.06234767287969589,-0.0510384775698185,0.18662098050117493,-0.18364541232585907,-0.28720715641975403,-0.14210523664951324,0.07730481773614883,-0.3783271908760071,-0.08084902167320251,-0.0314992293715477,-0.2317713350057602,-0.044205449521541595,0.2745962142944336,-0.0390889011323452,0.08974236249923706,-0.11239895969629288,0.24897412955760956,-0.0924416035413742,-0.008554121479392052,-0.3476335108280182,-0.20542097091674805,-0.07930635660886765,0.0757247805595398,0.15068142116069794,0.07853208482265472,-0.17265519499778748,-0.012646347284317017],[-0.11663668602705002,0.11920987069606781,-0.09030415117740631,-0.08062076568603516,0.16772133111953735,0.11242431402206421,-0.04597877338528633,0.23732765018939972,0.01019019354134798,0.30465587973594666,-0.3843587636947632,0.2516101002693176,-0.33090031147003174,0.14111608266830444,-0.17910832166671753,-0.14260289072990417,0.08073844760656357,0.17323806881904602,-0.3265783190727234,-0.17870305478572845,0.25980344414711,-0.030223356559872627,-0.01710321567952633,-0.06522206217050552,0.13003212213516235,-0.1872960925102234,0.05488414689898491,-0.06508243829011917,-0.07011605054140091,-0.037959638983011246,-0.04264054447412491,0.14745159447193146,-0.20235078036785126,0.22550451755523682,0.10146239399909973,-0.21395012736320496,-0.025543078780174255,0.12894049286842346,0.234812393784523,0.2968880832195282,-0.0629100501537323,-0.13631299138069153,0.008757016621530056,0.04779575392603874,-0.1263960599899292,0.34487032890319824,0.08161672949790955,-0.00153214146848768,0.19190478324890137,-0.01723753847181797,-0.19072024524211884,0.32855936884880066,-0.22591088712215424,-0.25196903944015503,-0.18583731353282928,-0.11287276446819305,-0.0815737172961235,-0.07128395140171051,0.11562515050172806,0.012311688624322414,0.16674673557281494,-0.27252233028411865,0.12831054627895355,0.023928029462695122,-0.3420906066894531,-0.1339651644229889,-0.13493512570858002,-0.188973531126976,-0.14253459870815277,-0.2021990418434143,0.14885970950126648,-0.054486874490976334,-0.09887604415416718,0.06861449778079987,0.12583936750888824,-0.4149347245693207,-0.09009319543838501,0.056069403886795044,-0.18835307657718658,0.13893020153045654,-0.2866573929786682,-0.22892925143241882,-0.2637178301811218,-0.09682861715555191,0.1513916254043579,-0.0638522133231163,0.018908286467194557,-0.06006127595901489,0.04207834601402283,-0.09315036237239838,0.14107970893383026,-0.009544924832880497,-0.20578992366790771,0.4476242959499359,-0.2870740592479706,0.19056496024131775,0.3329891562461853,0.06902088969945908,0.033311646431684494,-0.3828525245189667,-0.12671981751918793,0.14150412380695343,0.03921622410416603,0.10785127431154251,-0.09899666160345078,-0.10338079184293747,0.09399528801441193,0.07869338244199753,-0.09687922149896622,-0.21564416587352753,-0.08164665102958679,0.07190760970115662,-0.051111117005348206,-0.03131595626473427,0.19386206567287445,0.06200520694255829,-0.033288244158029556,-0.14022138714790344,0.3345171809196472,-0.05308748036623001,-0.15362481772899628,0.08387110382318497,-0.0776858851313591,0.30875927209854126,0.10136757045984268,0.13490132987499237,-0.08236795663833618,0.11784061789512634],