{"model_type":"mlp","input_size":63,"labels":["A","B","C","D","E","F","G","H","I","K","L","N","O","P","Q","S","T","U","V","W","X","Y"],"layers":[{"name":"dense_Dense1","input_size":63,"output_size":128,"activation":"relu","weights":[[0.01622040756046772,0.11810703575611115,-0.12091637402772903,0.08669935911893845,0.11002141237258911,0.011028154753148556,-0.08131259679794312,-0.023397082462906837,0.08773587644100189,-0.04762168228626251,-0.10515470802783966,-0.11776269972324371,-0.06370574980974197,0.11859235167503357,0.13355009257793427,-0.054002560675144196,0.035163238644599915,-0.046490490436553955,0.03123238869011402,0.030360987409949303,0.062028322368860245,0.11052399128675461,-0.030075348913669586,0.0036522820591926575,-0.034314047545194626,0.013859305530786514,-0.020021267235279083,-0.12044030427932739,-0.0028967673424631357,-0.07409937679767609,0.00008376329060411081,0.07378429174423218,0.08626963943243027,-0.02080230787396431,0.1638796329498291,0.06927116215229034,0.03696049004793167,0.018835367634892464,0.018992044031620026,0.1443396806716919,0.11100679636001587,0.10845023393630981,-0.04479395970702171,-0.18392500281333923,0.11091116815805435,-0.08801785856485367,0.11197521537542343,0.16559873521327972,-0.03687107190489769,0.1022975891828537,-0.10001645982265472,-0.07079983502626419,-0.13470308482646942,-0.0005642407340928912,-0.07911915332078934,0.09239592403173447,-0.024572893977165222,0.05527326464653015,-0.03978510573506355,0.03730008006095886,0.08856265991926193,0.0709790363907814,-0.0662161186337471,0.01611459255218506,-0.058236125856637955,-0.017515776678919792,-0.10286016762256622,0.09742388129234314,0.045242730528116226,0.035908471792936325,0.08426480740308762,-0.016151929274201393,0.02938118949532509,0.12616346776485443,-0.009202854707837105,-0.01529892161488533,0.038728028535842896,0.12348785251379013,0.0872369110584259,0.09217030555009842,0.09824761003255844,0.04021424800157547,0.021068526431918144,0.10610662400722504,0.00440203445032239,0.16977857053279877,0.0024154724087566137,-0.05480009689927101,0.00625402107834816,-0.018780840560793877,0.1296011507511139,-0.060929201543331146,-0.07877584546804428,-0.011948741041123867,-0.06689541786909103,-0.030232161283493042,0.08387795835733414,0.07210932672023773,-0.11963095515966415,-0.1433645486831665,-0.025176195427775383,-0.1938091367483139,-0.06567493826150894,-0.07346642017364502,0.15435445308685303,0.019803255796432495,0.10586188733577728,0.06639228761196136,-0.12011095136404037,-0.17063112556934357,0.00478390883654356,0.06305631250143051,-0.09984417259693146,-0.14411671459674835,-0.04560915753245354,-0.03359295055270195,-0.002173054963350296,-0.08207009732723236,-0.055398862808942795,0.012637561187148094,0.10430572181940079,-0.004013909492641687,0.1497860550880432,-0.0591239370405674,-0.032206837087869644,-0.13562361896038055,0.15478938817977905,0.05797615647315979],[0.14884032309055328,-0.05942517891526222,-0.01281852088868618,-0.014365040697157383,-0.02740347385406494,-0.09571293741464615,0.016777781769633293,-0.10500320792198181,0.06516758352518082,-0.01425816211849451,0.06749729067087173,-0.10132631659507751,0.020828863605856895,0.02825816720724106,-0.18078795075416565,0.0971449464559555,0.04983631893992424,0.07740387320518494,-0.002980921883136034,0.048935484141111374,0.08606556057929993,0.016900012269616127,0.017531193792819977,0.10630826652050018,-0.02977161668241024,0.009391658939421177,-0.04535343497991562,0.032766204327344894,-0.10855989903211594,-0.03790350258350372,-0.04029550403356552,0.11360549181699753,-0.059114787727594376,0.13078975677490234,0.06117919459939003,0.0449693389236927,-0.14528128504753113,-0.004518395755439997,0.05689495429396629,-0.12412309646606445,-0.16830608248710632,-0.19282516837120056,0.02821672149002552,-0.09968967735767365,0.06449219584465027,-0.08289089053869247,0.08805523067712784,-0.03426959738135338,0.1570698767900467,0.135138601064682,0.00809035636484623,-0.15731574594974518,0.06088981777429581,-0.044023193418979645,0.06335680931806564,-0.02420235238969326,0.15620450675487518,-0.0209965817630291,0.0044260211288928986,0.0009261288796551526,0.022264068946242332,-0.031746622174978256,-0.07401576638221741,0.05599885433912277,-0.05157940834760666,0.09288859367370605,0.12652826309204102,0.19080102443695068,0.11767969280481339,-0.08367744833230972,0.0394599623978138,0.03579721972346306,0.09025592356920242,0.039118751883506775,0.029930494725704193,0.07195525616407394,-0.17838865518569946,0.03043094463646412,-0.08268944174051285,-0.06571536511182785,0.08969911187887192,0.13334298133850098,0.10758769512176514,0.06177624687552452,0.15026748180389404,-0.05269458889961243,0.022924033924937248,-0.04544754698872566,-0.1538047343492508,-0.10512012243270874,-0.03514280915260315,-0.1640184074640274,0.03679782524704933,-0.09213843196630478,-0.10798339545726776,-0.017611054703593254,0.007762341294437647,-0.11450319737195969,-0.018621614202857018,0.10816461592912674,-0.026559876278042793,-0.07361690700054169,-0.11790022253990173,-0.10725536197423935,-0.13865500688552856,0.10349289327859879,0.06638628244400024,-0.09417499601840973,0.13576218485832214,-0.052568383514881134,-0.10969381779432297,-0.06381525099277496,-0.05339772626757622,0.10244373232126236,-0.0639423355460167,0.08935685455799103,-0.1419278383255005,-0.009027060121297836,0.04325415939092636,0.1294701248407364,-0.16677169501781464,0.02370203286409378,-0.03085929900407791,0.07293803244829178,-0.04100578650832176,0.00576530396938324,-0.14022672176361084,-0.1031150221824646],[-0.06386836618185043,-0.05948905274271965,-0.02777187153697014,-0.0026430340949445963,-0.09278719872236252,-0.06480132043361664,-0.051524609327316284,0.17036627233028412,-0.011510503478348255,0.16116291284561157,-0.0576690249145031,-0.13903920352458954,-0.07140921801328659,0.022699955850839615,-0.016674039885401726,-0.08074072748422623,0.009719263762235641,-0.05697600916028023,0.16962790489196777,0.12042374163866043,-0.049084752798080444,0.012004031799733639,-0.016959698870778084,0.013060209341347218,0.12009372562170029,-0.08752772957086563,0.079527348279953,-0.036177340894937515,0.021965309977531433,0.03647618368268013,-0.09588956832885742,0.13645407557487488,-0.18531222641468048,-0.11259102821350098,0.014606860466301441,-0.05706159770488739,-0.05326397716999054,-0.018401043489575386,-0.010627122595906258,-0.07669389247894287,-0.04590495675802231,0.0009300728561356664,-0.008132563903927803,-0.0739937424659729,-0.11039519309997559,-0.12715087831020355,0.1499231457710266,0.01652626320719719,0.0949019193649292,0.11362595111131668,-0.0076191541738808155,0.027616197243332863,0.12206360697746277,-0.0041665793396532536,0.015464830212295055,-0.08398019522428513,0.11275148391723633,-0.09205689281225204,-0.040521878749132156,0.10132391005754471,0.0802706703543663,0.017163505777716637,0.08620639890432358,-0.17054060101509094,0.10638973116874695,0.09904219210147858,0.1775972694158554,0.12621253728866577,-0.10526589304208755,0.11547895520925522,0.13504226505756378,-0.03687043860554695,-0.10247813910245895,0.12994733452796936,-0.03978801518678665,-0.13380293548107147,-0.18138420581817627,0.03827853128314018,0.10413973033428192,-0.022940397262573242,0.06729978322982788,-0.00576058030128479,-0.04041587933897972,0.03750796616077423,-0.12621702253818512,-0.04039730504155159,0.15962789952754974,-0.1596945971250534,-0.003534710267558694,0.012718763202428818,0.18831874430179596,-0.18202747404575348,-0.03365805372595787,-0.09249888360500336,0.061137743294239044,0.11250948160886765,0.1463107317686081,0.014025806449353695,-0.09284316748380661,0.05649211257696152,-0.10004609823226929,0.007628681603819132,0.006296107545495033,0.07304016500711441,0.03820633143186569,0.12251807749271393,0.024141773581504822,0.03219541162252426,0.06659182161092758,0.0946233943104744,0.06772202253341675,-0.07141414284706116,-0.13920019567012787,-0.006840982940047979,0.012794353999197483,0.10336356610059738,-0.15435315668582916,0.060635462403297424,0.0291091650724411,-0.06835684180259705,0.0822819247841835,0.07353371381759644,-0.06754614412784576,0.14265631139278412,-0.010924496687948704,0.0057707964442670345,-0.17510773241519928,0.19642366468906403],[0.1407357007265091,0.09613079577684402,0.3220576345920563,-0.1930268406867981,-0.1543981283903122,0.08806375414133072,0.06716296821832657,0.216253399848938,-0.17300710082054138,0.057225409895181656,0.12511248886585236,-0.33261826634407043,-0.018235329538583755,-0.22430425882339478,-0.0131616136059165,-0.022668106481432915,0.10921372473239899,0.08505076169967651,0.17643998563289642,-0.09936525672674179,0.15501008927822113,-0.17683632671833038,-0.026631493121385574,-0.0017455036286264658,-0.1071675643324852,-0.23360100388526917,-0.022079354152083397,-0.08759873360395432,0.11984182149171829,0.16800576448440552,0.11920715123414993,-0.23872338235378265,0.1885504573583603,-0.19641055166721344,0.15963567793369293,0.2435072660446167,-0.13049067556858063,-0.16649635136127472,-0.19351515173912048,-0.09125415980815887,0.05514249578118324,0.2093411684036255,0.031453609466552734,-0.06005098670721054,-0.0047655655071139336,-0.11801368743181229,-0.14317108690738678,-0.026827583089470863,0.031141534447669983,0.21423640847206116,-0.09171055257320404,-0.10562470555305481,-0.0027202374767512083,0.061470817774534225,0.13984131813049316,0.041733819991350174,0.10008275508880615,0.16727633774280548,-0.11058774590492249,-0.1915500909090042,0.012420316226780415,0.01273504737764597,-0.19051572680473328,-0.10256972908973694,-0.16398534178733826,-0.1218564584851265,-0.28210970759391785,0.09226185083389282,0.06724011152982712,-0.02075466886162758,0.2620116174221039,-0.044956985861063004,0.10105878114700317,-0.11931102722883224,0.09396011382341385,-0.08539038151502609,-0.05394448712468147,0.09847568720579147,-0.006738698109984398,-0.01851145550608635,-0.4350338280200958,-0.06635049730539322,0.028156626969575882,-0.1445792019367218,-0.07430150359869003,0.13460256159305573,-0.21540695428848267,0.08187711238861084,0.13340485095977783,0.02303730510175228,-0.2986782193183899,0.16850218176841736,0.017532948404550552,-0.032967060804367065,-0.1346374899148941,0.2146233171224594,0.2652624249458313,0.09841403365135193,-0.4117347300052643,0.029668161645531654,0.02393423207104206,-0.08980388194322586,-0.1347624510526657,0.004403300117701292,-0.270805686712265,-0.03935161232948303,-0.09774326533079147,-0.09304606169462204,-0.07010480761528015,-0.33951428532600403,-0.36992689967155457,-0.0034105891827493906,-0.13028626143932343,0.020540859550237656,-0.09186830371618271,0.1698043793439865,0.01571948640048504,-0.3150804340839386,-0.1515338122844696,-0.3562842607498169,-0.2263527363538742,-0.01137084886431694,-0.1532125473022461,0.1561731994152069,-0.1062738448381424,0.06830758601427078,-0.06640343368053436,0.00011192756937816739],[-0.1468384563922882,0.03231359273195267,0.20160050690174103,-0.33306819200515747,-0.01729857549071312,0.13189439475536346,-0.17852379381656647,-0.025233767926692963,0.06990975141525269,-0.11126845329999924,0.09784351289272308,0.12977220118045807,-0.060271359980106354,-0.0815606415271759,0.12061658501625061,-0.3569091856479645,0.03494471311569214,-0.35050228238105774,0.07333087176084518,-0.14688432216644287,0.15058213472366333,-0.2545570731163025,-0.08589709550142288,-0.11438317596912384,-0.17102733254432678,-0.3020017743110657,-0.04994669556617737,0.025258827954530716,0.08763648569583893,0.14692962169647217,0.24492865800857544,0.12654434144496918,0.09861073642969131,0.016141271218657494,0.08903803676366806,0.19622117280960083,0.0901435911655426,-0.13933660089969635,-0.022989818826317787,-0.03861934691667557,0.22171208262443542,0.05662285163998604,0.21618160605430603,0.13093437254428864,0.21348586678504944,-0.020535683259367943,0.21187081933021545,0.06826505064964294,-0.00769002316519618,-0.24256710708141327,0.06270567327737808,-0.0314485989511013,-0.034421395510435104,-0.022765707224607468,0.09426405280828476,-0.11942239105701447,0.30905014276504517,0.04481177404522896,0.11765690892934799,-0.3203044533729553,0.011209329590201378,-0.03835368901491165,-0.0011164036113768816,0.11952300369739532,-0.3477650582790375,0.04853961244225502,-0.13806980848312378,0.017554080113768578,-0.05460793524980545,0.04984564334154129,0.0692177340388298,0.0661228746175766,0.21521645784378052,0.11037987470626831,0.13692697882652283,-0.1983763724565506,0.01794072985649109,-0.17519508302211761,0.0008129405905492604,-0.026601726189255714,-0.22753901779651642,-0.020846525207161903,0.020519420504570007,-0.08937890827655792,0.012188144959509373,0.08348136395215988,-0.49119240045547485,-0.03923336789011955,0.030330121517181396,0.22438938915729523,0.017221098765730858,0.19508862495422363,0.04200565442442894,0.007771863602101803,-0.22069285809993744,0.11113420128822327,-0.1561158448457718,-0.1057991087436676,-0.07115444540977478,0.0911978930234909,-0.011319699697196484,0.013746962882578373,-0.07886200398206711,0.11033795773983002,0.06699297577142715,-0.04679471626877785,0.1927032172679901,0.015632208436727524,-0.0172750111669302,-0.1271844357252121,-0.2632002830505371,0.11127205938100815,-0.12456446886062622,0.12815576791763306,-0.1468883454799652,0.1677340418100357,0.05741753429174423,-0.09504249691963196,-0.15061646699905396,-0.16262662410736084,-0.01962624117732048,-0.06016900762915611,0.031207166612148285,0.16999752819538116,0.1269553154706955,-0.06678488850593567,-0.04427819326519966,-0.11267346143722534],[-0.008316799066960812,-0.11067233979701996,0.16593214869499207,-0.2571370601654053,-0.10384617000818253,-0.24395625293254852,0.05797768011689186,-0.11839079111814499,-0.004801626782864332,-0.3193756639957428,0.016687974333763123,-0.027896594256162643,0.2829624116420746,-0.2539925277233124,-0.019291263073682785,-0.15147611498832703,-0.2102849930524826,0.08178073167800903,0.19567681849002838,-0.06150767207145691,-0.13024047017097473,-0.2653442919254303,0.1357341855764389,0.2504119873046875,0.14772364497184753,-0.011312324553728104,0.0670410692691803,0.15690164268016815,-0.01858626678586006,0.17774510383605957,0.5529332160949707,0.2542881369590759,0.15309929847717285,0.04520649462938309,0.029667701572179794,0.06716818362474442,-0.07734254002571106,0.003000809345394373,-0.1472916156053543,0.0945509746670723,0.20452053844928741,0.11185024678707123,0.07590189576148987,-0.019501112401485443,-0.2818438410758972,-0.20351766049861908,-0.13667690753936768,0.05756453797221184,-0.3379433751106262,-0.2794092893600464,0.0163732897490263,-0.3293532729148865,0.10548664629459381,-0.1455942839384079,0.16581669449806213,0.23385879397392273,0.2188401073217392,0.029249021783471107,-0.12858346104621887,0.07864625751972198,-0.039206914603710175,-0.17762966454029083,0.17576812207698822,-0.00005985709140077233,-0.083480603992939,0.2596338987350464,-0.0978851243853569,0.03772422671318054,0.11342475563287735,0.031678877770900726,-0.032243579626083374,-0.05975862592458725,-0.04034113511443138,0.08516505360603333,-0.13630522787570953,-0.06410238891839981,0.07643835991621017,0.10997278988361359,0.14091281592845917,-0.1624913513660431,-0.048488084226846695,-0.2851734459400177,-0.19991356134414673,-0.06405322253704071,-0.012814877554774284,-0.551304280757904,-0.1474037617444992,0.013334319926798344,-0.16488312184810638,-0.03261558711528778,-0.07723509520292282,0.10083998739719391,0.02070605754852295,-0.055660951882600784,-0.12879525125026703,0.19658078253269196,-0.2600754201412201,0.028493715450167656,0.020073603838682175,0.20720092952251434,-0.09928831458091736,-0.24551180005073547,-0.048916351050138474,0.06193845346570015,-0.34897515177726746,-0.008391370065510273,-0.057416193187236786,0.050511546432971954,0.08894871175289154,-0.03648664429783821,-0.08518563210964203,-0.1293225735425949,0.024673165753483772,0.0026483838446438313,0.184104323387146,0.4108552932739258,0.09530779719352722,0.1222965270280838,-0.26313382387161255,-0.1823580116033554,-0.04689094424247742,-0.008826215751469135,-0.15672627091407776,0.07082871347665787,0.4731225371360779,0.03564535826444626,-0.16300252079963684,-0.39877915382385254],[0.0442349836230278,-0.02316489815711975,0.16045600175857544,-0.08071639388799667,-0.013940555043518543,0.1827932596206665,0.1987897902727127,0.24630850553512573,-0.14466893672943115,0.02194133959710598,0.10319621860980988,-0.0917530432343483,0.033562127500772476,-0.17806650698184967,0.007591207046061754,-0.026114145293831825,0.3141520917415619,0.1126503124833107,0.05477658286690712,-0.23871302604675293,0.07062434405088425,-0.02132907323539257,-0.13042502105236053,-0.14472700655460358,-0.08683676272630692,-0.05584434047341347,0.13582079112529755,-0.08207576721906662,-0.0906493067741394,0.3430241048336029,0.06209726259112358,-0.11260287463665009,0.07175103574991226,0.011062106117606163,0.333752304315567,0.2638220191001892,-0.17958517372608185,-0.0420830175280571,-0.11850764602422714,-0.13790753483772278,0.009271092712879181,-0.1363474428653717,0.13156771659851074,0.032318923622369766,-0.2269613891839981,-0.008347922004759312,0.21002204716205597,-0.15665973722934723,-0.024525269865989685,0.13640086352825165,-0.04955491051077843,-0.2257450371980667,0.025611571967601776,0.057719405740499496,0.14783881604671478,0.2693815529346466,0.028044842183589935,-0.038402821868658066,-0.027074646204710007,-0.009356969967484474,0.1700935810804367,0.06718345731496811,-0.15660499036312103,-0.1370151787996292,-0.2745321989059448,-0.1097579225897789,-0.09112374484539032,-0.17289523780345917,0.21654823422431946,0.09926827996969223,0.2673960030078888,0.14101862907409668,0.005940081551671028,0.026297573000192642,0.07381167262792587,-0.04648509994149208,-0.23207871615886688,0.04569508880376816,0.32022738456726074,-0.32261988520622253,-0.10755498707294464,-0.13412193953990936,0.04333445057272911,0.01233605109155178,-0.001854196423664689,0.26743564009666443,-0.29311707615852356,-0.16906946897506714,-0.04296284168958664,-0.18894192576408386,-0.1911012828350067,-0.1085054948925972,0.09579592198133469,0.12265441566705704,-0.059150904417037964,0.07023390382528305,0.3612895607948303,0.21193894743919373,-0.231169193983078,0.033543817698955536,-0.3344173729419708,-0.09418411552906036,-0.20432347059249878,0.04357125982642174,-0.005864610429853201,-0.10616688430309296,-0.08511745929718018,0.00792007613927126,-0.10546153038740158,-0.08032319694757462,-0.17801697552204132,0.1356167495250702,0.14621354639530182,0.040665026754140854,0.08674515783786774,0.1828378140926361,-0.0017273741541430354,0.03174199163913727,-0.002076920587569475,-0.44022536277770996,-0.17778033018112183,-0.12844762206077576,-0.23667685687541962,0.09371475130319595,-0.18134446442127228,-0.002706879284232855,0.036518968641757965,-0.291890025138855],[0.02996194176375866,-0.022022264078259468,0.25313225388526917,-0.3650636374950409,0.09574583172798157,-0.06931117922067642,-0.02634284272789955,0.11157439649105072,0.14626243710517883,0.053656820207834244,0.12429177761077881,0.08536598831415176,0.21163663268089294,-0.33918651938438416,0.00793289951980114,-0.23000787198543549,-0.12914159893989563,-0.006219477858394384,0.07309605181217194,-0.11037823557853699,-0.01681615225970745,-0.21910901367664337,-0.11587081849575043,-0.17955200374126434,-0.04548884183168411,-0.07316193729639053,0.0421830378472805,-0.006368221249431372,-0.03380277007818222,-0.056333258748054504,0.1638854742050171,0.07614783197641373,0.24930241703987122,-0.14765028655529022,-0.049465008080005646,0.10151766985654831,0.05874387547373772,-0.14460206031799316,-0.07701610773801804,0.14934119582176208,0.2848701775074005,0.02038164995610714,-0.11393538862466812,0.06729854643344879,0.2551497220993042,-0.282444566488266,0.027170922607183456,-0.15099412202835083,-0.08807972073554993,-0.11259247362613678,0.21189701557159424,0.035453733056783676,-0.16354426741600037,-0.022248100489377975,0.22872839868068695,-0.06425566226243973,0.1859452724456787,0.12448499351739883,-0.06379027664661407,0.02562110684812069,-0.050599660724401474,-0.02499712072312832,-0.29664579033851624,0.03746851906180382,-0.22169330716133118,0.21743766963481903,-0.11425131559371948,-0.04454362392425537,-0.14575691521167755,0.06659802049398422,-0.17734409868717194,0.24687297642230988,0.003421615343540907,-0.09445662796497345,-0.03588913753628731,-0.1731831580400467,0.17874431610107422,-0.33026665449142456,-0.1372939646244049,-0.15198196470737457,-0.1308283805847168,-0.018375232815742493,-0.21083557605743408,0.04949042573571205,0.0554446242749691,0.009916432201862335,-0.25632908940315247,0.06691639125347137,-0.16810782253742218,0.07680785655975342,0.23695681989192963,0.3347667455673218,-0.13374294340610504,0.04620784521102905,-0.1534082144498825,0.18398083746433258,0.021317744627594948,0.17846360802650452,-0.25265806913375854,0.05580519512295723,-0.004313183948397636,0.1443454623222351,0.09372515976428986,-0.061343662440776825,-0.10890016704797745,-0.12707221508026123,-0.11217252165079117,0.02635389007627964,-0.1949256956577301,-0.15889370441436768,-0.027326827868819237,0.13647015392780304,0.20071916282176971,0.022257333621382713,-0.003951776772737503,0.19751125574111938,-0.12409266829490662,-0.11453159898519516,-0.23611725866794586,-0.07805284112691879,-0.16272112727165222,0.0058818357065320015,-0.04485027864575386,0.0022319394629448652,0.0256279855966568,-0.09175809472799301,0.19103588163852692,-0.04337797313928604],[0.1400899589061737,-0.2467467337846756,0.1766878366470337,0.05702250823378563,0.05913751944899559,-0.33058205246925354,0.0934763103723526,0.14350928366184235,0.011919069103896618,0.0330437496304512,-0.040081869810819626,0.03311329334974289,0.06899892538785934,-0.2583257555961609,0.01783282496035099,-0.015137691982090473,-0.21953976154327393,0.08142296969890594,0.2723591923713684,-0.07505642622709274,-0.16237232089042664,-0.29944857954978943,-0.03159267455339432,0.21254585683345795,-0.01410149596631527,-0.052435070276260376,-0.07686729729175568,-0.059345975518226624,0.09700793772935867,-0.08950089663267136,0.29777589440345764,0.1586478352546692,0.3535914421081543,0.13467955589294434,-0.02775697410106659,0.2679283916950226,-0.11038226634263992,-0.0851142406463623,-0.20426619052886963,0.14872102439403534,0.11636290699243546,0.05753248557448387,-0.15344052016735077,0.03402043133974075,-0.28782662749290466,-0.16016262769699097,-0.12620185315608978,0.011433561332523823,-0.07937532663345337,-0.20315837860107422,0.19774892926216125,-0.18773354589939117,-0.05254041403532028,-0.10566931217908859,0.12285549938678741,0.05923667922616005,0.1346171498298645,-0.036998242139816284,-0.0014430212322622538,0.15729708969593048,-0.043480586260557175,-0.08048263192176819,0.040046993643045425,-0.008387700654566288,-0.23828384280204773,0.1292661428451538,-0.2071930170059204,-0.031404346227645874,0.07972690463066101,0.07304656505584717,-0.11372154951095581,-0.019253024831414223,-0.20276586711406708,0.020251382142305374,-0.11341564357280731,-0.033571287989616394,0.1100182756781578,-0.026461100205779076,0.07349137216806412,-0.166232168674469,-0.1757809966802597,-0.10661748796701431,-0.14175532758235931,0.023855267092585564,0.09560204297304153,-0.38721486926078796,-0.09206385910511017,0.019982626661658287,-0.05566228926181793,-0.19459670782089233,-0.048593077808618546,0.25472792983055115,-0.2414376139640808,0.09791292995214462,-0.19848936796188354,0.2133510261774063,-0.17814049124717712,0.2304234802722931,-0.008128765039145947,0.17127563059329987,-0.09374746680259705,-0.16622082889080048,-0.04719113931059837,-0.021477313712239265,-0.2092004418373108,0.0334879532456398,0.014368362724781036,0.04981180652976036,0.08494234830141068,-0.2620611786842346,-0.09069225937128067,-0.06176231428980827,-0.08483100682497025,0.02690308727324009,0.031406693160533905,0.1558133214712143,-0.07667812705039978,-0.08089268952608109,-0.019136808812618256,-0.13942307233810425,-0.21967168152332306,0.17036712169647217,-0.2069208025932312,0.036981310695409775,0.44541266560554504,0.10997849702835083,-0.021944578737020493,-0.43233299255371094],[-0.3374829888343811,-0.01426731701940298,0.3530866801738739,0.2964758574962616,0.09506198018789291,0.5163354277610779,0.09826811403036118,-0.0014725752407684922,-0.20175817608833313,0.2680773138999939,-0.08180130273103714,-0.07069888710975647,-0.2570885419845581,0.05801595747470856,0.041096657514572144,0.10965927690267563,0.27494457364082336,-0.18347468972206116,0.04801146686077118,-0.01976523920893669,0.06197340786457062,-0.15924036502838135,0.013589653186500072,-0.27612727880477905,-0.3531053066253662,-0.3726014196872711,-0.28717219829559326,-0.08592814952135086,-0.030805692076683044,0.14092379808425903,-0.04666398465633392,-0.23595479130744934,-0.030709344893693924,-0.20671334862709045,0.3021654486656189,0.10491790622472763,-0.14738516509532928,-0.3519292175769806,-0.06765926629304886,-0.41882869601249695,-0.3177410960197449,-0.0764908641576767,0.3877706527709961,0.13633319735527039,-0.3055117428302765,0.11145429313182831,0.24791835248470306,0.029632126912474632,0.21305108070373535,0.3698475658893585,-0.2308541089296341,-0.49342527985572815,0.03268628567457199,-0.018788982182741165,0.09573744237422943,0.36627206206321716,0.10915839672088623,0.2462182641029358,0.05082879215478897,0.03471288084983826,-0.01947467215359211,0.06742261350154877,-0.005742352455854416,-0.35321637988090515,-0.27754664421081543,-0.31291913986206055,-0.43358585238456726,0.03825553506612778,-0.029990339651703835,-0.3716098368167877,0.30649688839912415,0.11091417074203491,0.3043219745159149,-0.025648895651102066,0.055773988366127014,0.11077611148357391,-0.20913274586200714,0.059556011110544205,0.0732199102640152,-0.09597408771514893,-0.0635606124997139,-0.038404952734708786,0.22814123332500458,0.05396190658211708,-0.3146722912788391,0.22873182594776154,-0.4832911193370819,0.028970520943403244,0.12122656404972076,0.14510603249073029,-0.2758924961090088,-0.06451041251420975,0.22952130436897278,0.10219232738018036,-0.22457894682884216,-0.05320898815989494,0.12368083000183105,0.040797002613544464,-0.3845303952693939,-0.2231786698102951,-0.37775078415870667,-0.304104745388031,-0.5061203837394714,0.005105996038764715,-0.12084200978279114,0.027261873707175255,0.25992557406425476,-0.09777963161468506,-0.3323688507080078,-0.43140140175819397,-0.21440911293029785,0.11281286180019379,-0.08142588287591934,0.1937367171049118,-0.04798617586493492,0.025788627564907074,-0.0138288838788867,-0.26210036873817444,-0.15307947993278503,-0.21421700716018677,-0.07643884420394897,-0.08376416563987732,-0.3420451879501343,0.3892406225204468,-0.13109615445137024,-0.10442907363176346,-0.0133130494505167,-0.24501319229602814],[0.019342292100191116,-0.012593589723110199,0.3166278898715973,-0.276625394821167,0.1668454110622406,-0.17596031725406647,-0.06956309825181961,0.3155810236930847,0.04734622314572334,-0.09182936698198318,-0.053001053631305695,0.07071240991353989,0.2575747072696686,-0.3928084671497345,-0.07483840733766556,-0.2808893620967865,-0.09266041964292526,0.0005034388159401715,0.3281102478504181,-0.2611578106880188,0.032088883221149445,-0.2654019296169281,0.06513505429029465,0.16408933699131012,0.01909624971449375,-0.051143158227205276,0.024044616147875786,-0.037892285734415054,-0.04422757402062416,-0.13109570741653442,0.08057235926389694,0.28307420015335083,0.13372379541397095,-0.15670228004455566,-0.06107873097062111,0.00015873291704338044,0.1505541205406189,-0.05128204822540283,-0.059290435165166855,0.07952697575092316,0.2876899540424347,0.07844194769859314,0.013299939222633839,0.10327523201704025,0.25213319063186646,-0.10640150308609009,-0.009396130219101906,0.12682047486305237,-0.08581377565860748,-0.15968374907970428,0.10666557401418686,-0.050883688032627106,-0.173087939620018,0.20498304069042206,0.029975026845932007,-0.17456558346748352,0.19187043607234955,0.07303642481565475,0.14614565670490265,0.19384127855300903,0.09729641675949097,-0.06352473795413971,-0.2788594365119934,-0.059756822884082794,-0.11022113263607025,0.10854659229516983,-0.09600647538900375,0.06986943632364273,0.028386779129505157,-0.11257535219192505,-0.0742938369512558,0.15190444886684418,-0.0765826627612114,-0.17071837186813354,-0.0592568963766098,-0.2578749656677246,0.0968487337231636,-0.176314577460289,-0.1252974420785904,-0.14704865217208862,-0.24303555488586426,-0.14279569685459137,-0.11923343688249588,-0.041408754885196686,0.1871347874403,0.023474859073758125,-0.18225155770778656,-0.16982896625995636,-0.05863695219159126,-0.037794746458530426,0.17799295485019684,0.25772324204444885,-0.0496375747025013,-0.07439891248941422,-0.39325761795043945,0.18921463191509247,0.15098020434379578,0.08457886427640915,0.03864464536309242,0.1460680514574051,-0.11122417449951172,0.15584661066532135,0.05649610981345177,-0.06967327743768692,-0.2972905933856964,-0.0264585018157959,-0.27561575174331665,-0.04913417994976044,0.1386527419090271,-0.09209831058979034,-0.18990080058574677,-0.14696946740150452,0.0016841565957292914,-0.0016025473596528172,-0.01725480705499649,0.18725508451461792,0.01149799209088087,-0.08537325263023376,-0.12010698020458221,-0.1659591943025589,-0.25748828053474426,0.10462645441293716,-0.19209955632686615,0.024156495928764343,-0.04564860463142395,0.014192618429660797,-0.04594838246703148,-0.0818476676940918],[0.005153626203536987,-0.07028432935476303,-0.05482469126582146,0.004563785158097744,-0.10799042880535126,-0.1366204172372818,-0.15668430924415588,-0.04612567275762558,-0.07400014251470566,0.15436865389347076,0.13615931570529938,-0.14203447103500366,0.11344150453805923,-0.3016597330570221,0.01739831455051899,-0.050298407673835754,-0.1471688449382782,0.18248021602630615,0.16580307483673096,-0.19367210566997528,0.06912200152873993,-0.15132947266101837,-0.03479111194610596,0.19485841691493988,0.12724526226520538,-0.027706626802682877,-0.05613437294960022,-0.00790311023592949,-0.0443163625895977,-0.0815807357430458,0.2759472727775574,0.4089399576187134,0.10578715801239014,-0.06054076924920082,0.0782119557261467,0.14506231248378754,-0.03559276834130287,-0.18805518746376038,-0.1911945641040802,-0.1277265101671219,0.24092406034469604,0.016762660816311836,0.044297847896814346,-0.015063918195664883,-0.27089640498161316,-0.10806703567504883,0.08567549288272858,0.07632061839103699,-0.0915990099310875,-0.2985322177410126,0.19514869153499603,-0.14003396034240723,-0.05353701487183571,-0.02912824973464012,0.1859520673751831,0.05188089236617088,0.06721527874469757,-0.17485986649990082,-0.0682496428489685,-0.2537078857421875,0.013261297717690468,-0.1966162770986557,-0.029684968292713165,-0.1506454348564148,-0.2547367215156555,0.0875658318400383,-0.2583048343658447,0.12240549921989441,0.19920602440834045,-0.2050575315952301,-0.026539873331785202,0.03426342457532883,-0.15822318196296692,0.21367885172367096,-0.0808173343539238,0.15094944834709167,-0.06316561996936798,-0.006293280981481075,0.08660505712032318,-0.22650159895420074,-0.09185674786567688,0.034383583813905716,-0.13805906474590302,0.03538256883621216,0.0932435616850853,-0.3354623019695282,-0.3634771406650543,0.153821662068367,-0.055516064167022705,-0.09883120656013489,-0.20426304638385773,0.011291359551250935,-0.036836594343185425,0.03817348554730415,-0.11574746668338776,0.07130511850118637,-0.20127344131469727,0.2515619993209839,-0.03185297176241875,-0.009218767285346985,-0.044520966708660126,0.005345331039279699,-0.13866747915744781,-0.05896551534533501,-0.28329747915267944,-0.15691429376602173,0.1435791701078415,-0.15127068758010864,0.02719149924814701,-0.07912147790193558,0.07687058299779892,-0.042773254215717316,-0.010851695202291012,-0.10335353761911392,-0.08188850432634354,0.033981721848249435,-0.09547225385904312,-0.1615176498889923,-0.0724283754825592,-0.37159502506256104,-0.0318104550242424,-0.09116300195455551,-0.20970210433006287,-0.02665756456553936,0.39944249391555786,0.04667741805315018,-0.08594134449958801,-0.383992999792099],[-0.2418595552444458,0.3392347991466522,0.3315841853618622,0.4441503584384918,-0.026308724656701088,0.7696665525436401,0.39204636216163635,-0.33852556347846985,-0.3119873106479645,0.26550233364105225,0.12084858119487762,-0.24821415543556213,-0.45300355553627014,0.39516323804855347,0.0969548225402832,0.12247292697429657,0.7237300872802734,-0.1817622035741806,-0.21728944778442383,-0.036645375192165375,-0.0672755315899849,0.053761761635541916,-0.11189767718315125,-0.2817593812942505,-0.4842338263988495,-0.4956669211387634,-0.22822022438049316,0.11378654092550278,0.13579592108726501,0.41046833992004395,-0.270557701587677,-0.01705978624522686,0.16496329009532928,-0.12590287625789642,0.3730892241001129,-0.08329503238201141,-0.35682743787765503,-0.3908514082431793,-0.5123975276947021,-0.545623242855072,-0.28159600496292114,-0.09665251523256302,0.5558989644050598,0.027478931471705437,-0.3941844701766968,0.5595449209213257,0.3958341181278229,0.0787578895688057,0.1720966100692749,0.4807871878147125,-0.5650700330734253,-0.4164213240146637,-0.23900453746318817,-0.00030031410278752446,0.03604922071099281,0.24852289259433746,0.16769461333751678,0.3750136196613312,0.17540834844112396,0.1073940098285675,-0.04215110465884209,0.3988000154495239,0.17692410945892334,-0.3504508137702942,-0.620374321937561,-0.4100872576236725,-0.5618245005607605,-0.012929140590131283,-0.2740233242511749,-0.4903068244457245,0.5295916795730591,0.15838296711444855,0.6366331577301025,0.2232099175453186,0.4115341603755951,-0.045418448746204376,-0.5029457211494446,0.23199580609798431,0.609035313129425,-0.46201038360595703,-0.08300985395908356,-0.24122914671897888,0.6504263877868652,-0.006376365199685097,-0.7452200055122375,0.36072906851768494,-0.4593118131160736,0.03390797600150108,0.19621716439723969,0.5166480541229248,-0.4794015884399414,-0.18760856986045837,0.42927825450897217,-0.027820538729429245,-0.2246159017086029,-0.1302075833082199,0.18247966468334198,0.05308511108160019,-0.449867308139801,-0.43336549401283264,-0.32417532801628113,-0.3415921628475189,-0.6826478838920593,-0.050070807337760925,0.19917674362659454,0.20975404977798462,0.31500738859176636,-0.2742916941642761,-0.46286869049072266,-0.752358615398407,-0.6224912405014038,0.42362889647483826,0.07597941160202026,-0.052319712936878204,-0.049173615872859955,0.07656048983335495,0.05693460628390312,-0.15248017013072968,-0.4394799768924713,0.18466170132160187,-0.2654009163379669,0.05289633199572563,-0.6119153499603271,0.5438374876976013,-0.07239485532045364,-0.07671463489532471,0.03583625331521034,-0.3617192804813385],[-0.1023135632276535,-0.1317358762025833,0.22003822028636932,-0.1825655996799469,0.12063465267419815,-0.0635947734117508,-0.11626197397708893,0.2072959691286087,0.18439611792564392,-0.030208995565772057,-0.038849491626024246,-0.05029244348406792,0.2473897933959961,-0.15480780601501465,0.04278479889035225,-0.15518639981746674,-0.017690496519207954,0.04227332025766373,0.29126593470573425,-0.3432154357433319,-0.00596994161605835,-0.2622009217739105,0.12543627619743347,0.11498155444860458,-0.09072946012020111,-0.10532188415527344,0.18805165588855743,-0.014739845879375935,0.16863979399204254,-0.004026180133223534,0.3314785659313202,0.3536844253540039,0.13665467500686646,-0.04290643334388733,-0.1427571326494217,0.052936654537916183,0.15975674986839294,-0.00436208164319396,-0.19353453814983368,-0.13152000308036804,0.10697948187589645,0.01599532552063465,0.009806632064282894,-0.11908175051212311,0.12480978667736053,-0.3230062425136566,0.01772310398519039,0.07894568890333176,-0.40278956294059753,-0.29253292083740234,-0.02770940214395523,0.054464612156152725,0.009832696989178658,0.021056683734059334,0.1415209174156189,-0.1767578125,0.2482403665781021,0.00026929256273433566,0.033919624984264374,-0.04317363351583481,0.059033654630184174,-0.16728639602661133,-0.2377103865146637,0.2112540602684021,-0.2622867226600647,0.1720137745141983,-0.11007959395647049,0.1541111320257187,0.20693638920783997,-0.05360141769051552,0.02410873770713806,0.16966307163238525,-0.0969514548778534,-0.18759290874004364,0.005706479772925377,-0.40421807765960693,0.02780928649008274,-0.2629466652870178,-0.05296510457992554,0.1359277367591858,-0.11209691315889359,-0.23329468071460724,-0.1639670431613922,0.05865837261080742,0.0010704287560656667,0.0047451588325202465,-0.14758457243442535,0.10469764471054077,-0.02730671688914299,-0.02887374348938465,0.10420796275138855,0.40019044280052185,-0.1579950749874115,0.05012582615017891,-0.2665395736694336,0.12556537985801697,-0.035739876329898834,0.06599397212266922,-0.07993285357952118,0.31764838099479675,0.10656524449586868,0.03581128641963005,0.07212696224451065,0.12824684381484985,-0.0440400093793869,-0.0028692414052784443,-0.14242158830165863,-0.023999687284231186,0.21932752430438995,-0.0706176832318306,-0.16266094148159027,-0.03914337232708931,0.06004947051405907,-0.0572461299598217,0.1243642196059227,0.17836573719978333,-0.10970256477594376,-0.010849984362721443,-0.23964020609855652,-0.11374314874410629,-0.24788515269756317,-0.01985486038029194,-0.017721714451909065,-0.0003936267748940736,0.16296561062335968,0.07677801698446274,-0.17967012524604797,-0.11794810742139816],[-0.04557862877845764,-0.046023886650800705,-0.07674803584814072,-0.023083951324224472,-0.06261960417032242,-0.2715485990047455,-0.09842663258314133,-0.09217189997434616,0.1231495589017868,0.07770241051912308,-0.016034742817282677,-0.13867069780826569,-0.1182442456483841,-0.1303633451461792,0.03738214448094368,-0.06610581278800964,0.005306387320160866,-0.12904563546180725,-0.10684414207935333,-0.036069974303245544,0.04600616171956062,-0.11574121564626694,-0.14821484684944153,0.10540016740560532,-0.04955014958977699,-0.03784759342670441,-0.05141434818506241,-0.006159423850476742,0.10166720300912857,0.10310196876525879,0.17309847474098206,0.11397503316402435,0.04785098135471344,-0.16595131158828735,0.10509908944368362,-0.15311893820762634,-0.2352757602930069,-0.017952416092157364,-0.08889615535736084,-0.1783808320760727,0.08052410185337067,0.13498733937740326,-0.08823927491903305,0.08953239023685455,-0.16043472290039062,0.12024516612291336,0.005888916552066803,-0.014567219652235508,-0.13277976214885712,0.028958119451999664,0.11941229552030563,-0.23562128841876984,-0.03257641941308975,-0.0366932712495327,0.20190802216529846,0.096066914498806,-0.1182384192943573,-0.08781122416257858,-0.028658287599682808,-0.12142013013362885,0.1243555024266243,-0.25039008259773254,0.015361284837126732,0.03766753152012825,-0.2620072364807129,-0.04047137498855591,-0.11399225145578384,0.12996023893356323,0.26229149103164673,-0.02204417623579502,-0.04017128422856331,0.1181512400507927,-0.0007648368482477963,0.1459324061870575,-0.01667482778429985,0.019563714042305946,0.003211032133549452,-0.004732118453830481,-0.025330539792776108,-0.286634236574173,-0.16069945693016052,-0.2625376880168915,-0.07439082860946655,-0.023640329018235207,-0.1122589185833931,-0.1742909699678421,-0.2782020568847656,-0.12890951335430145,0.16503439843654633,-0.1992356777191162,-0.14018283784389496,0.10625652968883514,-0.15169967710971832,0.15863634645938873,-0.12853045761585236,0.08880682289600372,-0.18569315969944,0.08522175252437592,0.09579072147607803,-0.09357823431491852,-0.021253950893878937,-0.19056043028831482,-0.28506746888160706,0.0011529295006766915,-0.13899478316307068,0.11093243211507797,0.042379193007946014,-0.238968625664711,-0.05946090444922447,-0.19431237876415253,-0.015452898107469082,-0.09403987228870392,0.12383656948804855,0.09721498936414719,0.0392429456114769,0.16408617794513702,-0.04581136628985405,-0.015581466257572174,0.03401409462094307,-0.2063824087381363,-0.1590135097503662,-0.07560742646455765,-0.13812212646007538,0.11716419458389282,0.30710017681121826,-0.06941130757331848,-0.07246226072311401,-0.19750230014324188],[0.21758989989757538,-0.10553856194019318,0.05709822475910187,-0.3532463312149048,0.04877718165516853,0.2283809930086136,0.004067487083375454,0.137727752327919,0.02837546356022358,-0.1090254858136177,0.20186567306518555,-0.16584661602973938,0.042070962488651276,-0.21861805021762848,0.03842182084918022,0.2944100797176361,0.013071876950562,-0.013869666494429111,0.25353723764419556,-0.08248516172170639,0.10539402067661285,-0.2137058675289154,-0.05937373638153076,0.3133447468280792,-0.1344190388917923,-0.19987650215625763,-0.015708524733781815,-0.03169042989611626,-0.04373707249760628,-0.07036454230546951,-0.034997276961803436,0.11108187586069107,0.008245167322456837,-0.15711663663387299,-0.24487365782260895,0.15933874249458313,-0.03545420989394188,0.040718887001276016,-0.10073123127222061,0.06933966279029846,0.17691142857074738,0.03800031170248985,-0.3365912139415741,-0.09132927656173706,0.018948882818222046,-0.23404549062252045,-0.2525275945663452,0.11174279451370239,0.024139953777194023,-0.023183776065707207,0.05719989165663719,-0.17508329451084137,-0.05542874336242676,-0.014558646827936172,0.01816767081618309,0.15212002396583557,0.05035709589719772,0.14128239452838898,-0.14312849938869476,-0.2031424641609192,-0.0724758505821228,-0.05299282819032669,-0.0790991261601448,-0.07080285251140594,0.06461390107870102,0.06691200286149979,0.2926483154296875,-0.14641784131526947,0.2585626542568207,0.21021683514118195,0.14870810508728027,-0.1250329613685608,-0.10872889310121536,-0.0828235074877739,-0.04983723536133766,-0.27723050117492676,-0.21294346451759338,-0.3976384401321411,-0.22346104681491852,-0.2516096532344818,-0.309699684381485,-0.011699208058416843,-0.2563921809196472,-0.0606330968439579,-0.03578319773077965,0.00808373186737299,-0.20488150417804718,-0.05191094055771828,0.030712667852640152,-0.0647447481751442,-0.05763185769319534,0.1199212297797203,-0.21004503965377808,0.044198039919137955,-0.2358321249485016,-0.11452912539243698,0.3692592680454254,0.19174931943416595,-0.08607489615678787,0.1638655811548233,-0.20282596349716187,0.054691728204488754,0.008417317643761635,0.052003927528858185,-0.18540681898593903,0.005909037310630083,-0.27080848813056946,0.025492219254374504,0.0023139645345509052,0.12498682737350464,0.010505888611078262,-0.072336345911026,-0.13967128098011017,0.05090628191828728,0.0751064270734787,0.03312460333108902,-0.022223547101020813,-0.1430077850818634,0.022603018209338188,-0.33674073219299316,-0.2607475221157074,-0.11884243041276932,-0.08054579794406891,0.1725732982158661,-0.16193599998950958,-0.057337455451488495,-0.027410760521888733,0.12097577005624771],[-0.001519543118774891,-0.02051197551190853,0.1524294912815094,-0.06497492641210556,0.1791326403617859,0.06169969588518143,-0.23309683799743652,0.003780580125749111,-0.1280287504196167,-0.07146687060594559,0.04776017367839813,-0.11103218048810959,-0.08200885355472565,-0.2827463150024414,-0.07954122126102448,0.008280972950160503,0.12589609622955322,0.007207145448774099,0.17395396530628204,-0.16438531875610352,-0.07577379792928696,0.09547014534473419,0.17070475220680237,-0.03395884484052658,-0.024586178362369537,-0.1287115514278412,-0.04628916084766388,0.04588579013943672,0.060480717569589615,0.050329748541116714,0.052356209605932236,0.08171894401311874,-0.10448406636714935,-0.07043617963790894,0.09758277982473373,0.1895490139722824,-0.14063547551631927,-0.05483543127775192,-0.13578268885612488,-0.07536698877811432,-0.023419994860887527,0.14401529729366302,-0.08113116770982742,0.009191715158522129,0.004554197192192078,-0.1687999665737152,-0.019453445449471474,-0.019125832244753838,-0.08328250050544739,0.020910445600748062,-0.11109043657779694,-0.17409613728523254,0.1442345827817917,0.1360049992799759,0.12331677973270416,-0.08421827852725983,-0.08549077063798904,0.04860292747616768,0.1749349981546402,-0.0035341365728527308,0.04200499504804611,-0.06111285462975502,-0.004041916225105524,-0.022319218143820763,-0.05684727057814598,-0.08432300388813019,0.06767652183771133,-0.002983836689963937,-0.021455777809023857,0.0741848349571228,0.007001662626862526,0.09381324797868729,0.05888717994093895,-0.00758884334936738,0.07633227854967117,-0.08014559000730515,-0.16440719366073608,-0.16143429279327393,0.053885798901319504,-0.11604444682598114,-0.13609817624092102,-0.03552164137363434,-0.01932327263057232,0.10115323960781097,-0.20113489031791687,0.04559564217925072,-0.139375239610672,-0.0001703468878986314,-0.0698339194059372,-0.034980300813913345,-0.14873719215393066,0.035023000091314316,0.15521985292434692,0.16919592022895813,0.014020481146872044,0.11171046644449234,-0.15529470145702362,0.1595916599035263,-0.08947242051362991,-0.006628238596022129,-0.0014128776965662837,-0.009870185516774654,-0.20129920542240143,0.14744065701961517,0.07082788646221161,0.14378510415554047,0.04214022308588028,-0.09991646558046341,-0.3156970143318176,-0.10421916097402573,-0.07310491055250168,-0.028540605679154396,0.0450858511030674,0.19473214447498322,-0.06387366354465485,0.00484900688752532,0.08492162823677063,-0.1201976016163826,-0.260221004486084,-0.2911018431186676,-0.12446071952581406,-0.1328759491443634,-0.175513356924057,-0.0228508859872818,0.08513488620519638,-0.053400564938783646,0.1404402107000351,-0.20302322506904602],[-0.08445582538843155,-0.05576606094837189,0.003726382739841938,0.3510321378707886,0.18939894437789917,-0.23420898616313934,-0.06242120638489723,-0.10840029269456863,-0.4056868851184845,0.04103626310825348,0.04280076175928116,0.2240377962589264,-0.41786977648735046,0.14292776584625244,-0.09843222051858902,0.016373706981539726,-0.10650525987148285,0.1977241486310959,-0.2638316750526428,0.21153156459331512,-0.054519154131412506,0.08054278045892715,0.04059286415576935,0.12766696512699127,0.06139638274908066,0.19287176430225372,0.25154292583465576,0.0873536765575409,0.07009459286928177,-0.061002541333436966,-0.01508250366896391,0.20420244336128235,-0.17258085310459137,0.11450514942407608,0.23487365245819092,0.06037512794137001,-0.08883266150951385,0.19054405391216278,-0.25312045216560364,-0.19016948342323303,-0.19732479751110077,-0.15577273070812225,0.25094714760780334,0.12674008309841156,-0.21613435447216034,-0.011903219856321812,-0.16205547749996185,-0.023404113948345184,0.06945241242647171,-0.05270760506391525,0.23580531775951385,0.05590987205505371,0.027323158457875252,0.026356544345617294,-0.12317045032978058,0.13282805681228638,-0.29471355676651,0.03377485275268555,0.03521478921175003,0.23480382561683655,0.026886334642767906,0.016442080959677696,0.21284052729606628,0.06493231654167175,-0.22212758660316467,0.10387272387742996,0.13015200197696686,-0.07650063186883926,0.14023132622241974,-0.08848915249109268,-0.012823855504393578,0.11023532599210739,-0.26807937026023865,0.07504280656576157,-0.10589667409658432,0.09319688379764557,0.046029455959796906,0.21924631297588348,-0.1365431398153305,-0.12256606668233871,0.1307658553123474,0.29205384850502014,-0.21507714688777924,0.04930010065436363,0.12447714060544968,-0.29913806915283203,-0.22318178415298462,0.04364901781082153,0.007840489968657494,0.022131379693746567,-0.018583614379167557,0.09723102301359177,-0.19542908668518066,-0.03230176493525505,0.06112578138709068,-0.183468759059906,-0.20808203518390656,0.1972106397151947,0.13895821571350098,-0.08696679770946503,0.019779391586780548,-0.1615184247493744,-0.019477158784866333,-0.0243663489818573,0.13105541467666626,0.09796905517578125,0.19960206747055054,-0.05939474329352379,-0.20360098779201508,-0.09493982791900635,0.04286197945475578,0.03210247680544853,0.023429367691278458,0.016549162566661835,-0.05252449959516525,-0.011346155777573586,-0.1257651299238205,0.06881075352430344,0.08219326287508011,0.10264075547456741,0.04767937958240509,0.036289479583501816,0.07333119958639145,-0.125006765127182,0.15347525477409363,0.017535602673888206,-0.09466836601495743,-0.4612787067890167],[0.10346114635467529,0.040746454149484634,-0.24757391214370728,-0.11337147653102875,0.013624469749629498,-0.05472814291715622,0.015961218625307083,0.243137389421463,-0.10221923887729645,-0.017127180472016335,0.040314916521310806,0.061559438705444336,0.07264173775911331,-0.15524670481681824,-0.0383528470993042,0.1809006780385971,-0.3157673180103302,-0.0033833314664661884,0.06878067553043365,-0.031679995357990265,0.0331343449652195,-0.19306622445583344,0.021044695749878883,0.39862555265426636,-0.07161985337734222,-0.30976685881614685,-0.10882404446601868,-0.009861445985734463,-0.0030105893965810537,0.02644653432071209,-0.001879181363619864,-0.02576608397066593,0.1347402036190033,-0.07066014409065247,-0.134842187166214,-0.12194675207138062,-0.06910494714975357,0.006151149049401283,0.027075938880443573,0.21624046564102173,0.2545805275440216,0.10711733251810074,-0.0006539258174598217,0.048329684883356094,0.23054155707359314,-0.0681818500161171,-0.20008954405784607,-0.05521540343761444,-0.13855452835559845,-0.1889781355857849,0.03276652842760086,0.15778489410877228,-0.17081865668296814,-0.0032235109247267246,0.07813024520874023,0.2384854555130005,0.11541849374771118,0.04515290632843971,-0.035302333533763885,-0.0710524171590805,0.02897593006491661,-0.006911157164722681,-0.2668152153491974,0.0019428218947723508,0.016567518934607506,0.15119929611682892,0.19051270186901093,-0.20318444073200226,0.17799407243728638,0.08451344817876816,-0.04566118121147156,-0.0597853921353817,-0.09406275302171707,-0.04966123402118683,-0.14300736784934998,0.07621299475431442,-0.07971788197755814,-0.17758499085903168,-0.2007872760295868,-0.09369638562202454,-0.03587507829070091,-0.1202627643942833,-0.16968682408332825,0.08283989131450653,0.20045985281467438,0.20099332928657532,-0.07934469729661942,0.07953673601150513,0.026539014652371407,-0.03997938334941864,-0.17664022743701935,0.20737822353839874,-0.38117918372154236,-0.05538606643676758,-0.22791405022144318,-0.08207342028617859,0.2486107349395752,0.17718461155891418,0.07667473703622818,0.12291952967643738,0.153123676776886,0.06764691323041916,0.03942742198705673,0.1918804943561554,-0.1812923401594162,0.11289145052433014,-0.022847048938274384,-0.013024868443608284,0.04895889386534691,-0.12426441162824631,-0.13542555272579193,-0.1738681048154831,-0.02833082340657711,0.10142745822668076,0.06751342117786407,-0.027409251779317856,-0.17897936701774597,-0.16495877504348755,-0.19563288986682892,-0.2804321050643921,-0.17511746287345886,-0.08408228307962418,0.016775138676166534,-0.017246056348085403,-0.11362192779779434,-0.05307435616850853,0.0904589593410492,-0.09392580389976501],[0.11885230988264084,-0.17235608398914337,-0.03975338861346245,-0.06813697516918182,0.1778436154127121,-0.0951353907585144,-0.0005983547889627516,0.08401042968034744,-0.06842200458049774,-0.04597874730825424,-0.06604839861392975,-0.025174438953399658,0.10146575421094894,-0.2044178694486618,0.01999467983841896,-0.01506314892321825,0.02733060158789158,0.019382625818252563,0.16112764179706573,-0.10497531294822693,0.059964463114738464,-0.001084797433577478,0.04857056587934494,-0.03778783231973648,-0.21422404050827026,0.07517340034246445,-0.1548376828432083,0.04097599536180496,0.05457800626754761,-0.08204810321331024,-0.12809279561042786,-0.07910646498203278,0.08414070308208466,0.0377773642539978,-0.05694449692964554,0.058957286179065704,-0.022047152742743492,-0.006120183505117893,-0.05874491482973099,0.0369427427649498,0.11238648742437363,-0.0748385414481163,-0.06312773376703262,0.0062028709799051285,0.08234312385320663,0.11351175606250763,-0.12945745885372162,-0.038373418152332306,0.03252800181508064,-0.06568604707717896,-0.1795569658279419,-0.16436439752578735,-0.004167500883340836,0.030212771147489548,0.00867780577391386,0.08315587043762207,0.20485207438468933,-0.05982888489961624,0.05471671372652054,-0.16170258820056915,-0.016718139871954918,-0.05917484313249588,0.01200852356851101,0.08213980495929718,-0.0954430028796196,-0.0743166133761406,0.09186706691980362,0.0666932463645935,-0.01172066293656826,0.0815477967262268,-0.12018363922834396,-0.040815625339746475,0.012730106711387634,-0.03750701993703842,0.014642184600234032,0.008655735291540623,-0.17298665642738342,0.11189807206392288,0.12254893779754639,-0.1792147308588028,-0.27167055010795593,-0.022407108917832375,0.04642641171813011,-0.02555428445339203,-0.14857162535190582,-0.2127310335636139,-0.2655060291290283,0.07553783804178238,0.16286879777908325,-0.11719785630702972,0.04781834036111832,0.0837169662117958,-0.05960026755928993,-0.14866599440574646,0.07913962751626968,0.16089850664138794,-0.11890332400798798,-0.02582654170691967,-0.1252554953098297,-0.05507049709558487,-0.0233976561576128,-0.12811224162578583,-0.05474592372775078,0.12130152434110641,-0.10288651287555695,0.01986199989914894,-0.12043065577745438,-0.11238519102334976,-0.04617521911859512,-0.18359345197677612,-0.19954483211040497,0.01645464263856411,-0.14085349440574646,0.1556706726551056,0.022341875359416008,0.0674646869301796,-0.09432386606931686,0.009574783965945244,-0.12208521366119385,-0.000779218680690974,-0.06171358376741409,0.06651999056339264,-0.13750126957893372,0.11866996437311172,-0.023620517924427986,0.09712012112140656,0.05076448619365692,-0.09503567218780518],[0.02212555892765522,0.07914892584085464,-0.13261552155017853,0.12961147725582123,0.020225027576088905,-0.2916078269481659,-0.1851729154586792,-0.2301795780658722,-0.293081134557724,0.10639435052871704,0.06624589115381241,0.03507909178733826,-0.29733842611312866,-0.04438667744398117,0.022560957819223404,0.23637141287326813,-0.15909472107887268,0.10215826332569122,-0.056727584451436996,0.22291269898414612,0.13339832425117493,0.12531748414039612,-0.0381350964307785,0.24499262869358063,0.09734522551298141,0.21955887973308563,0.17627295851707458,0.04853999614715576,-0.095523402094841,-0.12701526284217834,0.16710041463375092,0.1477981060743332,-0.1627124696969986,-0.10382222384214401,0.02006767876446247,-0.037455812096595764,-0.32097557187080383,-0.013101896271109581,-0.27992039918899536,-0.20136401057243347,-0.17195236682891846,0.03792743384838104,0.09790817648172379,0.18054825067520142,-0.35457998514175415,0.1818358600139618,0.19503402709960938,-0.09116780757904053,0.22396492958068848,0.23425355553627014,0.2838064432144165,-0.1333876997232437,-0.08919963240623474,0.11385438591241837,0.08468189090490341,0.12943507730960846,-0.37031757831573486,-0.16472826898097992,-0.08860242366790771,0.11259935051202774,0.02104412578046322,-0.03289174661040306,0.20926214754581451,0.12839487195014954,-0.14977683126926422,0.005348564591258764,0.020729249343276024,-0.08893413841724396,0.2416542023420334,0.05123480036854744,-0.0696302205324173,0.059657689183950424,-0.21330374479293823,0.06958230584859848,0.009293326176702976,-0.04682588949799538,-0.06404701620340347,0.224176287651062,-0.06484013050794601,-0.3058198392391205,0.12649288773536682,-0.017466537654399872,-0.1445653736591339,-0.07562431693077087,-0.0834115743637085,-0.14875644445419312,0.05101542919874191,0.11091823130846024,-0.10925787687301636,-0.013962792232632637,-0.19921691715717316,0.07098476588726044,-0.06175338476896286,-0.029501205310225487,-0.2573288381099701,-0.0680621936917305,-0.14592431485652924,0.19061803817749023,-0.13717974722385406,-0.02428954839706421,-0.0921381339430809,-0.09985658526420593,-0.043510552495718,0.05564481019973755,-0.01596001535654068,0.17549185454845428,0.24884271621704102,-0.14786815643310547,-0.31067436933517456,-0.15709136426448822,-0.02361271157860756,0.05692772939801216,-0.03384440764784813,-0.04811560735106468,0.16525483131408691,-0.2583395540714264,0.03106100857257843,0.05490783974528313,0.16290082037448883,-0.1152782291173935,0.1566147655248642,-0.01396653987467289,0.03131330758333206,-0.0727725476026535,0.06816915422677994,0.13124226033687592,0.14765740931034088,-0.4218631088733673],[0.1509992927312851,0.004003910813480616,-0.17412671446800232,-0.1498517394065857,0.028016531839966774,0.2872910797595978,0.022845763713121414,-0.13102024793624878,-0.05997293069958687,-0.0240614153444767,0.03449730947613716,-0.03708162158727646,-0.035804569721221924,-0.02294284664094448,-0.06592446565628052,0.0014113589422777295,-0.01808304712176323,-0.11041911691427231,-0.1769506335258484,-0.16663971543312073,-0.08580490946769714,-0.025370322167873383,0.04939979687333107,0.03812011331319809,-0.1076456606388092,-0.21603688597679138,-0.010583638213574886,-0.09597877413034439,0.06560824066400528,-0.06531070172786713,-0.06621624529361725,-0.18432007730007172,-0.029042085632681847,-0.0573902390897274,-0.18746407330036163,-0.15515924990177155,-0.005950734484940767,-0.0186733677983284,-0.013723081909120083,-0.058881375938653946,-0.19234688580036163,-0.18323461711406708,-0.009830772876739502,-0.05701744556427002,0.014543445780873299,-0.24218815565109253,-0.22271253168582916,0.021413076668977737,-0.08951397240161896,-0.07602734118700027,0.09269073605537415,0.14623194932937622,-0.25541961193084717,0.10409735143184662,0.0025954176671802998,0.18661321699619293,-0.04351577162742615,-0.20984357595443726,-0.012231499888002872,0.11920101940631866,-0.10003632307052612,-0.16106806695461273,-0.22108250856399536,-0.05389232933521271,-0.05186229944229126,0.18925751745700836,0.02699175849556923,0.044387612491846085,-0.0476607009768486,-0.07698176801204681,-0.13415636122226715,-0.04938071593642235,-0.3357701301574707,-0.19793365895748138,-0.1746339499950409,-0.04725956544280052,0.024711348116397858,-0.1650499850511551,-0.32400453090667725,-0.06064318120479584,0.08367698639631271,-0.19673651456832886,0.14570626616477966,0.17225754261016846,0.07515321671962738,0.38172826170921326,0.0913991704583168,-0.025513894855976105,0.06088027358055115,-0.12331496179103851,0.03958822414278984,0.01562940701842308,-0.3173277676105499,0.0005858273943886161,-0.09142931550741196,-0.12008319050073624,0.44439440965652466,0.10619138926267624,0.016784274950623512,-0.13539959490299225,0.06268416345119476,0.09554076194763184,-0.11163689941167831,-0.10411906242370605,0.12273700535297394,-0.18261192739009857,-0.18884743750095367,-0.08271624147891998,0.08921393007040024,-0.16804341971874237,0.024573754519224167,-0.14489513635635376,-0.028341490775346756,0.04431304708123207,0.08325786888599396,-0.037291817367076874,0.016033722087740898,-0.17966994643211365,-0.12770068645477295,0.006963981315493584,0.032513730227947235,0.20053315162658691,0.13880056142807007,-0.1701279729604721,0.004310903139412403,-0.010385093279182911,0.08230551332235336,0.19821541011333466],[-0.18833327293395996,-0.14473530650138855,0.17932769656181335,-0.17301279306411743,-0.016981707885861397,-0.09299854189157486,0.09552790969610214,-0.03299592807888985,0.09843206405639648,-0.21081000566482544,0.19020289182662964,-0.14025835692882538,0.06110566481947899,0.13142432272434235,0.19923056662082672,-0.036575354635715485,0.15666507184505463,-0.08200570940971375,-0.07693040370941162,-0.02833515591919422,0.09225956350564957,0.14758597314357758,0.14487506449222565,-0.14047151803970337,0.13706322014331818,-0.1469680219888687,-0.31836676597595215,-0.0439399853348732,0.022222798317670822,-0.10267647355794907,-0.09013433754444122,-0.35130229592323303,-0.08224903792142868,0.14262431859970093,-0.1608097404241562,-0.14144955575466156,-0.12999536097049713,0.23216743767261505,-0.139064222574234,0.3004586398601532,-0.0010871670674532652,0.11124486476182938,-0.26591768860816956,0.04717330262064934,-0.19519522786140442,0.020691970363259315,0.024379540234804153,0.06442465633153915,-0.09274183958768845,0.08628269284963608,-0.09881842136383057,-0.08832702040672302,-0.06583293527364731,0.06000860780477524,-0.03603922203183174,-0.11164383590221405,-0.08606851100921631,-0.1289721429347992,0.12287489324808121,-0.09130466729402542,0.16465707123279572,0.21842271089553833,0.27814221382141113,-0.0028402977623045444,0.04717345908284187,-0.23637256026268005,0.09840624034404755,0.15210922062397003,-0.07530436664819717,-0.05975094437599182,-0.012436207383871078,-0.40883657336235046,0.10990341007709503,-0.06298866122961044,0.21143078804016113,-0.001118023763410747,-0.011472845450043678,0.030641760677099228,-0.2031259685754776,-0.09636212885379791,0.037125930190086365,-0.197744220495224,-0.23068761825561523,0.10315731167793274,-0.007316661067306995,-0.044618237763643265,0.1775524914264679,-0.028007009997963905,0.13338838517665863,0.04110638052225113,-0.24415770173072815,-0.10734456032514572,0.03643025830388069,0.07188867777585983,0.10042324662208557,0.01546064205467701,-0.06660138070583344,-0.3608469069004059,-0.29948699474334717,0.17570090293884277,-0.35734447836875916,0.14947474002838135,-0.011757157742977142,0.0905701071023941,-0.22716757655143738,-0.040025338530540466,-0.3192127048969269,0.34144389629364014,-0.060982391238212585,0.019488457590341568,-0.11660394072532654,-0.14204594492912292,0.15403641760349274,-0.03079337626695633,-0.04090940207242966,0.07087305188179016,0.07487894594669342,0.12393715232610703,-0.157130166888237,0.03938141465187073,0.10466581583023071,0.013454016298055649,0.09874541312456131,-0.009446128271520138,0.10924424976110458,-0.039184533059597015,0.03967156633734703,-0.15724511444568634],[0.02625592239201069,-0.08784971386194229,-0.10698822140693665,0.22421354055404663,0.05247363820672035,-0.18357811868190765,-0.046318117529153824,-0.14280490577220917,-0.17775800824165344,-0.11799484491348267,-0.07116610556840897,0.2927226722240448,-0.14153243601322174,0.09898990392684937,-0.043687764555215836,0.14565186202526093,-0.1507810354232788,0.07983029633760452,-0.27398720383644104,0.03002663142979145,-0.18177689611911774,0.04530167207121849,0.06027249991893768,0.01833798550069332,0.05846956744790077,0.03640327602624893,0.19681784510612488,-0.10331489890813828,0.07509682327508926,-0.14586609601974487,-0.07073520123958588,0.08092524856328964,-0.11695218831300735,0.16537900269031525,-0.05514347180724144,-0.12152828276157379,-0.2458781749010086,-0.030563386157155037,-0.18522527813911438,0.08382376283407211,-0.20752038061618805,0.0059167807921767235,-0.0509762316942215,-0.05670902505517006,-0.4118770956993103,0.16226057708263397,0.13479933142662048,0.0793503150343895,-0.09543657302856445,0.09724894165992737,0.11283977329730988,-0.27073127031326294,-0.21894147992134094,-0.011394796893000603,-0.11643629521131516,0.006123024970293045,-0.26721030473709106,-0.11129798740148544,-0.03794883191585541,0.06671562790870667,-0.012480422854423523,0.018286971375346184,0.2946247160434723,0.07515452802181244,0.13293984532356262,0.013025613501667976,0.17233043909072876,0.21383772790431976,-0.008566204458475113,-0.011772621423006058,0.17316769063472748,-0.09412843734025955,-0.039858099073171616,0.08020437508821487,-0.05452817305922508,-0.0332932248711586,0.13420043885707855,0.1526554673910141,-0.008628790266811848,-0.2347032129764557,-0.016253717243671417,0.13228300213813782,-0.2426668107509613,0.16054686903953552,-0.18180231750011444,-0.13899849355220795,0.1110832467675209,0.18146203458309174,-0.13079586625099182,-0.12088984251022339,-0.337825745344162,-0.09894216060638428,-0.06721208244562149,0.17807526886463165,0.15777559578418732,-0.13153786957263947,-0.018783286213874817,0.007558660581707954,-0.13280810415744781,-0.09683337062597275,-0.19578313827514648,-0.034243665635585785,-0.2538404166698456,-0.06813142448663712,0.11279015988111496,-0.1342015415430069,-0.009931511245667934,-0.011599848978221416,-0.2168576866388321,-0.005814877804368734,-0.06740838289260864,-0.1355329155921936,-0.04681513085961342,0.03973513841629028,-0.18948307633399963,-0.030726861208677292,0.021651070564985275,0.19213466346263885,-0.014049533754587173,-0.07911806553602219,0.14156395196914673,0.05290953814983368,0.0341053269803524,-0.12806756794452667,0.1229202151298523,-0.1004796102643013,0.054512590169906616,-0.26536068320274353],[0.030959660187363625,-0.0651998445391655,-0.4146454632282257,-0.2829742133617401,0.010679430328309536,0.2269059270620346,0.1501290649175644,-0.2042251080274582,-0.14746177196502686,0.03044569492340088,-0.050077568739652634,-0.0635918527841568,-0.1184433251619339,-0.001829036744311452,0.11893980205059052,0.14418914914131165,-0.08289094269275665,-0.0713157132267952,-0.004437308758497238,-0.00711170444265008,-0.1214294284582138,0.18438248336315155,-0.180344820022583,0.05402762070298195,0.007327938452363014,-0.12238489091396332,0.044712964445352554,-0.10285058617591858,-0.008224633522331715,-0.3180306553840637,-0.2788550853729248,-0.14821814000606537,-0.3036119341850281,0.010360338725149632,-0.35429057478904724,-0.36664843559265137,-0.2656285762786865,0.14746834337711334,0.04789835587143898,-0.05207541212439537,-0.059440966695547104,-0.18772390484809875,-0.13731950521469116,0.018142227083444595,0.06544798612594604,-0.03220019116997719,0.037549395114183426,-0.09468775242567062,-0.12218059599399567,-0.06239524856209755,0.023229053243994713,0.14664718508720398,-0.4496096968650818,-0.08393192291259766,-0.335504949092865,-0.00044305672054179013,-0.2256280928850174,0.059806592762470245,0.031854692846536636,-0.022358495742082596,-0.06143316254019737,-0.14234448969364166,-0.030056066811084747,-0.14227809011936188,0.15618915855884552,0.027340030297636986,-0.017417505383491516,-0.1645224392414093,-0.05988723784685135,0.058533281087875366,-0.01702899858355522,-0.1830517053604126,-0.09819599241018295,-0.05606717988848686,-0.12344007939100266,0.15746158361434937,0.10277556627988815,-0.35772058367729187,-0.1345576047897339,0.044354334473609924,0.011367933824658394,-0.15441733598709106,0.1307847499847412,-0.06022416427731514,-0.022148029878735542,0.3117128312587738,0.27067747712135315,-0.13092629611492157,-0.10520557314157486,-0.0016882066847756505,-0.09998826682567596,-0.052797943353652954,-0.1283264011144638,-0.09065026789903641,-0.06417234987020493,-0.19862541556358337,0.40766972303390503,-0.042147547006607056,-0.010866224765777588,0.06069682165980339,-0.006135198753327131,-0.041733309626579285,-0.09743490070104599,-0.1515209674835205,0.058569230139255524,-0.05636567994952202,0.08123363554477692,0.12063931673765182,0.1359470784664154,-0.13277743756771088,0.19047211110591888,-0.08287030458450317,0.13801300525665283,-0.03241773322224617,0.041199877858161926,0.026796571910381317,-0.04336898401379585,0.13185830414295197,-0.027639755979180336,0.3018293082714081,0.02592441812157631,-0.028956234455108643,-0.06761175394058228,-0.34480682015419006,-0.005927613005042076,-0.09412102401256561,-0.18710805475711823,-0.033862169831991196],[-0.11246143281459808,-0.10684293508529663,0.05989713966846466,-0.24315553903579712,-0.020828833803534508,0.1509702056646347,0.210190549492836,-0.23394179344177246,0.3159196376800537,-0.40207162499427795,-0.04065530374646187,-0.02185976319015026,-0.20217230916023254,0.3077266216278076,0.11411673575639725,-0.08371496200561523,-0.025464335456490517,-0.200360506772995,-0.06154445558786392,0.17148463428020477,0.15344944596290588,0.2838071584701538,0.08830336481332779,-0.31954121589660645,-0.20022274553775787,-0.18354783952236176,-0.31809884309768677,0.002197788329795003,0.05141371116042137,-0.051591601222753525,-0.21938873827457428,-0.47752276062965393,-0.10332580655813217,0.3914793133735657,-0.3847685158252716,-0.33735570311546326,-0.1296696960926056,0.0336032398045063,0.13765555620193481,0.3275912404060364,-0.17031556367874146,-0.08553771674633026,-0.111931711435318,0.08315499126911163,-0.08351922035217285,0.03997625783085823,0.12334142625331879,0.0404425710439682,-0.20466670393943787,0.13980257511138916,-0.2125086486339569,-0.2418544590473175,-0.23236307501792908,0.007886133156716824,-0.08740995824337006,-0.12819954752922058,-0.1766560971736908,0.07728306949138641,-0.17895826697349548,-0.050179820507764816,-0.012051397003233433,0.23468932509422302,0.3456532061100006,0.11341145634651184,0.35181018710136414,-0.4021011292934418,0.04912741854786873,0.35788270831108093,-0.08874532580375671,0.1009632796049118,0.06785307079553604,-0.4237060248851776,-0.0024802517145872116,0.1285659521818161,0.18810445070266724,-0.10478730499744415,-0.12997031211853027,-0.14300015568733215,-0.13180062174797058,-0.07776964455842972,-0.043504226952791214,-0.0598873645067215,-0.0028578098863363266,-0.0405365526676178,-0.3170389235019684,0.076296366751194,0.3795151114463806,0.10089201480150223,0.12097515910863876,0.19331850111484528,-0.2508745789527893,-0.19423487782478333,0.15423506498336792,0.14801114797592163,0.009835237637162209,-0.1798194944858551,-0.07666300237178802,-0.2543652057647705,-0.05630933493375778,0.13811345398426056,-0.29701584577560425,0.20509396493434906,-0.1296725571155548,0.02531898021697998,-0.15042564272880554,0.1925421804189682,-0.36948806047439575,0.3847036361694336,0.04627024382352829,-0.0334710031747818,-0.02036772482097149,-0.12628576159477234,0.11029066145420074,-0.03087599016726017,0.0508357398211956,0.03912730887532234,0.015852976590394974,0.12379779666662216,-0.08462856709957123,0.24369479715824127,0.21187420189380646,0.19789651036262512,0.1196766197681427,-0.30293574929237366,0.17817603051662445,-0.08476824313402176,0.09160947799682617,0.059652380645275116],[-0.04552263021469116,-0.26906341314315796,-0.15570324659347534,0.06288771331310272,-0.008528079837560654,-0.2964514195919037,0.03966991603374481,-0.16326001286506653,0.07481072843074799,-0.14516127109527588,-0.03968345746397972,0.13213351368904114,-0.22961843013763428,0.07560564577579498,0.12669767439365387,0.21149657666683197,-0.06569964438676834,-0.008204245008528233,-0.2624829411506653,0.1263059675693512,-0.05400673300027847,0.2683790922164917,-0.13482363522052765,0.057817377150058746,0.10928558558225632,0.08723714202642441,-0.06196509301662445,0.011371034197509289,-0.1197175458073616,-0.1434570997953415,-0.2620508074760437,-0.011621305719017982,-0.3091444671154022,0.1673269420862198,-0.2931442856788635,-0.11580158025026321,-0.21667896211147308,0.11468906700611115,-0.1700608879327774,0.1344391405582428,-0.07976680994033813,0.1448597013950348,-0.22542704641819,-0.11978231370449066,-0.40641143918037415,-0.01675621047616005,0.1489255726337433,0.015913639217615128,0.1165604293346405,-0.02325144223868847,-0.09699160605669022,-0.025642726570367813,-0.1895446628332138,-0.02204377017915249,-0.21873325109481812,0.003134877420961857,-0.13970528542995453,-0.26618820428848267,0.10407685488462448,-0.2287946343421936,-0.09408432245254517,-0.06275168806314468,0.4269016683101654,-0.018670866265892982,0.1915646195411682,-0.282036155462265,0.1866401582956314,0.23385728895664215,-0.02611665427684784,-0.08850190788507462,-0.05910802260041237,-0.15534907579421997,0.08094172924757004,-0.0029564204160124063,0.05294054374098778,0.11864675581455231,-0.16534040868282318,-0.061349403113126755,-0.3127897083759308,0.06108636409044266,-0.05999201908707619,-0.05866057053208351,-0.03254491835832596,-0.010932890698313713,-0.04270897060632706,-0.2545388638973236,0.28852227330207825,-0.06995164602994919,-0.03937188908457756,-0.012510162778198719,-0.32078689336776733,0.06167658045887947,-0.12511315941810608,0.007648587692528963,0.036320872604846954,-0.09449106454849243,-0.2359590083360672,-0.15763582289218903,0.09060211479663849,-0.07514733076095581,-0.10661771893501282,-0.09122145175933838,-0.06200715899467468,-0.07612068206071854,-0.07063663005828857,0.0638752356171608,0.03978478163480759,0.11834274232387543,-0.21673931181430817,0.01638307422399521,0.224458247423172,-0.04827658459544182,0.016241341829299927,-0.18207137286663055,0.055876169353723526,-0.24549704790115356,0.19618545472621918,0.18107546865940094,0.2126467227935791,0.05811651423573494,0.26520153880119324,0.15555231273174286,0.030899550765752792,-0.21339380741119385,0.23024407029151917,-0.0684882402420044,-0.05877640098333359,-0.18411144614219666],[-0.01798405312001705,-0.15186817944049835,-0.19879120588302612,-0.23397000133991241,0.0031803478486835957,0.16795548796653748,-0.050723250955343246,0.17989972233772278,0.11265330761671066,0.03763120248913765,0.013403178192675114,-0.10218494385480881,0.1268419623374939,-0.049720652401447296,0.07170585542917252,-0.07628284394741058,-0.09989530593156815,0.18919530510902405,0.04882914572954178,-0.09263525158166885,-0.16533738374710083,-0.25885599851608276,0.15446966886520386,0.12715882062911987,0.09324496984481812,-0.3212239146232605,-0.19747619330883026,0.14810509979724884,-0.06453341245651245,-0.07638992369174957,-0.04801786690950394,-0.22136549651622772,-0.15734253823757172,-0.13615518808364868,-0.12705668807029724,0.06733618676662445,0.04013288393616676,0.11075126379728317,0.0744190514087677,0.22907601296901703,0.2733042240142822,-0.05688875913619995,-0.19007597863674164,-0.045657314360141754,0.08586374670267105,-0.287192702293396,-0.12583576142787933,0.12233424186706543,-0.2092822790145874,-0.1008930504322052,0.021989023312926292,0.014730706810951233,-0.21075661480426788,0.07771576941013336,-0.047584086656570435,0.23001804947853088,-0.149297297000885,-0.0484338216483593,0.10552453249692917,0.00498774740844965,0.026226628571748734,-0.027714191004633904,-0.14454911649227142,0.16721971333026886,0.13392433524131775,-0.034584902226924896,0.024616699665784836,-0.14997515082359314,0.0927439033985138,0.2851701080799103,-0.02820231392979622,-0.2694658637046814,-0.18237972259521484,0.0939406305551529,-0.13659512996673584,-0.06567026674747467,-0.0838073343038559,-0.28758731484413147,-0.09678085148334503,-0.15943960845470428,-0.17361566424369812,0.10199370235204697,-0.11500981450080872,0.09172007441520691,-0.02402292937040329,0.20285314321517944,-0.07905016839504242,-0.030563529580831528,-0.08897373825311661,-0.21238525211811066,0.013357945717871189,-0.08925247192382812,-0.07910662144422531,-0.07707970589399338,-0.07180759310722351,0.06932362914085388,0.4211397171020508,-0.15183435380458832,0.055755093693733215,0.1008717268705368,-0.04151146858930588,0.05128839984536171,-0.03827766329050064,0.10023077577352524,-0.04156908392906189,0.013663984835147858,-0.2690945267677307,0.12388377636671066,0.11992932856082916,0.07708476483821869,0.09630057960748672,-0.1066422089934349,-0.13156794011592865,-0.08411955088376999,0.06474541127681732,-0.1895407736301422,-0.025452319532632828,-0.0967644453048706,-0.08491649478673935,-0.10722637176513672,0.046816252171993256,0.09234443306922913,0.07482773065567017,-0.04431283101439476,-0.04363734647631645,0.032543979585170746,0.10291904211044312,0.151537224650383],[-0.13131116330623627,-0.20208561420440674,-0.0657290443778038,-0.1762697994709015,-0.13239596784114838,0.036759644746780396,0.02760307677090168,-0.034018099308013916,0.05371496453881264,0.10987046360969543,-0.020603638142347336,0.1567493975162506,-0.01933363452553749,-0.030066320672631264,-0.04075583443045616,0.048074498772621155,-0.13318344950675964,-0.1099565252661705,0.028625626116991043,-0.18454356491565704,-0.03677685558795929,-0.11070776730775833,-0.010451854206621647,0.14179319143295288,0.09126899391412735,-0.15500102937221527,0.012730604968965054,0.13692696392536163,0.15354596078395844,0.0437629371881485,0.06961376219987869,-0.11491584777832031,0.08457252383232117,0.05451149865984917,0.050348564982414246,0.06430129706859589,-0.10895636677742004,0.02585359290242195,-0.20514950156211853,-0.16390597820281982,-0.14643850922584534,0.21935206651687622,0.0621066689491272,-0.043288636952638626,-0.08754994720220566,-0.030454017221927643,-0.062125153839588165,-0.07068802416324615,-0.0792447030544281,0.08631360530853271,0.05340280756354332,-0.11475763469934464,-0.05693730711936951,0.024376241490244865,0.1817442625761032,0.08487808704376221,-0.14111417531967163,-0.06625630706548691,0.06383278220891953,-0.1087435930967331,-0.10655149817466736,0.02175006829202175,0.059144094586372375,0.10743844509124756,-0.12175475060939789,0.010125010274350643,-0.11255055665969849,-0.22863434255123138,-0.11766937375068665,-0.05574797838926315,0.07364367693662643,0.19804386794567108,-0.027700936421751976,-0.01298734825104475,-0.005929423961788416,-0.038852982223033905,-0.23030820488929749,-0.11284797638654709,-0.024302223697304726,0.03245922178030014,0.03566884621977806,-0.12755675613880157,-0.0799366757273674,0.027616653591394424,-0.07365702092647552,-0.16215966641902924,-0.22128978371620178,-0.03269319236278534,-0.1427692323923111,0.050630904734134674,-0.03872919827699661,-0.08810349553823471,-0.08279671519994736,0.1536872386932373,-0.12723037600517273,-0.047401443123817444,-0.26630067825317383,0.029966576024889946,-0.2357688993215561,-0.14314004778862,-0.0044301897287368774,-0.01814725622534752,0.06913674622774124,-0.04916879162192345,-0.12654462456703186,0.13448138535022736,0.017375828698277473,-0.13798551261425018,-0.11207599937915802,-0.11131146550178528,0.010663441382348537,0.07617981731891632,-0.10397570580244064,0.12619294226169586,0.09542985260486603,-0.0681292787194252,0.1616763174533844,-0.19279633462429047,-0.14035217463970184,-0.1441379338502884,-0.14167609810829163,0.05455053225159645,-0.1770288497209549,0.088128000497818,0.0371367484331131,0.2015993595123291,0.010344953276216984,-0.14497025310993195],[0.09709211438894272,-0.02747347205877304,-0.14801956713199615,0.3851432800292969,0.05523844435811043,0.04396764189004898,-0.29144591093063354,-0.0386965312063694,-0.49987098574638367,0.19556276500225067,-0.11502926796674728,0.24580791592597961,-0.37434178590774536,0.059083741158246994,-0.0542789064347744,0.4511559307575226,-0.011455698870122433,0.049632273614406586,-0.3425005078315735,-0.01392618753015995,-0.12477929145097733,0.27711281180381775,0.01739870011806488,0.2202875167131424,0.14626654982566833,0.25510019063949585,0.34839141368865967,0.03169681131839752,0.060591183602809906,-0.19515956938266754,-0.1292182356119156,0.2307705134153366,-0.2088504582643509,-0.024945184588432312,-0.05309094861149788,-0.22305957973003387,-0.3590799868106842,0.16673043370246887,-0.16397599875926971,-0.34425392746925354,-0.2077024281024933,-0.05897936224937439,0.1461896300315857,0.0019104317761957645,-0.046367473900318146,0.1828940212726593,-0.03350752219557762,0.08619937300682068,0.11899098753929138,0.07940308749675751,0.22887469828128815,0.10916151851415634,-0.1866551786661148,-0.10002260655164719,-0.027058355510234833,0.10854216665029526,-0.23546293377876282,-0.2575252056121826,-0.017225638031959534,0.002878891071304679,0.09791415929794312,-0.20949168503284454,0.030128270387649536,0.11229251325130463,-0.09483852982521057,0.14651896059513092,0.2928248941898346,-0.10329817235469818,0.014574849046766758,0.006721833720803261,-0.006615558173507452,0.280434250831604,-0.23971736431121826,0.1362171322107315,-0.311436265707016,0.0810805931687355,-0.18080520629882812,0.24954630434513092,-0.14771555364131927,0.01581992581486702,0.2635119557380676,-0.04418691247701645,-0.100609689950943,0.15415334701538086,-0.031959209591150284,-0.056157466024160385,-0.06818164885044098,-0.089229516685009,-0.1042461022734642,0.13236644864082336,-0.2667967677116394,-0.07264621555805206,-0.03746788948774338,0.09465191513299942,-0.043228160589933395,-0.2726385295391083,-0.1061619371175766,0.19800280034542084,-0.006598279811441898,-0.313398152589798,0.1079377755522728,0.042604055255651474,-0.035552140325307846,-0.039069678634405136,0.2752229571342468,0.12441426515579224,0.28178298473358154,-0.18441815674304962,-0.23188668489456177,0.023335346952080727,0.030685491859912872,-0.05915287509560585,-0.07593085616827011,0.0541800819337368,-0.049094945192337036,-0.1423591673374176,0.11973696202039719,-0.20225074887275696,0.08618055284023285,0.0545666478574276,0.03024572692811489,0.051861755549907684,0.0856909528374672,-0.10968221724033356,-0.11215250194072723,-0.025827787816524506,-0.18064256012439728,-0.36074990034103394],[-0.007817281410098076,0.10784120857715607,0.00968832615762949,-0.2890813648700714,0.06452272832393646,0.05864132195711136,-0.15302829444408417,0.2441355586051941,-0.1883617490530014,0.1471211016178131,0.018890753388404846,-0.11063691228628159,0.06381412595510483,-0.06946377456188202,0.06660592555999756,0.18230386078357697,-0.33984819054603577,0.16699892282485962,0.1339990347623825,-0.054154664278030396,0.15616227686405182,-0.23604300618171692,0.16940245032310486,0.09968681633472443,0.12891241908073425,-0.04418887943029404,0.2224438339471817,-0.0560467466711998,0.18446074426174164,0.08456236124038696,0.021442919969558716,-0.15324416756629944,-0.157428577542305,-0.08537360280752182,0.003971849102526903,0.2650197148323059,0.07640554755926132,-0.012303994037210941,0.1015239804983139,0.02469189092516899,0.30220258235931396,0.11278820782899857,-0.05733934044837952,-0.00582255469635129,0.13978029787540436,-0.17662560939788818,-0.10752300918102264,0.10459262132644653,-0.013960018754005432,-0.29702696204185486,0.05086639150977135,0.130093514919281,-0.338700532913208,-0.03993454575538635,0.03158314526081085,0.21490994095802307,0.139244943857193,-0.00660631014034152,0.17413704097270966,0.10928349941968918,0.06251881271600723,-0.12884163856506348,-0.1361483484506607,0.10210245102643967,-0.0036276080645620823,0.14704670011997223,0.01701761782169342,-0.3411388695240021,0.020035196095705032,0.08208849281072617,0.10939811915159225,0.048737041652202606,-0.26495373249053955,-0.02369474619626999,-0.23526057600975037,-0.19401133060455322,0.08647049963474274,-0.3581095337867737,-0.06222042441368103,-0.018953444436192513,0.015354674309492111,0.09593965113162994,-0.11923418194055557,0.04848954454064369,0.1105775460600853,0.042671650648117065,0.019681520760059357,0.08784542977809906,-0.019909044727683067,-0.13485507667064667,0.2633953094482422,0.2513740360736847,-0.2048334926366806,-0.014417978003621101,-0.12020828574895859,0.06757237017154694,0.2585109770298004,0.07865924388170242,-0.1601095199584961,-0.062497034668922424,0.028771061450242996,0.01487767230719328,0.22054284811019897,-0.021109052002429962,0.052588075399398804,0.10516046732664108,-0.10100211948156357,-0.0826687291264534,-0.07264376431703568,-0.04978254809975624,0.11234205961227417,-0.1556197702884674,0.11823727935552597,0.14507092535495758,-0.02107994072139263,-0.13989754021167755,0.17455419898033142,-0.23804979026317596,0.07902654260396957,-0.2416011244058609,-0.14450383186340332,0.13609035313129425,0.07291638106107712,0.008413493633270264,-0.2677176594734192,0.1097940132021904,0.11840351670980453,0.06207417696714401],[0.0995892882347107,-0.11095944792032242,-0.18802885711193085,-0.1531810611486435,-0.04671116918325424,-0.0765770897269249,-0.13224747776985168,-0.030245039612054825,0.022590724751353264,-0.04438919201493263,-0.14181040227413177,-0.1356743425130844,0.16234393417835236,-0.32906022667884827,0.004540910478681326,-0.014828053303062916,-0.24350400269031525,-0.13829106092453003,0.012678461149334908,-0.19398632645606995,0.030918516218662262,-0.020865129306912422,-0.09682245552539825,0.0004996923380531371,-0.0067901574075222015,0.07810339331626892,0.053801726549863815,0.07600419223308563,-0.009990929625928402,-0.1997123658657074,0.024411626160144806,-0.03625403344631195,-0.043632056564092636,0.0232694149017334,-0.030633453279733658,-0.03834252431988716,0.1855650097131729,-0.04093071445822716,-0.007233049254864454,0.0036640751641243696,0.02996021881699562,0.06627346575260162,-0.16579502820968628,-0.09001167863607407,-0.052142184227705,-0.007275136653333902,-0.25614485144615173,0.0738045871257782,-0.14624425768852234,-0.22397653758525848,-0.17149320244789124,0.04470400884747505,0.150124192237854,-0.008991149254143238,-0.03603941947221756,-0.10799327492713928,0.1114756390452385,-0.13648547232151031,0.0011719516478478909,0.0006016796687617898,0.08585718274116516,-0.18559597432613373,-0.23099806904792786,-0.23051275312900543,-0.12332727015018463,0.15667453408241272,0.16483163833618164,0.03770262002944946,0.03569234535098076,0.09601153433322906,-0.11748728156089783,0.024480722844600677,-0.05058132857084274,-0.008044062182307243,-0.13434720039367676,-0.1657702624797821,0.0008388913702219725,-0.005299035459756851,-0.08081389963626862,-0.09976987540721893,-0.013711042702198029,-0.09609358012676239,-0.1759318858385086,0.010052116587758064,0.02961220219731331,-0.15319357812404633,0.09715771675109863,-0.011412863619625568,0.030195048078894615,-0.22441329061985016,0.05053151398897171,-0.07395807653665543,0.042275816202163696,-0.0025367848575115204,0.12061838805675507,0.10891077667474747,-0.06014009565114975,0.038140084594488144,-0.20611077547073364,0.04840700328350067,-0.1279834657907486,-0.19041679799556732,0.03930671513080597,-0.042503856122493744,-0.2937565743923187,-0.03341729938983917,-0.03777054697275162,0.08828487247228622,0.08014372736215591,-0.18275371193885803,-0.005766511894762516,-0.019741199910640717,0.11601769179105759,0.022385846823453903,-0.08377224206924438,0.12818752229213715,-0.05447188392281532,0.0466771237552166,0.07008365541696548,-0.16596093773841858,-0.025802426040172577,0.020742716267704964,-0.013459301553666592,-0.025314830243587494,-0.16058658063411713,0.14108379185199738,-0.02653149515390396,0.030783560127019882],[0.11306587606668472,-0.13755939900875092,0.04016682133078575,0.3389441668987274,-0.023629436269402504,0.095677949488163,-0.07540369778871536,0.19013959169387817,-0.1633654087781906,0.08527979254722595,-0.009414147585630417,0.004152937792241573,-0.12712362408638,-0.051845770329236984,0.03366003558039665,0.2550326883792877,0.19279731810092926,-0.019567102193832397,-0.0736863762140274,-0.20512977242469788,0.07580206543207169,0.16114932298660278,0.11003873497247696,0.318823903799057,-0.056150589138269424,-0.07253110408782959,0.2623312771320343,0.012747217901051044,0.13412591814994812,-0.20487041771411896,-0.07779722660779953,0.2452133297920227,-0.09776295721530914,-0.06471133977174759,-0.0849810466170311,-0.03227453678846359,-0.2520361840724945,0.16441908478736877,-0.25416576862335205,-0.028346547856926918,-0.10561778396368027,0.025675158947706223,0.08014847338199615,0.15915019810199738,-0.07914922386407852,0.25080132484436035,0.14685477316379547,-0.13463371992111206,0.19777549803256989,0.04866086691617966,0.001341266673989594,0.0362895242869854,-0.043757304549217224,-0.07061874121427536,0.2591112554073334,0.009639367461204529,-0.15593527257442474,-0.08182889223098755,-0.0026353909634053707,-0.08320219814777374,0.13606658577919006,0.035176344215869904,-0.1996949017047882,0.14589473605155945,-0.21337184309959412,-0.03456356003880501,0.3054932653903961,-0.13025091588497162,0.17131377756595612,0.16476128995418549,0.1525629460811615,0.15806706249713898,-0.14728526771068573,0.061553556472063065,-0.015018926002085209,0.10215586423873901,-0.1746210902929306,0.11855374276638031,-0.0428386889398098,-0.16322444379329681,-0.12093792110681534,-0.003278394928202033,-0.04745154082775116,0.08651356399059296,-0.1313420683145523,-0.0769883245229721,-0.2739016115665436,-0.164972186088562,0.09591101855039597,-0.03063875436782837,-0.1604369729757309,0.017188208177685738,-0.22922684252262115,0.053691618144512177,-0.14024290442466736,-0.11356870085000992,-0.05600559338927269,0.17906947433948517,-0.17486295104026794,-0.28339943289756775,-0.06213601306080818,-0.22794803977012634,0.08536729216575623,0.01728762872517109,-0.22594857215881348,0.04241195321083069,0.18237316608428955,-0.1748690903186798,-0.37365472316741943,-0.12917032837867737,-0.3028358817100525,-0.09460984915494919,0.11185312271118164,-0.09999850392341614,0.08959362655878067,-0.12088409811258316,0.10850634425878525,-0.25651824474334717,-0.12337518483400345,-0.06874239444732666,-0.28602734208106995,-0.06981378048658371,-0.09822183102369308,0.028879979625344276,0.14798133075237274,-0.003978126682341099,0.053503088653087616,-0.12146519869565964],[0.09949300438165665,0.10535186529159546,0.03439556062221527,-0.23043696582317352,0.009388905018568039,0.16839951276779175,-0.19751276075839996,0.0040245880372822285,-0.20340542495250702,-0.0611853189766407,-0.09952512383460999,-0.08627118170261383,0.15467940270900726,-0.2591803967952728,-0.015487981960177422,-0.0337117500603199,-0.04984845593571663,-0.1374560296535492,-0.015040483325719833,-0.0915943905711174,0.00685644056648016,0.09112603217363358,0.04649577662348747,-0.21979141235351562,0.002265334129333496,0.16774921119213104,-0.0071399458684027195,0.022301124408841133,-0.11331667751073837,0.06895720213651657,-0.05041275918483734,-0.028260204941034317,-0.2691636085510254,-0.005269156768918037,-0.17373618483543396,0.16288237273693085,0.00882202759385109,-0.14912740886211395,0.13786889612674713,0.06274829059839249,0.06714452058076859,0.07897774875164032,0.0375017449259758,-0.14953848719596863,0.25372347235679626,-0.31822410225868225,-0.33376839756965637,-0.011038247495889664,0.3095244765281677,-0.09300265461206436,0.04213526099920273,0.16978640854358673,-0.1867053061723709,0.09113546460866928,0.15171115100383759,0.3090519905090332,0.06303450465202332,-0.12327378988265991,0.09726357460021973,-0.08254843950271606,0.17873534560203552,-0.10079016536474228,-0.181597039103508,0.1299649178981781,0.05971848964691162,0.18931928277015686,-0.1406680941581726,-0.3852134048938751,-0.11620190739631653,0.17632248997688293,-0.17556118965148926,0.2099417895078659,0.04395446181297302,-0.1602744460105896,-0.28423622250556946,-0.2570710778236389,0.039911314845085144,-0.09250181913375854,-0.028119657188653946,-0.04500566050410271,-0.061757590621709824,0.19626262784004211,-0.07969783246517181,-0.06465999037027359,0.19931970536708832,0.21753980219364166,-0.012584120035171509,0.09558254480361938,-0.14164139330387115,-0.18278229236602783,0.17908751964569092,-0.033565960824489594,-0.19540748000144958,0.06576816737651825,-0.10151287913322449,-0.2372506707906723,0.26945436000823975,-0.10846486687660217,-0.12515372037887573,-0.03129345178604126,0.04826229438185692,0.06086476892232895,0.19335466623306274,-0.012125462293624878,0.0017104091821238399,-0.017447596415877342,-0.11833523213863373,-0.12481962889432907,0.07372885942459106,0.22173240780830383,0.15415586531162262,-0.22464287281036377,0.01967443712055683,-0.058982640504837036,0.12550272047519684,-0.024174993857741356,0.12535083293914795,-0.20882339775562286,0.2623820900917053,-0.1592601090669632,-0.13359709084033966,0.15945997834205627,0.07909777760505676,-0.1392165720462799,-0.10035090893507004,0.1326349675655365,-0.06551213562488556,0.17814111709594727],[0.05947119742631912,-0.17339161038398743,-0.144819438457489,-0.002134636975824833,0.056755345314741135,-0.18014581501483917,0.20101885497570038,-0.2445668876171112,-0.021559718996286392,-0.10687002539634705,-0.006158528849482536,-0.07286270707845688,-0.04802493005990982,0.09345889836549759,0.10736816376447678,-0.16599248349666595,-0.04278559237718582,-0.12554360926151276,-0.15303529798984528,0.0778011828660965,0.010994755662977695,-0.17210544645786285,-0.1581440269947052,-0.0744367390871048,0.05386531352996826,-0.008955872617661953,-0.14128455519676208,-0.0017642693128436804,-0.007368090096861124,-0.13826987147331238,-0.1276436299085617,0.06708063185214996,-0.25518736243247986,-0.03154883161187172,-0.33960485458374023,-0.2630643844604492,-0.05988961085677147,0.09652859717607498,0.10651460289955139,0.035228144377470016,-0.07367204874753952,-0.01838964782655239,-0.2683897018432617,0.00735893240198493,0.1664050817489624,0.06369082629680634,-0.14463390409946442,0.02601478062570095,-0.3391975164413452,-0.11147790402173996,0.182008758187294,0.3533913195133209,-0.19242170453071594,-0.0493055135011673,-0.21318276226520538,-0.16997069120407104,-0.050678569823503494,0.09537845849990845,-0.0625629723072052,0.13648271560668945,0.07303817570209503,-0.2445315271615982,-0.05493166297674179,-0.16932089626789093,0.2774301767349243,-0.04083148390054703,-0.03710005059838295,0.016147615388035774,-0.02064257673919201,0.04151920974254608,-0.31736525893211365,-0.14212892949581146,-0.08506742864847183,-0.23442116379737854,0.1416824758052826,-0.03868503123521805,0.16349327564239502,-0.12469374388456345,0.03783135488629341,0.05450030788779259,0.2588896155357361,-0.22390002012252808,-0.2699165940284729,0.08278699219226837,-0.07320330291986465,0.04784088209271431,0.2548428773880005,0.03108912892639637,-0.060440175235271454,-0.12375238537788391,-0.03400205820798874,-0.19066931307315826,-0.0032600201666355133,-0.14712882041931152,-0.10877636075019836,0.09039600938558578,-0.019412070512771606,-0.22598016262054443,0.2420796900987625,0.007643435150384903,0.13968488574028015,0.0033227528911083937,0.09422431141138077,-0.10498373955488205,0.16892878711223602,0.02609330043196678,-0.13581188023090363,0.084794782102108,0.21782717108726501,0.18054649233818054,0.30128300189971924,-0.13327525556087494,0.021656159311532974,0.033126626163721085,0.0869867354631424,-0.085210882127285,0.12132001668214798,0.06898558139801025,-0.06557178497314453,0.16533125936985016,0.06574991345405579,-0.06176367402076721,0.3858238458633423,-0.18432210385799408,-0.02293938398361206,0.08698853850364685,0.0864943191409111,0.12794670462608337],[0.32761839032173157,0.019423864781856537,-0.05959746986627579,0.110431008040905,-0.029357261955738068,-0.27181458473205566,0.06592001020908356,-0.21354614198207855,-0.15454614162445068,-0.14180870354175568,0.0928158164024353,-0.12834027409553528,-0.04571913927793503,0.027746036648750305,0.028440717607736588,0.23319049179553986,-0.07606871426105499,0.031131695955991745,-0.2159370332956314,-0.0003272207686677575,0.0875510722398758,0.1267116814851761,0.03126141428947449,0.31887319684028625,-0.08434360474348068,-0.06896185874938965,0.08156297355890274,0.002330394461750984,0.03840310871601105,0.005508785136044025,0.03166438639163971,0.0927264466881752,-0.09278179705142975,-0.009821328334510326,-0.09143204987049103,-0.09350333362817764,-0.08141709864139557,0.06055731326341629,-0.008038448169827461,-0.13711810111999512,0.01820424757897854,-0.07057514041662216,-0.140575110912323,0.08693545311689377,-0.159016951918602,0.16807928681373596,-0.00529338838532567,-0.008153470233082771,-0.03151693567633629,0.026317760348320007,0.054846104234457016,-0.13041076064109802,-0.08735941350460052,0.08405263721942902,-0.04132154583930969,-0.006372332572937012,-0.13737840950489044,-0.2368009239435196,0.05795549973845482,-0.06889606267213821,-0.1311771273612976,0.017186278477311134,-0.10310892015695572,-0.052019327878952026,-0.12180431187152863,0.12821181118488312,0.201355442404747,0.004653547890484333,0.3737315833568573,0.08944503217935562,0.01498132199048996,-0.055924344807863235,-0.029182467609643936,-0.14304426312446594,-0.019950538873672485,0.06818587332963943,-0.024746835231781006,-0.13309679925441742,0.12008770555257797,-0.046458180993795395,-0.0016542586963623762,-0.2142249047756195,-0.06897560507059097,-0.1950223445892334,-0.006518654990941286,0.10077998787164688,-0.04819946736097336,-0.10195805132389069,-0.045030832290649414,-0.3156788945198059,-0.04808085784316063,0.04032910615205765,-0.2893488109111786,0.018055351451039314,-0.20611757040023804,-0.045236311852931976,-0.07004265487194061,-0.1337064653635025,-0.1700950413942337,-0.056724466383457184,-0.09439117461442947,-0.2013481855392456,-0.1921682059764862,0.20088468492031097,-0.31297552585601807,-0.06206376850605011,-0.0229545496404171,-0.081656314432621,-0.15380199253559113,-0.0032348008826375008,0.05142182111740112,0.022344207391142845,-0.030811717733740807,0.055587854236364365,-0.050971269607543945,-0.003978236578404903,-0.06506931781768799,-0.0389556922018528,0.14978037774562836,-0.19962693750858307,-0.09232598543167114,0.04098862409591675,0.01148927304893732,0.06660878658294678,-0.16446559131145477,-0.05606887862086296,-0.025707876309752464,-0.013397696428000927],[-0.2341328263282776,0.10817639529705048,-0.026085859164595604,-0.2776709794998169,0.10383003950119019,0.17242009937763214,0.025700049474835396,0.1545371264219284,-0.19941630959510803,-0.16382868587970734,0.11662384867668152,-0.025286057963967323,-0.008202974684536457,0.06997638195753098,-0.16682085394859314,-0.22750328481197357,-0.17795133590698242,-0.045196037739515305,0.1161172166466713,-0.12813152372837067,0.01898876018822193,-0.14768855273723602,-0.014608492143452168,-0.005515792407095432,0.13497082889080048,0.018750976771116257,0.13662175834178925,0.20119962096214294,-0.11506524682044983,0.06670151650905609,-0.2857304811477661,-0.23668494820594788,-0.024223165586590767,0.035898152738809586,0.14966006577014923,0.15225395560264587,-0.11669116467237473,-0.06511674076318741,0.011242600157856941,0.0924161896109581,0.00024569572997279465,-0.028197413310408592,0.06665180623531342,0.13756971061229706,0.14580217003822327,-0.3743424415588379,-0.26634663343429565,0.08130430430173874,0.21339151263237,0.05043788254261017,-0.03868201747536659,0.07961505651473999,0.011907869949936867,-0.023987123742699623,-0.05937059596180916,0.14602437615394592,-0.009503020904958248,-0.1461540162563324,0.02083578333258629,-0.01327316090464592,-0.0008655161364004016,-0.008327588438987732,-0.12508989870548248,0.015020458027720451,-0.027625130489468575,0.07344352453947067,-0.09843438118696213,-0.16306880116462708,-0.17035187780857086,0.02845843881368637,0.015658440068364143,-0.049967266619205475,0.002746293321251869,-0.1304837018251419,-0.2905575931072235,-0.2683987021446228,-0.0827975794672966,-0.1427270621061325,-0.1132328137755394,0.08820942789316177,0.08698688447475433,0.2414543330669403,0.11918827891349792,0.07719044387340546,0.14457814395427704,0.16701212525367737,0.02426334284245968,-0.07058089971542358,-0.06058313325047493,-0.12281250953674316,0.18295732140541077,0.15289047360420227,0.032166361808776855,0.05624740943312645,0.14049306511878967,-0.21037699282169342,0.28004103899002075,-0.15559831261634827,-0.12911003828048706,0.07974135130643845,-0.0197987612336874,0.03663667291402817,0.08101186901330948,-0.0400182381272316,0.05474600940942764,-0.01630432717502117,-0.12748166918754578,0.12538844347000122,-0.13581348955631256,0.11404073238372803,0.04428694769740105,-0.3150056302547455,-0.0992526188492775,0.16631466150283813,-0.14154863357543945,-0.23731374740600586,0.010296945460140705,0.02060006745159626,0.1507469266653061,0.06333828717470169,-0.08186601847410202,-0.09903661161661148,0.22690948843955994,-0.3530105650424957,-0.15380457043647766,-0.13437245786190033,0.029693376272916794,0.13565190136432648],[0.011361788026988506,-0.21600231528282166,-0.17411184310913086,-0.24073444306850433,-0.016633465886116028,0.11583443731069565,0.012196001596748829,-0.16050833463668823,0.0063244556076824665,0.06060595437884331,0.022248828783631325,-0.03377985581755638,-0.13075010478496552,0.21165554225444794,-0.12830428779125214,0.05759374797344208,-0.16393627226352692,-0.31459686160087585,0.23348285257816315,0.13644637167453766,0.022264713421463966,-0.11080627888441086,0.05056752264499664,-0.10479853302240372,0.0465487577021122,-0.17194011807441711,-0.05046231672167778,0.120461605489254,-0.1283855438232422,-0.32152771949768066,0.0015297585632652044,0.12692378461360931,-0.18653643131256104,-0.35858672857284546,-0.38608649373054504,-0.34817230701446533,0.1550769805908203,0.04499504715204239,0.08952994644641876,-0.2633703052997589,-0.14097249507904053,0.032504547387361526,-0.12332570552825928,-0.04560751095414162,0.08272529393434525,0.021475784480571747,0.007105174940079451,0.19500088691711426,-0.4078736901283264,-0.09444323927164078,0.17168281972408295,0.279507577419281,-0.4044119715690613,0.06583568453788757,-0.3631154000759125,-0.39858773350715637,-0.04867146909236908,0.1951749175786972,0.05375078693032265,0.2221527397632599,0.00807720236480236,-0.3980093002319336,0.07922085374593735,0.020068787038326263,0.028499512001872063,-0.22706115245819092,0.03941180557012558,0.14547456800937653,-0.2252824306488037,-0.12512707710266113,-0.1651567965745926,-0.40677300095558167,-0.2835083305835724,-0.015335776843130589,-0.1247185617685318,0.1282985955476761,0.3406403660774231,-0.03631017729640007,-0.2731377184391022,0.12571074068546295,0.14333860576152802,-0.17695565521717072,-0.052780941128730774,-0.08702869713306427,0.034454140812158585,0.007958616130053997,0.2998363673686981,0.028456566855311394,-0.016152534633874893,0.2832152545452118,-0.14968514442443848,-0.006916591431945562,0.0191641878336668,-0.018398286774754524,-0.14621277153491974,0.07929931581020355,-0.008849739097058773,-0.24452534317970276,0.39626315236091614,0.13742128014564514,0.08188152313232422,0.3825779855251312,-0.2248220145702362,-0.016568191349506378,0.15751105546951294,0.01140291802585125,-0.12613624334335327,0.15500761568546295,0.2527185082435608,-0.26584696769714355,0.34390994906425476,-0.278684139251709,-0.0000025407182420167373,0.0879552960395813,-0.1755392849445343,-0.1642250269651413,